elements: [Cr, Fe, H]
E0: [0, 0, 0]
deltaSplineBins: 0.001
embeddings:
  0: {ndensity: 2, FS_parameters: [1, 1, 1, 0.5], npoti: FinnisSinclairShiftedScaled, rho_core_cutoff: 200000, drho_core_cutoff: 250}
  1: {ndensity: 2, FS_parameters: [1, 1, 1, 0.5], npoti: FinnisSinclairShiftedScaled, rho_core_cutoff: 200000, drho_core_cutoff: 250}
  2: {ndensity: 2, FS_parameters: [1, 1, 1, 0.5], npoti: FinnisSinclairShiftedScaled, rho_core_cutoff: 200000, drho_core_cutoff: 250}
bonds:
  [0, 0]: {nradmax: 1, lmax: 1, nradbasemax: 15, radbasename: ChebExpCos, radparameters: [5.25], radcoefficients: [[[1.3579990770418295, -0.050379441143369084, -0.16345859075320265, -0.27889213611932862, -0.41216550873099939, -0.66793053712544981, -1.1101208756336947, -1.5966742219908194, -1.7962013193589577, -1.4960854916506543, -0.97939853390098053, -0.93518553947700578, -1.4613775787330758, -0.43381829910703201, 7.4528465079564263], [-2.4265420929957133, 0.2829006201500131, 0.90374726720166487, 1.3310218555245878, 1.108416327907602, 0.23861851297542944, -0.71913604236574691, -1.006735117632646, -0.31187968253240017, 0.81326556088658519, 1.268854998068808, 0.43693162110986555, -0.86496207176484141, -0.60929419343214042, 2.6109561678915805]]], prehc: 0, lambdahc: 5, rcut: 6.2000000000000002, dcut: 0.01}
  [0, 1]: {nradmax: 1, lmax: 1, nradbasemax: 15, radbasename: ChebExpCos, radparameters: [5.25], radcoefficients: [[[-0.17614939510246233, 0.067497331440140571, 0.15799141533154318, 0.096876076914767004, -0.083707131295557874, -0.1405662868975727, 0.073898576753623921, 0.37153907723065543, 0.40500159484620446, 0.10474303619056281, -0.17022406182864325, -0.039495874316695344, 0.36761436283078147, 0.41912024030367273, -0.60057061560865099], [0.88828361096714714, 0.15644061950384741, 0.48234747325713517, 0.66036249461073815, 0.45279312150817991, -0.097122005816594317, -0.67508704283089116, -0.92048091919194508, -0.70398000242383774, -0.24279594501138266, 0.054876661942009408, -0.076012300429068272, -0.4902072297865725, -0.66318142413939185, -0.058437880346205194]]], prehc: 0, lambdahc: 5, rcut: 6.2000000000000002, dcut: 0.01}
  [0, 2]: {nradmax: 1, lmax: 1, nradbasemax: 15, radbasename: ChebExpCos, radparameters: [5.25], radcoefficients: [[[0.46281598670636775, 0.3212899040981671, 0.63537905139810635, 0.20074840567708627, -0.38785796152373786, -0.21644022506070137, 0.24952726025482388, 0.005763428514616125, -0.46876691923116537, -0.004991135414010018, 0.65006173222138819, -0.15374688300255362, -0.91867782248161589, 1.0431350968218518, -0.50797889818028907], [0.73153302190315939, 0.17083945919778123, 0.4750073702050891, 0.51778159071627194, 0.16487075872958129, -0.28158915219940017, -0.39691002776641193, -0.1153145249496032, 0.18063676477236962, 0.11931720559046793, -0.16793112865093263, -0.18110218535035713, 0.22450271217817055, 0.38031680348176256, -0.64583878070405931]]], prehc: 0, lambdahc: 5, rcut: 6.2000000000000002, dcut: 0.01}
  [1, 0]: {nradmax: 1, lmax: 1, nradbasemax: 15, radbasename: ChebExpCos, radparameters: [5.25], radcoefficients: [[[-0.17614939510246233, 0.067497331440140571, 0.15799141533154318, 0.096876076914767004, -0.083707131295557874, -0.1405662868975727, 0.073898576753623921, 0.37153907723065543, 0.40500159484620446, 0.10474303619056281, -0.17022406182864325, -0.039495874316695344, 0.36761436283078147, 0.41912024030367273, -0.60057061560865099], [0.88828361096714714, 0.15644061950384741, 0.48234747325713517, 0.66036249461073815, 0.45279312150817991, -0.097122005816594317, -0.67508704283089116, -0.92048091919194508, -0.70398000242383774, -0.24279594501138266, 0.054876661942009408, -0.076012300429068272, -0.4902072297865725, -0.66318142413939185, -0.058437880346205194]]], prehc: 0, lambdahc: 5, rcut: 6.2000000000000002, dcut: 0.01}
  [1, 1]: {nradmax: 1, lmax: 1, nradbasemax: 15, radbasename: ChebExpCos, radparameters: [5.25], radcoefficients: [[[2.4232566087546821, -0.50646865948060482, -1.1742324012641805, -0.60895187653350524, 1.1180527262528546, 2.2433592400265603, 1.3700801895161843, -0.6514305713329277, -1.5755888485283176, -0.56854220318510196, 0.73485199815752278, 0.89251053710117445, 1.3525077522623494, 2.457844216314629, -8.2869036937463445], [4.3710444047758061, 0.86132723267684974, 2.1563337137255782, 1.6181123151270116, -1.0472529172481635, -3.3722914427847677, -2.7194175494483188, 0.45374870735612577, 2.581485099527483, 0.89426839757521925, -2.8017555449440246, -3.4255352211163648, 0.96019823913429703, 4.2060698635139762, -3.6988640126072116]]], prehc: 0, lambdahc: 5, rcut: 6.2000000000000002, dcut: 0.01}
  [1, 2]: {nradmax: 1, lmax: 1, nradbasemax: 15, radbasename: ChebExpCos, radparameters: [5.25], radcoefficients: [[[0.08677357727576418, 0.68088123589435035, 1.2261722588755117, 0.2318396322597206, -0.66548863074094655, -0.054903427554077761, 0.47620293007799447, -0.16496336716483909, -0.31218387989531621, 0.41805813323115404, 0.047005564859408822, -0.49574429308344015, 0.77884283450890368, -0.52418173123460077, 0.19693352222141977], [0.26797536183890985, -0.4112312126714211, -1.1582475773403751, -1.3317831559865023, -0.62376302032894215, 0.33747912609918712, 0.70112260149500671, 0.31577521566314098, -0.19161762309899905, -0.21790979345866568, 0.12761370844777531, 0.26670231306429859, -0.029666149787491356, -0.34952273903831971, -0.32415391457262505]]], prehc: 0, lambdahc: 5, rcut: 6.2000000000000002, dcut: 0.01}
  [2, 0]: {nradmax: 1, lmax: 1, nradbasemax: 15, radbasename: ChebExpCos, radparameters: [5.25], radcoefficients: [[[0.46281598670636775, 0.3212899040981671, 0.63537905139810635, 0.20074840567708627, -0.38785796152373786, -0.21644022506070137, 0.24952726025482388, 0.005763428514616125, -0.46876691923116537, -0.004991135414010018, 0.65006173222138819, -0.15374688300255362, -0.91867782248161589, 1.0431350968218518, -0.50797889818028907], [0.73153302190315939, 0.17083945919778123, 0.4750073702050891, 0.51778159071627194, 0.16487075872958129, -0.28158915219940017, -0.39691002776641193, -0.1153145249496032, 0.18063676477236962, 0.11931720559046793, -0.16793112865093263, -0.18110218535035713, 0.22450271217817055, 0.38031680348176256, -0.64583878070405931]]], prehc: 0, lambdahc: 5, rcut: 6.2000000000000002, dcut: 0.01}
  [2, 1]: {nradmax: 1, lmax: 1, nradbasemax: 15, radbasename: ChebExpCos, radparameters: [5.25], radcoefficients: [[[0.08677357727576418, 0.68088123589435035, 1.2261722588755117, 0.2318396322597206, -0.66548863074094655, -0.054903427554077761, 0.47620293007799447, -0.16496336716483909, -0.31218387989531621, 0.41805813323115404, 0.047005564859408822, -0.49574429308344015, 0.77884283450890368, -0.52418173123460077, 0.19693352222141977], [0.26797536183890985, -0.4112312126714211, -1.1582475773403751, -1.3317831559865023, -0.62376302032894215, 0.33747912609918712, 0.70112260149500671, 0.31577521566314098, -0.19161762309899905, -0.21790979345866568, 0.12761370844777531, 0.26670231306429859, -0.029666149787491356, -0.34952273903831971, -0.32415391457262505]]], prehc: 0, lambdahc: 5, rcut: 6.2000000000000002, dcut: 0.01}
  [2, 2]: {nradmax: 1, lmax: 1, nradbasemax: 15, radbasename: ChebExpCos, radparameters: [5.25], radcoefficients: [[[1.2968047418804021, 0.41979024620816791, 0.89487173593863567, 0.37184481915365253, -0.60334816904749344, -0.55829244307173598, 0.46030491701194887, 0.7184323770776555, -0.32204927729083893, -0.83329297298291916, 0.24410267907911737, 0.99333872327308304, -0.094758041809459737, -0.78564265505323327, 0.82948208267632473], [0.73999225392043555, -0.075046759732847371, -0.18207032699686954, -0.084883170668446056, 0.27822638666130167, 0.59278585103033532, 0.4235181863564017, -0.17187739563006091, -0.48665433002398056, 0.0021677504671289748, 0.77212663617251454, 0.85930606284278632, 0.37323752947353844, 0.37364063363688016, 0.61489690863055313]]], prehc: 0, lambdahc: 5, rcut: 6.2000000000000002, dcut: 0.01}
functions:
  0:
    - {mu0: 0, rank: 1, ndensity: 2, num_ms_combs: 1, mus: [0], ns: [1], ls: [0], ms_combs: [0], ctildes: [1.2376517317981239, -4.5491782451835299]}
    - {mu0: 0, rank: 1, ndensity: 2, num_ms_combs: 1, mus: [0], ns: [2], ls: [0], ms_combs: [0], ctildes: [-0.79419812776764176, 1.3065253372223387]}
    - {mu0: 0, rank: 1, ndensity: 2, num_ms_combs: 1, mus: [0], ns: [3], ls: [0], ms_combs: [0], ctildes: [-1.9028391804824913, 3.556780694783181]}
    - {mu0: 0, rank: 1, ndensity: 2, num_ms_combs: 1, mus: [0], ns: [4], ls: [0], ms_combs: [0], ctildes: [-1.2825466062548525, 3.5691728026098977]}
    - {mu0: 0, rank: 1, ndensity: 2, num_ms_combs: 1, mus: [0], ns: [5], ls: [0], ms_combs: [0], ctildes: [0.84979265947149907, 0.32151519797285749]}
    - {mu0: 0, rank: 1, ndensity: 2, num_ms_combs: 1, mus: [0], ns: [6], ls: [0], ms_combs: [0], ctildes: [1.8489663944824992, -3.3288197351778313]}
    - {mu0: 0, rank: 1, ndensity: 2, num_ms_combs: 1, mus: [0], ns: [7], ls: [0], ms_combs: [0], ctildes: [0.036413371279700353, -3.106111583328627]}
    - {mu0: 0, rank: 1, ndensity: 2, num_ms_combs: 1, mus: [0], ns: [8], ls: [0], ms_combs: [0], ctildes: [-2.4978240490157311, 1.8661825272546342]}
    - {mu0: 0, rank: 1, ndensity: 2, num_ms_combs: 1, mus: [0], ns: [9], ls: [0], ms_combs: [0], ctildes: [-2.0031636271723321, 6.7708672579804015]}
    - {mu0: 0, rank: 1, ndensity: 2, num_ms_combs: 1, mus: [0], ns: [10], ls: [0], ms_combs: [0], ctildes: [1.5181943090357322, 4.9742475627866787]}
    - {mu0: 0, rank: 1, ndensity: 2, num_ms_combs: 1, mus: [0], ns: [11], ls: [0], ms_combs: [0], ctildes: [2.9179030953581728, -3.9262692012262792]}
    - {mu0: 0, rank: 1, ndensity: 2, num_ms_combs: 1, mus: [0], ns: [12], ls: [0], ms_combs: [0], ctildes: [-1.0264030201372001, -9.9464976752621048]}
    - {mu0: 0, rank: 1, ndensity: 2, num_ms_combs: 1, mus: [0], ns: [13], ls: [0], ms_combs: [0], ctildes: [-3.6410654078738367, -1.0475563287017096]}
    - {mu0: 0, rank: 1, ndensity: 2, num_ms_combs: 1, mus: [0], ns: [14], ls: [0], ms_combs: [0], ctildes: [3.5261149504683771, 15.740831380187711]}
    - {mu0: 0, rank: 1, ndensity: 2, num_ms_combs: 1, mus: [0], ns: [15], ls: [0], ms_combs: [0], ctildes: [-1.6615453581257573, -6.0892742244465596]}
    - {mu0: 0, rank: 1, ndensity: 2, num_ms_combs: 1, mus: [1], ns: [1], ls: [0], ms_combs: [0], ctildes: [0.57870906316317272, -5.6896635719313817]}
    - {mu0: 0, rank: 1, ndensity: 2, num_ms_combs: 1, mus: [1], ns: [2], ls: [0], ms_combs: [0], ctildes: [0.2128503990016562, -0.15573469950265667]}
    - {mu0: 0, rank: 1, ndensity: 2, num_ms_combs: 1, mus: [1], ns: [3], ls: [0], ms_combs: [0], ctildes: [0.57867698983214644, -0.44261330450581277]}
    - {mu0: 0, rank: 1, ndensity: 2, num_ms_combs: 1, mus: [1], ns: [4], ls: [0], ms_combs: [0], ctildes: [0.57627630650452277, -0.44780971225803184]}
    - {mu0: 0, rank: 1, ndensity: 2, num_ms_combs: 1, mus: [1], ns: [5], ls: [0], ms_combs: [0], ctildes: [0.027446915783709898, 0.15273828904219247]}
    - {mu0: 0, rank: 1, ndensity: 2, num_ms_combs: 1, mus: [1], ns: [6], ls: [0], ms_combs: [0], ctildes: [-0.63456088814649525, 1.2643274361994834]}
    - {mu0: 0, rank: 1, ndensity: 2, num_ms_combs: 1, mus: [1], ns: [7], ls: [0], ms_combs: [0], ctildes: [-0.7534975623440181, 2.2864078800515855]}
    - {mu0: 0, rank: 1, ndensity: 2, num_ms_combs: 1, mus: [1], ns: [8], ls: [0], ms_combs: [0], ctildes: [-0.16272072144908611, 2.4359712034232737]}
    - {mu0: 0, rank: 1, ndensity: 2, num_ms_combs: 1, mus: [1], ns: [9], ls: [0], ms_combs: [0], ctildes: [0.53507144412834662, 1.3724421130587878]}
    - {mu0: 0, rank: 1, ndensity: 2, num_ms_combs: 1, mus: [1], ns: [10], ls: [0], ms_combs: [0], ctildes: [0.55286739318820577, -0.3155146129975695]}
    - {mu0: 0, rank: 1, ndensity: 2, num_ms_combs: 1, mus: [1], ns: [11], ls: [0], ms_combs: [0], ctildes: [-0.12117393290888902, -1.2932236823377856]}
    - {mu0: 0, rank: 1, ndensity: 2, num_ms_combs: 1, mus: [1], ns: [12], ls: [0], ms_combs: [0], ctildes: [-0.5339693409016586, -0.49716092848295501]}
    - {mu0: 0, rank: 1, ndensity: 2, num_ms_combs: 1, mus: [1], ns: [13], ls: [0], ms_combs: [0], ctildes: [0.04320443368842164, 1.5659104746246444]}
    - {mu0: 0, rank: 1, ndensity: 2, num_ms_combs: 1, mus: [1], ns: [14], ls: [0], ms_combs: [0], ctildes: [0.64247296159020439, 2.3534118423111345]}
    - {mu0: 0, rank: 1, ndensity: 2, num_ms_combs: 1, mus: [1], ns: [15], ls: [0], ms_combs: [0], ctildes: [-0.59516647651991683, -1.4042076435812767]}
    - {mu0: 0, rank: 1, ndensity: 2, num_ms_combs: 1, mus: [2], ns: [1], ls: [0], ms_combs: [0], ctildes: [-0.31505391370170904, -0.98453721803215499]}
    - {mu0: 0, rank: 1, ndensity: 2, num_ms_combs: 1, mus: [2], ns: [2], ls: [0], ms_combs: [0], ctildes: [0.659696841398697, -0.31455100182859308]}
    - {mu0: 0, rank: 1, ndensity: 2, num_ms_combs: 1, mus: [2], ns: [3], ls: [0], ms_combs: [0], ctildes: [1.3498221142846096, -0.84553419910965055]}
    - {mu0: 0, rank: 1, ndensity: 2, num_ms_combs: 1, mus: [2], ns: [4], ls: [0], ms_combs: [0], ctildes: [0.48563147893779435, -0.80087865028877314]}
    - {mu0: 0, rank: 1, ndensity: 2, num_ms_combs: 1, mus: [2], ns: [5], ls: [0], ms_combs: [0], ctildes: [-0.89136272460983013, 0.065965416240370056]}
    - {mu0: 0, rank: 1, ndensity: 2, num_ms_combs: 1, mus: [2], ns: [6], ls: [0], ms_combs: [0], ctildes: [-0.69271147890879015, 1.0169708667754263]}
    - {mu0: 0, rank: 1, ndensity: 2, num_ms_combs: 1, mus: [2], ns: [7], ls: [0], ms_combs: [0], ctildes: [0.6445290406119184, 1.030591914058375]}
    - {mu0: 0, rank: 1, ndensity: 2, num_ms_combs: 1, mus: [2], ns: [8], ls: [0], ms_combs: [0], ctildes: [0.79344006093013275, 0.048801290969661806]}
    - {mu0: 0, rank: 1, ndensity: 2, num_ms_combs: 1, mus: [2], ns: [9], ls: [0], ms_combs: [0], ctildes: [-0.43170587647101533, -0.76989262168838291]}
    - {mu0: 0, rank: 1, ndensity: 2, num_ms_combs: 1, mus: [2], ns: [10], ls: [0], ms_combs: [0], ctildes: [-0.7067337738523225, -0.41855078747537722]}
    - {mu0: 0, rank: 1, ndensity: 2, num_ms_combs: 1, mus: [2], ns: [11], ls: [0], ms_combs: [0], ctildes: [0.43941580611018505, 0.53360438519706588]}
    - {mu0: 0, rank: 1, ndensity: 2, num_ms_combs: 1, mus: [2], ns: [12], ls: [0], ms_combs: [0], ctildes: [0.51500869810939065, 0.58868418840719972]}
    - {mu0: 0, rank: 1, ndensity: 2, num_ms_combs: 1, mus: [2], ns: [13], ls: [0], ms_combs: [0], ctildes: [-0.66046006370814736, -0.4211640468667478]}
    - {mu0: 0, rank: 1, ndensity: 2, num_ms_combs: 1, mus: [2], ns: [14], ls: [0], ms_combs: [0], ctildes: [0.31879663559279869, -0.7099752893268042]}
    - {mu0: 0, rank: 1, ndensity: 2, num_ms_combs: 1, mus: [2], ns: [15], ls: [0], ms_combs: [0], ctildes: [-0.045474583808701119, 0.67991110749256267]}
    - {mu0: 0, rank: 2, ndensity: 2, num_ms_combs: 1, mus: [0, 0], ns: [1, 1], ls: [0, 0], ms_combs: [0, 0], ctildes: [-0.00037466767686539362, -0.0023054899211968488]}
    - {mu0: 0, rank: 2, ndensity: 2, num_ms_combs: 2, mus: [0, 0], ns: [1, 1], ls: [1, 1], ms_combs: [0, 0, 1, -1], ctildes: [-0.020678355822427198, 0.11552080478809069, 0.041356711644854383, -0.23104160957618133]}
    - {mu0: 0, rank: 2, ndensity: 2, num_ms_combs: 1, mus: [0, 1], ns: [1, 1], ls: [0, 0], ms_combs: [0, 0], ctildes: [0.0013268966355845283, 0.0082291437962208683]}
    - {mu0: 0, rank: 2, ndensity: 2, num_ms_combs: 1, mus: [0, 2], ns: [1, 1], ls: [0, 0], ms_combs: [0, 0], ctildes: [0.0019658269406933335, 0.020833029480284666]}
    - {mu0: 0, rank: 2, ndensity: 2, num_ms_combs: 1, mus: [1, 1], ns: [1, 1], ls: [0, 0], ms_combs: [0, 0], ctildes: [0.012322620631721673, -0.039781521716034468]}
    - {mu0: 0, rank: 2, ndensity: 2, num_ms_combs: 1, mus: [1, 2], ns: [1, 1], ls: [0, 0], ms_combs: [0, 0], ctildes: [-0.088233293525940087, -0.20893071456009774]}
    - {mu0: 0, rank: 2, ndensity: 2, num_ms_combs: 2, mus: [1, 2], ns: [1, 1], ls: [1, 1], ms_combs: [0, 0, 1, -1], ctildes: [0.033553665905846304, -0.18353178039347554, -0.067107331811692594, 0.36706356078695102]}
    - {mu0: 0, rank: 2, ndensity: 2, num_ms_combs: 1, mus: [2, 2], ns: [1, 1], ls: [0, 0], ms_combs: [0, 0], ctildes: [0.0074484985020169051, 0.13850182316959886]}
  1:
    - {mu0: 1, rank: 1, ndensity: 2, num_ms_combs: 1, mus: [0], ns: [1], ls: [0], ms_combs: [0], ctildes: [0.57870946212832741, -0.55042104890881594]}
    - {mu0: 1, rank: 1, ndensity: 2, num_ms_combs: 1, mus: [0], ns: [2], ls: [0], ms_combs: [0], ctildes: [0.21285044029611594, -0.053901644578736141]}
    - {mu0: 1, rank: 1, ndensity: 2, num_ms_combs: 1, mus: [0], ns: [3], ls: [0], ms_combs: [0], ctildes: [0.57867682133538478, -0.1919429665368001]}
    - {mu0: 1, rank: 1, ndensity: 2, num_ms_combs: 1, mus: [0], ns: [4], ls: [0], ms_combs: [0], ctildes: [0.57627528794980842, -0.3433065056489028]}
    - {mu0: 1, rank: 1, ndensity: 2, num_ms_combs: 1, mus: [0], ns: [5], ls: [0], ms_combs: [0], ctildes: [0.027447267119965951, -0.41150721430723741]}
    - {mu0: 1, rank: 1, ndensity: 2, num_ms_combs: 1, mus: [0], ns: [6], ls: [0], ms_combs: [0], ctildes: [-0.63456028309288581, -0.3431460614141863]}
    - {mu0: 1, rank: 1, ndensity: 2, num_ms_combs: 1, mus: [0], ns: [7], ls: [0], ms_combs: [0], ctildes: [-0.75349967459249123, -0.2111469393126672]}
    - {mu0: 1, rank: 1, ndensity: 2, num_ms_combs: 1, mus: [0], ns: [8], ls: [0], ms_combs: [0], ctildes: [-0.1627208379203933, -0.2190481976264573]}
    - {mu0: 1, rank: 1, ndensity: 2, num_ms_combs: 1, mus: [0], ns: [9], ls: [0], ms_combs: [0], ctildes: [0.53507228891334335, -0.56188689852320484]}
    - {mu0: 1, rank: 1, ndensity: 2, num_ms_combs: 1, mus: [0], ns: [10], ls: [0], ms_combs: [0], ctildes: [0.5528666640100568, -1.2106963584884489]}
    - {mu0: 1, rank: 1, ndensity: 2, num_ms_combs: 1, mus: [0], ns: [11], ls: [0], ms_combs: [0], ctildes: [-0.12117303305156893, -1.812715975194906]}
    - {mu0: 1, rank: 1, ndensity: 2, num_ms_combs: 1, mus: [0], ns: [12], ls: [0], ms_combs: [0], ctildes: [-0.53396869425398275, -1.8707818183612122]}
    - {mu0: 1, rank: 1, ndensity: 2, num_ms_combs: 1, mus: [0], ns: [13], ls: [0], ms_combs: [0], ctildes: [0.043204319461386621, -1.1444429455834675]}
    - {mu0: 1, rank: 1, ndensity: 2, num_ms_combs: 1, mus: [0], ns: [14], ls: [0], ms_combs: [0], ctildes: [0.6424747021534456, 0.046907665065864246]}
    - {mu0: 1, rank: 1, ndensity: 2, num_ms_combs: 1, mus: [0], ns: [15], ls: [0], ms_combs: [0], ctildes: [-0.5951661177762555, 0.99262071385995465]}
    - {mu0: 1, rank: 1, ndensity: 2, num_ms_combs: 1, mus: [1], ns: [1], ls: [0], ms_combs: [0], ctildes: [1.2357655640424554, -11.487981204103505]}
    - {mu0: 1, rank: 1, ndensity: 2, num_ms_combs: 1, mus: [1], ns: [2], ls: [0], ms_combs: [0], ctildes: [-0.36596033271464051, -0.27152962799513292]}
    - {mu0: 1, rank: 1, ndensity: 2, num_ms_combs: 1, mus: [1], ns: [3], ls: [0], ms_combs: [0], ctildes: [-0.91298768053741519, -0.85964495328689849]}
    - {mu0: 1, rank: 1, ndensity: 2, num_ms_combs: 1, mus: [1], ns: [4], ls: [0], ms_combs: [0], ctildes: [-0.63561769727548756, -1.3054910606831729]}
    - {mu0: 1, rank: 1, ndensity: 2, num_ms_combs: 1, mus: [1], ns: [5], ls: [0], ms_combs: [0], ctildes: [0.58635520026848842, -1.2871410787279207]}
    - {mu0: 1, rank: 1, ndensity: 2, num_ms_combs: 1, mus: [1], ns: [6], ls: [0], ms_combs: [0], ctildes: [1.4306235174829587, -0.67782709957326048]}
    - {mu0: 1, rank: 1, ndensity: 2, num_ms_combs: 1, mus: [1], ns: [7], ls: [0], ms_combs: [0], ctildes: [0.46462479762982467, 0.63239002248110265]}
    - {mu0: 1, rank: 1, ndensity: 2, num_ms_combs: 1, mus: [1], ns: [8], ls: [0], ms_combs: [0], ctildes: [-1.623677319823436, 2.5639312117490793]}
    - {mu0: 1, rank: 1, ndensity: 2, num_ms_combs: 1, mus: [1], ns: [9], ls: [0], ms_combs: [0], ctildes: [-1.9668484371840047, 4.1710112108845587]}
    - {mu0: 1, rank: 1, ndensity: 2, num_ms_combs: 1, mus: [1], ns: [10], ls: [0], ms_combs: [0], ctildes: [0.75658100028895892, 3.5037357485079172]}
    - {mu0: 1, rank: 1, ndensity: 2, num_ms_combs: 1, mus: [1], ns: [11], ls: [0], ms_combs: [0], ctildes: [2.8254779640609899, -0.59308188307810961]}
    - {mu0: 1, rank: 1, ndensity: 2, num_ms_combs: 1, mus: [1], ns: [12], ls: [0], ms_combs: [0], ctildes: [-0.42616457017712805, -5.3578549342353146]}
    - {mu0: 1, rank: 1, ndensity: 2, num_ms_combs: 1, mus: [1], ns: [13], ls: [0], ms_combs: [0], ctildes: [-3.8829456834987184, -3.8643071149577946]}
    - {mu0: 1, rank: 1, ndensity: 2, num_ms_combs: 1, mus: [1], ns: [14], ls: [0], ms_combs: [0], ctildes: [4.4607421817374115, 6.7699294175795135]}
    - {mu0: 1, rank: 1, ndensity: 2, num_ms_combs: 1, mus: [1], ns: [15], ls: [0], ms_combs: [0], ctildes: [-3.1930216213790965, 8.0949305913293816]}
    - {mu0: 1, rank: 1, ndensity: 2, num_ms_combs: 1, mus: [2], ns: [1], ls: [0], ms_combs: [0], ctildes: [0.47110605688932972, -0.68099928942975785]}
    - {mu0: 1, rank: 1, ndensity: 2, num_ms_combs: 1, mus: [2], ns: [2], ls: [0], ms_combs: [0], ctildes: [0.78869384140673704, -0.12610384996254217]}
    - {mu0: 1, rank: 1, ndensity: 2, num_ms_combs: 1, mus: [2], ns: [3], ls: [0], ms_combs: [0], ctildes: [1.2702569356687232, -0.47609893744460785]}
    - {mu0: 1, rank: 1, ndensity: 2, num_ms_combs: 1, mus: [2], ns: [4], ls: [0], ms_combs: [0], ctildes: [-0.25883130262702042, -0.76112339220185754]}
    - {mu0: 1, rank: 1, ndensity: 2, num_ms_combs: 1, mus: [2], ns: [5], ls: [0], ms_combs: [0], ctildes: [-1.4366994207826795, -0.45017767206962406]}
    - {mu0: 1, rank: 1, ndensity: 2, num_ms_combs: 1, mus: [2], ns: [6], ls: [0], ms_combs: [0], ctildes: [-0.16104096864097098, 0.49892938700735423]}
    - {mu0: 1, rank: 1, ndensity: 2, num_ms_combs: 1, mus: [2], ns: [7], ls: [0], ms_combs: [0], ctildes: [1.1085060280912606, 1.2544051990950531]}
    - {mu0: 1, rank: 1, ndensity: 2, num_ms_combs: 1, mus: [2], ns: [8], ls: [0], ms_combs: [0], ctildes: [-0.041508917363176329, 1.0173590040676679]}
    - {mu0: 1, rank: 1, ndensity: 2, num_ms_combs: 1, mus: [2], ns: [9], ls: [0], ms_combs: [0], ctildes: [-1.1740146783942442, 0.081081346917812103]}
    - {mu0: 1, rank: 1, ndensity: 2, num_ms_combs: 1, mus: [2], ns: [10], ls: [0], ms_combs: [0], ctildes: [0.052405292903041405, -0.5756016568980078]}
    - {mu0: 1, rank: 1, ndensity: 2, num_ms_combs: 1, mus: [2], ns: [11], ls: [0], ms_combs: [0], ctildes: [0.88541529375881167, -0.51336473004358463]}
    - {mu0: 1, rank: 1, ndensity: 2, num_ms_combs: 1, mus: [2], ns: [12], ls: [0], ms_combs: [0], ctildes: [-0.53089236425004571, -0.047610391193224653]}
    - {mu0: 1, rank: 1, ndensity: 2, num_ms_combs: 1, mus: [2], ns: [13], ls: [0], ms_combs: [0], ctildes: [-0.60623217434247045, 0.35117810338703792]}
    - {mu0: 1, rank: 1, ndensity: 2, num_ms_combs: 1, mus: [2], ns: [14], ls: [0], ms_combs: [0], ctildes: [0.7455718467961332, -0.040123960072804679]}
    - {mu0: 1, rank: 1, ndensity: 2, num_ms_combs: 1, mus: [2], ns: [15], ls: [0], ms_combs: [0], ctildes: [-0.32887939694845869, -2.1523022139596044]}
    - {mu0: 1, rank: 2, ndensity: 2, num_ms_combs: 1, mus: [0, 0], ns: [1, 1], ls: [0, 0], ms_combs: [0, 0], ctildes: [0.0017642631526489595, -1.3490768777224775]}
    - {mu0: 1, rank: 2, ndensity: 2, num_ms_combs: 1, mus: [0, 1], ns: [1, 1], ls: [0, 0], ms_combs: [0, 0], ctildes: [-0.0054867562629364354, -0.56454504829656416]}
    - {mu0: 1, rank: 2, ndensity: 2, num_ms_combs: 1, mus: [0, 2], ns: [1, 1], ls: [0, 0], ms_combs: [0, 0], ctildes: [0.088201539174813118, -2.9729902552474647]}
    - {mu0: 1, rank: 2, ndensity: 2, num_ms_combs: 2, mus: [0, 2], ns: [1, 1], ls: [1, 1], ms_combs: [0, 0, 1, -1], ctildes: [-0.0097954105922384051, 0.10880942712380037, 0.019590821184476807, -0.21761885424760072]}
    - {mu0: 1, rank: 2, ndensity: 2, num_ms_combs: 1, mus: [1, 1], ns: [1, 1], ls: [0, 0], ms_combs: [0, 0], ctildes: [-0.00017431371339777588, -0.056968715663997846]}
    - {mu0: 1, rank: 2, ndensity: 2, num_ms_combs: 2, mus: [1, 1], ns: [1, 1], ls: [1, 1], ms_combs: [0, 0, 1, -1], ctildes: [0.046203246783621463, -0.12122413999903424, -0.092406493567242912, 0.24244827999806842]}
    - {mu0: 1, rank: 2, ndensity: 2, num_ms_combs: 1, mus: [1, 2], ns: [1, 1], ls: [0, 0], ms_combs: [0, 0], ctildes: [-0.0083348198865879596, -0.20531031980047312]}
    - {mu0: 1, rank: 2, ndensity: 2, num_ms_combs: 1, mus: [2, 2], ns: [1, 1], ls: [0, 0], ms_combs: [0, 0], ctildes: [0.085961281364166559, -1.7339722102946298]}
  2:
    - {mu0: 2, rank: 1, ndensity: 2, num_ms_combs: 1, mus: [0], ns: [1], ls: [0], ms_combs: [0], ctildes: [-0.31505454044064624, 0.20179851992333747]}
    - {mu0: 2, rank: 1, ndensity: 2, num_ms_combs: 1, mus: [0], ns: [2], ls: [0], ms_combs: [0], ctildes: [0.659695909707122, -0.040249763062326471]}
    - {mu0: 2, rank: 1, ndensity: 2, num_ms_combs: 1, mus: [0], ns: [3], ls: [0], ms_combs: [0], ctildes: [1.3498213352765813, -0.32186228949901829]}
    - {mu0: 2, rank: 1, ndensity: 2, num_ms_combs: 1, mus: [0], ns: [4], ls: [0], ms_combs: [0], ctildes: [0.48563108602441968, -0.79249792955379894]}
    - {mu0: 2, rank: 1, ndensity: 2, num_ms_combs: 1, mus: [0], ns: [5], ls: [0], ms_combs: [0], ctildes: [-0.89136285299632145, -0.77540047796387435]}
    - {mu0: 2, rank: 1, ndensity: 2, num_ms_combs: 1, mus: [0], ns: [6], ls: [0], ms_combs: [0], ctildes: [-0.69271088157452143, 0.061558674090025453]}
    - {mu0: 2, rank: 1, ndensity: 2, num_ms_combs: 1, mus: [0], ns: [7], ls: [0], ms_combs: [0], ctildes: [0.64452876012990601, 0.79536451015067244]}
    - {mu0: 2, rank: 1, ndensity: 2, num_ms_combs: 1, mus: [0], ns: [8], ls: [0], ms_combs: [0], ctildes: [0.79344087973276767, 0.3685210536576754]}
    - {mu0: 2, rank: 1, ndensity: 2, num_ms_combs: 1, mus: [0], ns: [9], ls: [0], ms_combs: [0], ctildes: [-0.43170592589447526, -0.62000839548335351]}
    - {mu0: 2, rank: 1, ndensity: 2, num_ms_combs: 1, mus: [0], ns: [10], ls: [0], ms_combs: [0], ctildes: [-0.70673413080882019, -0.60023341027069588]}
    - {mu0: 2, rank: 1, ndensity: 2, num_ms_combs: 1, mus: [0], ns: [11], ls: [0], ms_combs: [0], ctildes: [0.43941617222191198, 0.37408212162861765]}
    - {mu0: 2, rank: 1, ndensity: 2, num_ms_combs: 1, mus: [0], ns: [12], ls: [0], ms_combs: [0], ctildes: [0.51500832972159916, 0.50796361934690148]}
    - {mu0: 2, rank: 1, ndensity: 2, num_ms_combs: 1, mus: [0], ns: [13], ls: [0], ms_combs: [0], ctildes: [-0.6604601515374855, -0.43016357122944959]}
    - {mu0: 2, rank: 1, ndensity: 2, num_ms_combs: 1, mus: [0], ns: [14], ls: [0], ms_combs: [0], ctildes: [0.31879743745123357, -0.21140026982109997]}
    - {mu0: 2, rank: 1, ndensity: 2, num_ms_combs: 1, mus: [0], ns: [15], ls: [0], ms_combs: [0], ctildes: [-0.045473963823951871, 0.45290450461634646]}
    - {mu0: 2, rank: 1, ndensity: 2, num_ms_combs: 1, mus: [1], ns: [1], ls: [0], ms_combs: [0], ctildes: [0.47110779185349067, -0.88394529037579261]}
    - {mu0: 2, rank: 1, ndensity: 2, num_ms_combs: 1, mus: [1], ns: [2], ls: [0], ms_combs: [0], ctildes: [0.78869389625147368, -0.095216267312553698]}
    - {mu0: 2, rank: 1, ndensity: 2, num_ms_combs: 1, mus: [1], ns: [3], ls: [0], ms_combs: [0], ctildes: [1.2702592396915851, -0.31553171670448915]}
    - {mu0: 2, rank: 1, ndensity: 2, num_ms_combs: 1, mus: [1], ns: [4], ls: [0], ms_combs: [0], ctildes: [-0.25883232628055691, -0.35649565134194633]}
    - {mu0: 2, rank: 1, ndensity: 2, num_ms_combs: 1, mus: [1], ns: [5], ls: [0], ms_combs: [0], ctildes: [-1.4367016584234722, 0.081680989793257608]}
    - {mu0: 2, rank: 1, ndensity: 2, num_ms_combs: 1, mus: [1], ns: [6], ls: [0], ms_combs: [0], ctildes: [-0.16104141799532859, 0.62881453898288231]}
    - {mu0: 2, rank: 1, ndensity: 2, num_ms_combs: 1, mus: [1], ns: [7], ls: [0], ms_combs: [0], ctildes: [1.1085050140029824, 0.53651397861086192]}
    - {mu0: 2, rank: 1, ndensity: 2, num_ms_combs: 1, mus: [1], ns: [8], ls: [0], ms_combs: [0], ctildes: [-0.04150897919075084, -0.065360873017891286]}
    - {mu0: 2, rank: 1, ndensity: 2, num_ms_combs: 1, mus: [1], ns: [9], ls: [0], ms_combs: [0], ctildes: [-1.174018285571619, -0.21890953626977652]}
    - {mu0: 2, rank: 1, ndensity: 2, num_ms_combs: 1, mus: [1], ns: [10], ls: [0], ms_combs: [0], ctildes: [0.052405535488741266, 0.19965378078096196]}
    - {mu0: 2, rank: 1, ndensity: 2, num_ms_combs: 1, mus: [1], ns: [11], ls: [0], ms_combs: [0], ctildes: [0.88541726350965066, 0.29346462375611693]}
    - {mu0: 2, rank: 1, ndensity: 2, num_ms_combs: 1, mus: [1], ns: [12], ls: [0], ms_combs: [0], ctildes: [-0.53089270160157498, 0.028465663318748724]}
    - {mu0: 2, rank: 1, ndensity: 2, num_ms_combs: 1, mus: [1], ns: [13], ls: [0], ms_combs: [0], ctildes: [-0.60623393313619034, 0.11633147887307509]}
    - {mu0: 2, rank: 1, ndensity: 2, num_ms_combs: 1, mus: [1], ns: [14], ls: [0], ms_combs: [0], ctildes: [0.74556955902068234, -0.15942977222560473]}
    - {mu0: 2, rank: 1, ndensity: 2, num_ms_combs: 1, mus: [1], ns: [15], ls: [0], ms_combs: [0], ctildes: [-0.32888014774711311, 0.30130991592833323]}
    - {mu0: 2, rank: 1, ndensity: 2, num_ms_combs: 1, mus: [2], ns: [1], ls: [0], ms_combs: [0], ctildes: [0.14024036008386401, 0.0128290004879393]}
    - {mu0: 2, rank: 1, ndensity: 2, num_ms_combs: 1, mus: [2], ns: [2], ls: [0], ms_combs: [0], ctildes: [0.48217653814532951, -0.36502410295824284]}
    - {mu0: 2, rank: 1, ndensity: 2, num_ms_combs: 1, mus: [2], ns: [3], ls: [0], ms_combs: [0], ctildes: [0.81214275699115301, -0.66883147136956844]}
    - {mu0: 2, rank: 1, ndensity: 2, num_ms_combs: 1, mus: [2], ns: [4], ls: [0], ms_combs: [0], ctildes: [0.024114060573945731, -0.11263172911515353]}
    - {mu0: 2, rank: 1, ndensity: 2, num_ms_combs: 1, mus: [2], ns: [5], ls: [0], ms_combs: [0], ctildes: [-0.59341619976799298, 0.45788537124145767]}
    - {mu0: 2, rank: 1, ndensity: 2, num_ms_combs: 1, mus: [2], ns: [6], ls: [0], ms_combs: [0], ctildes: [-0.074027921765490529, 0.097656213107055648]}
    - {mu0: 2, rank: 1, ndensity: 2, num_ms_combs: 1, mus: [2], ns: [7], ls: [0], ms_combs: [0], ctildes: [0.42152573845385249, -0.44627909994974668]}
    - {mu0: 2, rank: 1, ndensity: 2, num_ms_combs: 1, mus: [2], ns: [8], ls: [0], ms_combs: [0], ctildes: [0.092042830450358826, -0.20136423954580751]}
    - {mu0: 2, rank: 1, ndensity: 2, num_ms_combs: 1, mus: [2], ns: [9], ls: [0], ms_combs: [0], ctildes: [-0.20212438310105496, 0.22731649831605572]}
    - {mu0: 2, rank: 1, ndensity: 2, num_ms_combs: 1, mus: [2], ns: [10], ls: [0], ms_combs: [0], ctildes: [-0.047204688132378526, 0.076536420735038066]}
    - {mu0: 2, rank: 1, ndensity: 2, num_ms_combs: 1, mus: [2], ns: [11], ls: [0], ms_combs: [0], ctildes: [0.057471633195467622, -0.11190542493068814]}
    - {mu0: 2, rank: 1, ndensity: 2, num_ms_combs: 1, mus: [2], ns: [12], ls: [0], ms_combs: [0], ctildes: [0.15269770776044464, -0.078624926606085138]}
    - {mu0: 2, rank: 1, ndensity: 2, num_ms_combs: 1, mus: [2], ns: [13], ls: [0], ms_combs: [0], ctildes: [0.1538955400728966, -0.23657061141528365]}
    - {mu0: 2, rank: 1, ndensity: 2, num_ms_combs: 1, mus: [2], ns: [14], ls: [0], ms_combs: [0], ctildes: [-0.31108427591271226, 0.3370361525374857]}
    - {mu0: 2, rank: 1, ndensity: 2, num_ms_combs: 1, mus: [2], ns: [15], ls: [0], ms_combs: [0], ctildes: [0.27207473886155625, -0.27071886184099681]}
    - {mu0: 2, rank: 2, ndensity: 2, num_ms_combs: 1, mus: [0, 0], ns: [1, 1], ls: [0, 0], ms_combs: [0, 0], ctildes: [0.025210348231224446, 0.18770022311360338]}
    - {mu0: 2, rank: 2, ndensity: 2, num_ms_combs: 1, mus: [0, 1], ns: [1, 1], ls: [0, 0], ms_combs: [0, 0], ctildes: [0.27297548598199567, 0.073984948335248088]}
    - {mu0: 2, rank: 2, ndensity: 2, num_ms_combs: 2, mus: [0, 1], ns: [1, 1], ls: [1, 1], ms_combs: [0, 0, 1, -1], ctildes: [0.001569281949624243, 0.0044861681786340568, -0.0031385638992484856, -0.0089723363572681118]}
    - {mu0: 2, rank: 2, ndensity: 2, num_ms_combs: 1, mus: [0, 2], ns: [1, 1], ls: [0, 0], ms_combs: [0, 0], ctildes: [-0.027925951033557779, 0.030182231067511542]}
    - {mu0: 2, rank: 2, ndensity: 2, num_ms_combs: 1, mus: [1, 1], ns: [1, 1], ls: [0, 0], ms_combs: [0, 0], ctildes: [0.13947037024620162, -0.021671690953419965]}
    - {mu0: 2, rank: 2, ndensity: 2, num_ms_combs: 1, mus: [1, 2], ns: [1, 1], ls: [0, 0], ms_combs: [0, 0], ctildes: [-0.030756995770012556, 0.030648529440666983]}
    - {mu0: 2, rank: 2, ndensity: 2, num_ms_combs: 1, mus: [2, 2], ns: [1, 1], ls: [0, 0], ms_combs: [0, 0], ctildes: [-0.0031131858146732651, 0.0025240481395999732]}
    - {mu0: 2, rank: 2, ndensity: 2, num_ms_combs: 2, mus: [2, 2], ns: [1, 1], ls: [1, 1], ms_combs: [0, 0, 1, -1], ctildes: [-0.00069310611493681351, 0.0013008610698721226, 0.0013862122298736266, -0.0026017221397442447]}
