nelements=1
elements: Si

lmax=6

2 FS parameters:  1.000000 1.000000
core energy-cutoff parameters: 100000.000000000000000000 1.000000000000000000
E0: -158.54496821

radbasename=ACE.jl.Basic
haspair: t

transform parameters: p=2 r0=2.35126
cutoff parameters: rcut=5.5 xl=0.2658211500023669 xr=1.6042620210695941 pl=2 pr=2
recursion coefficients: maxn=21
 7.821202223493647 0.0 0.0
 4.955952649160867 -4.634021822912618 0.0
 3.9956167645897973 -3.736067834756193 -0.8062257748298656
 3.632378876899846 -3.396425304323833 -0.9090909090909028
 3.4441358810053155 -3.220410274976574 -0.9481763873555078
 3.331005797707162 -3.114628942517647 -0.9671528397232808
 3.256698923178486 -3.0451489247421324 -0.9776923610941147
 3.2048648622710894 -2.9966819222465113 -0.9840838646340656
 3.167085174324123 -2.9613563429275254 -0.988211768804444
 3.138607272777173 -2.9347283207123276 -0.9910081668223445
 3.1165595829870045 -2.9141128138935235 -0.9929753269925177
 3.0991136906213357 -2.8978001790348364 -0.9944021951446367
 3.08505564490434 -2.884655321678083 -0.995463849629161
 3.0735513577131024 -2.8738983347423233 -0.9962709628235525
 3.0640110824280233 -2.864977780613316 -0.9968960091520438
 3.05600755744042 -2.857494151919029 -0.9973878929376229
 3.049224676161325 -2.8511518758533216 -0.9977804762744855
 3.043424253671011 -2.8457282396112 -0.9980977385708372
 3.0384239069991454 -2.8410527075309107 -0.9983569997952702
 3.034081972568086 -2.836992818276197 -0.9985709912230917
 3.0302870005001523 -2.8334443615767344 -0.9987492190052106
tests: ntests=0

begin repulsive potential
begin polypairpot
transform parameters: p=2 r0=2.35126
cutoff parameters: rcut=6.5 xl=0.1996612193351111 xr=2.372718237344682 pl=1 pr=0
recursion coefficients: maxn=3
 0.7970573297067717 0.0 0.0
 2.376367709542944 -4.34745440267418 0.0
 2.0418559725718572 -2.995966854134438 -0.8592340168452226
tests: ntests=0
coefficients
5.426165264678159
4.160382197926055
1.1694197160878725
end polypairpot
spline parameters
   e_0 + B  exp(-A*(r/ri-1)) * (ri/r)
ri=0.6
e0=0.0
A=1.6557785176466284
B=240.58199608760523
end repulsive potential

rankmax=4
ndensitymax=1

num_c_tilde_max=6827
num_ms_combinations_max=135
total_basis_size_rank1: 21
ctilde_basis_func: rank=1 ndens=1 mu0=0 mu=( 0 )
n=( 2 )
l=( 0 )
num_ms=1
< 0 >:  -0.027608492624349747
ctilde_basis_func: rank=1 ndens=1 mu0=0 mu=( 0 )
n=( 16 )
l=( 0 )
num_ms=1
< 0 >:  -8.769723718108686e-5
ctilde_basis_func: rank=1 ndens=1 mu0=0 mu=( 0 )
n=( 4 )
l=( 0 )
num_ms=1
< 0 >:  0.00010419930283644445
ctilde_basis_func: rank=1 ndens=1 mu0=0 mu=( 0 )
n=( 20 )
l=( 0 )
num_ms=1
< 0 >:  -0.000393244722857691
ctilde_basis_func: rank=1 ndens=1 mu0=0 mu=( 0 )
n=( 21 )
l=( 0 )
num_ms=1
< 0 >:  -0.00012771440022541264
ctilde_basis_func: rank=1 ndens=1 mu0=0 mu=( 0 )
n=( 3 )
l=( 0 )
num_ms=1
< 0 >:  -0.008655962058625703
ctilde_basis_func: rank=1 ndens=1 mu0=0 mu=( 0 )
n=( 1 )
l=( 0 )
num_ms=1
< 0 >:  -0.35748447959761853
ctilde_basis_func: rank=1 ndens=1 mu0=0 mu=( 0 )
n=( 9 )
l=( 0 )
num_ms=1
< 0 >:  -5.273650251341339e-5
ctilde_basis_func: rank=1 ndens=1 mu0=0 mu=( 0 )
n=( 8 )
l=( 0 )
num_ms=1
< 0 >:  -9.129488608850911e-5
ctilde_basis_func: rank=1 ndens=1 mu0=0 mu=( 0 )
n=( 19 )
l=( 0 )
num_ms=1
< 0 >:  -0.0003362754001156921
ctilde_basis_func: rank=1 ndens=1 mu0=0 mu=( 0 )
n=( 12 )
l=( 0 )
num_ms=1
< 0 >:  -0.00017989511349568476
ctilde_basis_func: rank=1 ndens=1 mu0=0 mu=( 0 )
n=( 15 )
l=( 0 )
num_ms=1
< 0 >:  -0.0002531867963076486
ctilde_basis_func: rank=1 ndens=1 mu0=0 mu=( 0 )
n=( 10 )
l=( 0 )
num_ms=1
< 0 >:  -0.00020635183049179373
ctilde_basis_func: rank=1 ndens=1 mu0=0 mu=( 0 )
n=( 13 )
l=( 0 )
num_ms=1
< 0 >:  -7.157977494016447e-5
ctilde_basis_func: rank=1 ndens=1 mu0=0 mu=( 0 )
n=( 6 )
l=( 0 )
num_ms=1
< 0 >:  0.00036498934572665257
ctilde_basis_func: rank=1 ndens=1 mu0=0 mu=( 0 )
n=( 11 )
l=( 0 )
num_ms=1
< 0 >:  7.145571847915261e-6
ctilde_basis_func: rank=1 ndens=1 mu0=0 mu=( 0 )
n=( 17 )
l=( 0 )
num_ms=1
< 0 >:  -0.0003532432713818057
ctilde_basis_func: rank=1 ndens=1 mu0=0 mu=( 0 )
n=( 14 )
l=( 0 )
num_ms=1
< 0 >:  -0.00012514802852687932
ctilde_basis_func: rank=1 ndens=1 mu0=0 mu=( 0 )
n=( 18 )
l=( 0 )
num_ms=1
< 0 >:  -0.00018119317536498047
ctilde_basis_func: rank=1 ndens=1 mu0=0 mu=( 0 )
n=( 5 )
l=( 0 )
num_ms=1
< 0 >:  -0.0016570132268904029
ctilde_basis_func: rank=1 ndens=1 mu0=0 mu=( 0 )
n=( 7 )
l=( 0 )
num_ms=1
< 0 >:  -0.0003885500691389397
total_basis_size: 6806
ctilde_basis_func: rank=2 ndens=1 mu0=0 mu=( 0  0 )
n=( 4  14 )
l=( 0  0 )
num_ms=1
< 0  0 >:  -4.9732856769267204e-5
ctilde_basis_func: rank=2 ndens=1 mu0=0 mu=( 0  0 )
n=( 4  15 )
l=( 0  0 )
num_ms=1
< 0  0 >:  5.575110751449468e-6
ctilde_basis_func: rank=2 ndens=1 mu0=0 mu=( 0  0 )
n=( 4  16 )
l=( 0  0 )
num_ms=1
< 0  0 >:  8.870142819854943e-6
ctilde_basis_func: rank=2 ndens=1 mu0=0 mu=( 0  0 )
n=( 6  9 )
l=( 2  2 )
num_ms=5
< -2  2 >:  -3.637494752915614e-5
< -1  1 >:  3.637494752915614e-5
< 0  0 >:  -3.637494752915614e-5
< 1  -1 >:  3.637494752915614e-5
< 2  -2 >:  -3.637494752915614e-5
ctilde_basis_func: rank=2 ndens=1 mu0=0 mu=( 0  0 )
n=( 7  11 )
l=( 1  1 )
num_ms=3
< -1  1 >:  -1.600166861298437e-5
< 0  0 >:  1.600166861298437e-5
< 1  -1 >:  -1.600166861298437e-5
ctilde_basis_func: rank=2 ndens=1 mu0=0 mu=( 0  0 )
n=( 4  4 )
l=( 4  4 )
num_ms=5
< -4  4 >:  0.00014110083776310725
< -3  3 >:  -0.00014110083776310722
< -2  2 >:  0.00014110083776310722
< -1  1 >:  -0.00014110083776310722
< 0  0 >:  7.055041888155361e-5
ctilde_basis_func: rank=2 ndens=1 mu0=0 mu=( 0  0 )
n=( 1  2 )
l=( 3  3 )
num_ms=7
< -3  3 >:  0.0005617135941999907
< -2  2 >:  -0.0005617135941999907
< -1  1 >:  0.0005617135941999907
< 0  0 >:  -0.0005617135941999907
< 1  -1 >:  0.0005617135941999907
< 2  -2 >:  -0.0005617135941999907
< 3  -3 >:  0.0005617135941999907
ctilde_basis_func: rank=2 ndens=1 mu0=0 mu=( 0  0 )
n=( 3  12 )
l=( 2  2 )
num_ms=5
< -2  2 >:  -4.9304569295071026e-5
< -1  1 >:  4.9304569295071026e-5
< 0  0 >:  -4.9304569295071026e-5
< 1  -1 >:  4.9304569295071026e-5
< 2  -2 >:  -4.9304569295071026e-5
ctilde_basis_func: rank=2 ndens=1 mu0=0 mu=( 0  0 )
n=( 1  3 )
l=( 5  5 )
num_ms=11
< -5  5 >:  -9.459373729183978e-6
< -4  4 >:  9.459373729183984e-6
< -3  3 >:  -9.459373729183984e-6
< -2  2 >:  9.459373729183984e-6
< -1  1 >:  -9.459373729183984e-6
< 0  0 >:  9.459373729183984e-6
< 1  -1 >:  -9.459373729183984e-6
< 2  -2 >:  9.459373729183984e-6
< 3  -3 >:  -9.459373729183984e-6
< 4  -4 >:  9.459373729183984e-6
< 5  -5 >:  -9.459373729183984e-6
ctilde_basis_func: rank=2 ndens=1 mu0=0 mu=( 0  0 )
n=( 4  12 )
l=( 1  1 )
num_ms=3
< -1  1 >:  -1.0501408909079679e-5
< 0  0 >:  1.0501408909079679e-5
< 1  -1 >:  -1.0501408909079679e-5
ctilde_basis_func: rank=2 ndens=1 mu0=0 mu=( 0  0 )
n=( 2  4 )
l=( 4  4 )
num_ms=9
< -4  4 >:  -0.0004988766662645533
< -3  3 >:  0.0004988766662645533
< -2  2 >:  -0.0004988766662645533
< -1  1 >:  0.0004988766662645533
< 0  0 >:  -0.0004988766662645533
< 1  -1 >:  0.0004988766662645533
< 2  -2 >:  -0.0004988766662645533
< 3  -3 >:  0.0004988766662645533
< 4  -4 >:  -0.0004988766662645533
ctilde_basis_func: rank=2 ndens=1 mu0=0 mu=( 0  0 )
n=( 2  8 )
l=( 0  0 )
num_ms=1
< 0  0 >:  -0.00013853398400492115
ctilde_basis_func: rank=2 ndens=1 mu0=0 mu=( 0  0 )
n=( 2  6 )
l=( 3  3 )
num_ms=7
< -3  3 >:  -0.00013048367496581022
< -2  2 >:  0.00013048367496581022
< -1  1 >:  -0.00013048367496581022
< 0  0 >:  0.00013048367496581022
< 1  -1 >:  -0.00013048367496581022
< 2  -2 >:  0.00013048367496581022
< 3  -3 >:  -0.00013048367496581022
ctilde_basis_func: rank=2 ndens=1 mu0=0 mu=( 0  0 )
n=( 1  8 )
l=( 3  3 )
num_ms=7
< -3  3 >:  -0.0001272253385946363
< -2  2 >:  0.0001272253385946363
< -1  1 >:  -0.0001272253385946363
< 0  0 >:  0.0001272253385946363
< 1  -1 >:  -0.0001272253385946363
< 2  -2 >:  0.0001272253385946363
< 3  -3 >:  -0.0001272253385946363
ctilde_basis_func: rank=2 ndens=1 mu0=0 mu=( 0  0 )
n=( 4  9 )
l=( 1  1 )
num_ms=3
< -1  1 >:  -7.664723453092837e-5
< 0  0 >:  7.664723453092837e-5
< 1  -1 >:  -7.664723453092837e-5
ctilde_basis_func: rank=2 ndens=1 mu0=0 mu=( 0  0 )
n=( 3  11 )
l=( 1  1 )
num_ms=3
< -1  1 >:  3.428302609725863e-5
< 0  0 >:  -3.428302609725863e-5
< 1  -1 >:  3.428302609725863e-5
ctilde_basis_func: rank=2 ndens=1 mu0=0 mu=( 0  0 )
n=( 6  7 )
l=( 2  2 )
num_ms=5
< -2  2 >:  -1.6773236912587994e-5
< -1  1 >:  1.6773236912587994e-5
< 0  0 >:  -1.6773236912587994e-5
< 1  -1 >:  1.6773236912587994e-5
< 2  -2 >:  -1.6773236912587994e-5
ctilde_basis_func: rank=2 ndens=1 mu0=0 mu=( 0  0 )
n=( 6  9 )
l=( 1  1 )
num_ms=3
< -1  1 >:  0.00014555950294085928
< 0  0 >:  -0.00014555950294085928
< 1  -1 >:  0.00014555950294085928
ctilde_basis_func: rank=2 ndens=1 mu0=0 mu=( 0  0 )
n=( 5  13 )
l=( 1  1 )
num_ms=3
< -1  1 >:  -1.1417740339052557e-5
< 0  0 >:  1.1417740339052557e-5
< 1  -1 >:  -1.1417740339052557e-5
ctilde_basis_func: rank=2 ndens=1 mu0=0 mu=( 0  0 )
n=( 3  4 )
l=( 1  1 )
num_ms=3
< -1  1 >:  0.0006871385701878247
< 0  0 >:  -0.0006871385701878247
< 1  -1 >:  0.0006871385701878247
ctilde_basis_func: rank=2 ndens=1 mu0=0 mu=( 0  0 )
n=( 3  4 )
l=( 2  2 )
num_ms=5
< -2  2 >:  9.049383389776317e-5
< -1  1 >:  -9.049383389776317e-5
< 0  0 >:  9.049383389776317e-5
< 1  -1 >:  -9.049383389776317e-5
< 2  -2 >:  9.049383389776317e-5
ctilde_basis_func: rank=2 ndens=1 mu0=0 mu=( 0  0 )
n=( 1  10 )
l=( 1  1 )
num_ms=3
< -1  1 >:  2.2085457775980564e-5
< 0  0 >:  -2.2085457775980564e-5
< 1  -1 >:  2.2085457775980564e-5
ctilde_basis_func: rank=2 ndens=1 mu0=0 mu=( 0  0 )
n=( 1  2 )
l=( 6  6 )
num_ms=13
< -6  6 >:  -0.00017266060704683456
< -5  5 >:  0.0001726606070468344
< -4  4 >:  -0.0001726606070468344
< -3  3 >:  0.0001726606070468344
< -2  2 >:  -0.0001726606070468344
< -1  1 >:  0.0001726606070468344
< 0  0 >:  -0.0001726606070468344
< 1  -1 >:  0.0001726606070468344
< 2  -2 >:  -0.0001726606070468344
< 3  -3 >:  0.0001726606070468344
< 4  -4 >:  -0.0001726606070468344
< 5  -5 >:  0.0001726606070468344
< 6  -6 >:  -0.0001726606070468344
ctilde_basis_func: rank=2 ndens=1 mu0=0 mu=( 0  0 )
n=( 4  5 )
l=( 4  4 )
num_ms=9
< -4  4 >:  0.0001202706004158939
< -3  3 >:  -0.00012027060041589388
< -2  2 >:  0.00012027060041589388
< -1  1 >:  -0.00012027060041589388
< 0  0 >:  0.00012027060041589388
< 1  -1 >:  -0.00012027060041589388
< 2  -2 >:  0.00012027060041589388
< 3  -3 >:  -0.00012027060041589388
< 4  -4 >:  0.00012027060041589388
ctilde_basis_func: rank=2 ndens=1 mu0=0 mu=( 0  0 )
n=( 5  8 )
l=( 0  0 )
num_ms=1
< 0  0 >:  4.571833585111256e-6
ctilde_basis_func: rank=2 ndens=1 mu0=0 mu=( 0  0 )
n=( 2  2 )
l=( 4  4 )
num_ms=5
< -4  4 >:  -0.0016782838992516428
< -3  3 >:  0.0016782838992516428
< -2  2 >:  -0.0016782838992516428
< -1  1 >:  0.0016782838992516428
< 0  0 >:  -0.0008391419496258214
ctilde_basis_func: rank=2 ndens=1 mu0=0 mu=( 0  0 )
n=( 1  5 )
l=( 4  4 )
num_ms=9
< -4  4 >:  0.0004314014764173269
< -3  3 >:  -0.00043140147641732685
< -2  2 >:  0.00043140147641732685
< -1  1 >:  -0.00043140147641732685
< 0  0 >:  0.00043140147641732685
< 1  -1 >:  -0.00043140147641732685
< 2  -2 >:  0.00043140147641732685
< 3  -3 >:  -0.00043140147641732685
< 4  -4 >:  0.00043140147641732685
ctilde_basis_func: rank=2 ndens=1 mu0=0 mu=( 0  0 )
n=( 1  12 )
l=( 1  1 )
num_ms=3
< -1  1 >:  5.2735519819477186e-5
< 0  0 >:  -5.2735519819477186e-5
< 1  -1 >:  5.2735519819477186e-5
ctilde_basis_func: rank=2 ndens=1 mu0=0 mu=( 0  0 )
n=( 1  6 )
l=( 0  0 )
num_ms=1
< 0  0 >:  -7.002932324466788e-5
ctilde_basis_func: rank=2 ndens=1 mu0=0 mu=( 0  0 )
n=( 7  9 )
l=( 1  1 )
num_ms=3
< -1  1 >:  2.6540878712154387e-7
< 0  0 >:  -2.6540878712154387e-7
< 1  -1 >:  2.6540878712154387e-7
ctilde_basis_func: rank=2 ndens=1 mu0=0 mu=( 0  0 )
n=( 6  6 )
l=( 2  2 )
num_ms=3
< -2  2 >:  -4.9838984617405525e-5
< -1  1 >:  4.9838984617405525e-5
< 0  0 >:  -2.4919492308702763e-5
ctilde_basis_func: rank=2 ndens=1 mu0=0 mu=( 0  0 )
n=( 1  11 )
l=( 3  3 )
num_ms=7
< -3  3 >:  2.3515491333954348e-5
< -2  2 >:  -2.3515491333954348e-5
< -1  1 >:  2.3515491333954348e-5
< 0  0 >:  -2.3515491333954348e-5
< 1  -1 >:  2.3515491333954348e-5
< 2  -2 >:  -2.3515491333954348e-5
< 3  -3 >:  2.3515491333954348e-5
ctilde_basis_func: rank=2 ndens=1 mu0=0 mu=( 0  0 )
n=( 3  5 )
l=( 3  3 )
num_ms=7
< -3  3 >:  -0.0001301577655673209
< -2  2 >:  0.0001301577655673209
< -1  1 >:  -0.0001301577655673209
< 0  0 >:  0.0001301577655673209
< 1  -1 >:  -0.0001301577655673209
< 2  -2 >:  0.0001301577655673209
< 3  -3 >:  -0.0001301577655673209
ctilde_basis_func: rank=2 ndens=1 mu0=0 mu=( 0  0 )
n=( 3  6 )
l=( 1  1 )
num_ms=3
< -1  1 >:  0.00030359419780824626
< 0  0 >:  -0.00030359419780824626
< 1  -1 >:  0.00030359419780824626
ctilde_basis_func: rank=2 ndens=1 mu0=0 mu=( 0  0 )
n=( 2  9 )
l=( 3  3 )
num_ms=7
< -3  3 >:  4.6137882313448576e-5
< -2  2 >:  -4.6137882313448576e-5
< -1  1 >:  4.6137882313448576e-5
< 0  0 >:  -4.6137882313448576e-5
< 1  -1 >:  4.6137882313448576e-5
< 2  -2 >:  -4.6137882313448576e-5
< 3  -3 >:  4.6137882313448576e-5
ctilde_basis_func: rank=2 ndens=1 mu0=0 mu=( 0  0 )
n=( 2  4 )
l=( 2  2 )
num_ms=5
< -2  2 >:  -0.00044769115384056123
< -1  1 >:  0.00044769115384056123
< 0  0 >:  -0.00044769115384056123
< 1  -1 >:  0.00044769115384056123
< 2  -2 >:  -0.00044769115384056123
ctilde_basis_func: rank=2 ndens=1 mu0=0 mu=( 0  0 )
n=( 1  14 )
l=( 2  2 )
num_ms=5
< -2  2 >:  -5.738146980778441e-5
< -1  1 >:  5.738146980778441e-5
< 0  0 >:  -5.738146980778441e-5
< 1  -1 >:  5.738146980778441e-5
< 2  -2 >:  -5.738146980778441e-5
ctilde_basis_func: rank=2 ndens=1 mu0=0 mu=( 0  0 )
n=( 2  4 )
l=( 3  3 )
num_ms=7
< -3  3 >:  8.179984985209123e-5
< -2  2 >:  -8.179984985209123e-5
< -1  1 >:  8.179984985209123e-5
< 0  0 >:  -8.179984985209123e-5
< 1  -1 >:  8.179984985209123e-5
< 2  -2 >:  -8.179984985209123e-5
< 3  -3 >:  8.179984985209123e-5
ctilde_basis_func: rank=2 ndens=1 mu0=0 mu=( 0  0 )
n=( 2  11 )
l=( 1  1 )
num_ms=3
< -1  1 >:  -2.339375835419895e-5
< 0  0 >:  2.339375835419895e-5
< 1  -1 >:  -2.339375835419895e-5
ctilde_basis_func: rank=2 ndens=1 mu0=0 mu=( 0  0 )
n=( 5  9 )
l=( 1  1 )
num_ms=3
< -1  1 >:  0.00014418727375348087
< 0  0 >:  -0.00014418727375348087
< 1  -1 >:  0.00014418727375348087
ctilde_basis_func: rank=2 ndens=1 mu0=0 mu=( 0  0 )
n=( 1  8 )
l=( 4  4 )
num_ms=9
< -4  4 >:  7.859009476619349e-5
< -3  3 >:  -7.859009476619346e-5
< -2  2 >:  7.859009476619346e-5
< -1  1 >:  -7.859009476619346e-5
< 0  0 >:  7.859009476619346e-5
< 1  -1 >:  -7.859009476619346e-5
< 2  -2 >:  7.859009476619346e-5
< 3  -3 >:  -7.859009476619346e-5
< 4  -4 >:  7.859009476619346e-5
ctilde_basis_func: rank=2 ndens=1 mu0=0 mu=( 0  0 )
n=( 4  8 )
l=( 1  1 )
num_ms=3
< -1  1 >:  0.00017324726689626566
< 0  0 >:  -0.00017324726689626566
< 1  -1 >:  0.00017324726689626566
ctilde_basis_func: rank=2 ndens=1 mu0=0 mu=( 0  0 )
n=( 4  10 )
l=( 1  1 )
num_ms=3
< -1  1 >:  3.291731183764873e-5
< 0  0 >:  -3.291731183764873e-5
< 1  -1 >:  3.291731183764873e-5
ctilde_basis_func: rank=2 ndens=1 mu0=0 mu=( 0  0 )
n=( 1  4 )
l=( 4  4 )
num_ms=9
< -4  4 >:  0.00019805204870006874
< -3  3 >:  -0.00019805204870006868
< -2  2 >:  0.00019805204870006868
< -1  1 >:  -0.00019805204870006868
< 0  0 >:  0.00019805204870006868
< 1  -1 >:  -0.00019805204870006868
< 2  -2 >:  0.00019805204870006868
< 3  -3 >:  -0.00019805204870006868
< 4  -4 >:  0.00019805204870006868
ctilde_basis_func: rank=2 ndens=1 mu0=0 mu=( 0  0 )
n=( 2  12 )
l=( 2  2 )
num_ms=5
< -2  2 >:  0.0001363462770564726
< -1  1 >:  -0.0001363462770564726
< 0  0 >:  0.0001363462770564726
< 1  -1 >:  -0.0001363462770564726
< 2  -2 >:  0.0001363462770564726
ctilde_basis_func: rank=2 ndens=1 mu0=0 mu=( 0  0 )
n=( 4  11 )
l=( 2  2 )
num_ms=5
< -2  2 >:  -5.4023159924365925e-6
< -1  1 >:  5.4023159924365925e-6
< 0  0 >:  -5.4023159924365925e-6
< 1  -1 >:  5.4023159924365925e-6
< 2  -2 >:  -5.4023159924365925e-6
ctilde_basis_func: rank=2 ndens=1 mu0=0 mu=( 0  0 )
n=( 2  11 )
l=( 2  2 )
num_ms=5
< -2  2 >:  9.197647124801712e-5
< -1  1 >:  -9.197647124801712e-5
< 0  0 >:  9.197647124801712e-5
< 1  -1 >:  -9.197647124801712e-5
< 2  -2 >:  9.197647124801712e-5
ctilde_basis_func: rank=2 ndens=1 mu0=0 mu=( 0  0 )
n=( 4  9 )
l=( 2  2 )
num_ms=5
< -2  2 >:  -9.86808529506937e-5
< -1  1 >:  9.86808529506937e-5
< 0  0 >:  -9.86808529506937e-5
< 1  -1 >:  9.86808529506937e-5
< 2  -2 >:  -9.86808529506937e-5
ctilde_basis_func: rank=2 ndens=1 mu0=0 mu=( 0  0 )
n=( 7  8 )
l=( 2  2 )
num_ms=5
< -2  2 >:  1.0684346142348393e-5
< -1  1 >:  -1.0684346142348393e-5
< 0  0 >:  1.0684346142348393e-5
< 1  -1 >:  -1.0684346142348393e-5
< 2  -2 >:  1.0684346142348393e-5
ctilde_basis_func: rank=2 ndens=1 mu0=0 mu=( 0  0 )
n=( 3  4 )
l=( 3  3 )
num_ms=7
< -3  3 >:  0.00015457741242414337
< -2  2 >:  -0.00015457741242414337
< -1  1 >:  0.00015457741242414337
< 0  0 >:  -0.00015457741242414337
< 1  -1 >:  0.00015457741242414337
< 2  -2 >:  -0.00015457741242414337
< 3  -3 >:  0.00015457741242414337
ctilde_basis_func: rank=2 ndens=1 mu0=0 mu=( 0  0 )
n=( 2  8 )
l=( 3  3 )
num_ms=7
< -3  3 >:  -0.00014769346883941462
< -2  2 >:  0.00014769346883941462
< -1  1 >:  -0.00014769346883941462
< 0  0 >:  0.00014769346883941462
< 1  -1 >:  -0.00014769346883941462
< 2  -2 >:  0.00014769346883941462
< 3  -3 >:  -0.00014769346883941462
ctilde_basis_func: rank=2 ndens=1 mu0=0 mu=( 0  0 )
n=( 6  6 )
l=( 3  3 )
num_ms=4
< -3  3 >:  0.00016361344705893968
< -2  2 >:  -0.00016361344705893968
< -1  1 >:  0.00016361344705893968
< 0  0 >:  -8.180672352946984e-5
ctilde_basis_func: rank=2 ndens=1 mu0=0 mu=( 0  0 )
n=( 1  7 )
l=( 1  1 )
num_ms=3
< -1  1 >:  0.00046793530584830274
< 0  0 >:  -0.00046793530584830274
< 1  -1 >:  0.00046793530584830274
ctilde_basis_func: rank=2 ndens=1 mu0=0 mu=( 0  0 )
n=( 2  6 )
l=( 4  4 )
num_ms=9
< -4  4 >:  -0.0002377668110758159
< -3  3 >:  0.00023776681107581587
< -2  2 >:  -0.00023776681107581587
< -1  1 >:  0.00023776681107581587
< 0  0 >:  -0.00023776681107581587
< 1  -1 >:  0.00023776681107581587
< 2  -2 >:  -0.00023776681107581587
< 3  -3 >:  0.00023776681107581587
< 4  -4 >:  -0.00023776681107581587
ctilde_basis_func: rank=2 ndens=1 mu0=0 mu=( 0  0 )
n=( 3  5 )
l=( 4  4 )
num_ms=9
< -4  4 >:  7.981901985511491e-5
< -3  3 >:  -7.98190198551149e-5
< -2  2 >:  7.98190198551149e-5
< -1  1 >:  -7.98190198551149e-5
< 0  0 >:  7.98190198551149e-5
< 1  -1 >:  -7.98190198551149e-5
< 2  -2 >:  7.98190198551149e-5
< 3  -3 >:  -7.98190198551149e-5
< 4  -4 >:  7.98190198551149e-5
ctilde_basis_func: rank=2 ndens=1 mu0=0 mu=( 0  0 )
n=( 1  6 )
l=( 3  3 )
num_ms=7
< -3  3 >:  -0.0003153532373897533
< -2  2 >:  0.0003153532373897533
< -1  1 >:  -0.0003153532373897533
< 0  0 >:  0.0003153532373897533
< 1  -1 >:  -0.0003153532373897533
< 2  -2 >:  0.0003153532373897533
< 3  -3 >:  -0.0003153532373897533
ctilde_basis_func: rank=2 ndens=1 mu0=0 mu=( 0  0 )
n=( 2  2 )
l=( 3  3 )
num_ms=4
< -3  3 >:  0.0017738654626442128
< -2  2 >:  -0.0017738654626442128
< -1  1 >:  0.0017738654626442128
< 0  0 >:  -0.0008869327313221064
ctilde_basis_func: rank=2 ndens=1 mu0=0 mu=( 0  0 )
n=( 4  7 )
l=( 1  1 )
num_ms=3
< -1  1 >:  -3.720139749666062e-5
< 0  0 >:  3.720139749666062e-5
< 1  -1 >:  -3.720139749666062e-5
ctilde_basis_func: rank=2 ndens=1 mu0=0 mu=( 0  0 )
n=( 5  6 )
l=( 1  1 )
num_ms=3
< -1  1 >:  -0.00023035662477372215
< 0  0 >:  0.00023035662477372215
< 1  -1 >:  -0.00023035662477372215
ctilde_basis_func: rank=2 ndens=1 mu0=0 mu=( 0  0 )
n=( 1  4 )
l=( 5  5 )
num_ms=11
< -5  5 >:  0.00014017730818118536
< -4  4 >:  -0.00014017730818118544
< -3  3 >:  0.00014017730818118544
< -2  2 >:  -0.00014017730818118544
< -1  1 >:  0.00014017730818118544
< 0  0 >:  -0.00014017730818118544
< 1  -1 >:  0.00014017730818118544
< 2  -2 >:  -0.00014017730818118544
< 3  -3 >:  0.00014017730818118544
< 4  -4 >:  -0.00014017730818118544
< 5  -5 >:  0.00014017730818118544
ctilde_basis_func: rank=2 ndens=1 mu0=0 mu=( 0  0 )
n=( 1  9 )
l=( 3  3 )
num_ms=7
< -3  3 >:  0.00011903990723674647
< -2  2 >:  -0.00011903990723674647
< -1  1 >:  0.00011903990723674647
< 0  0 >:  -0.00011903990723674647
< 1  -1 >:  0.00011903990723674647
< 2  -2 >:  -0.00011903990723674647
< 3  -3 >:  0.00011903990723674647
ctilde_basis_func: rank=2 ndens=1 mu0=0 mu=( 0  0 )
n=( 2  3 )
l=( 4  4 )
num_ms=9
< -4  4 >:  -0.0002693908213668495
< -3  3 >:  0.0002693908213668494
< -2  2 >:  -0.0002693908213668494
< -1  1 >:  0.0002693908213668494
< 0  0 >:  -0.0002693908213668494
< 1  -1 >:  0.0002693908213668494
< 2  -2 >:  -0.0002693908213668494
< 3  -3 >:  0.0002693908213668494
< 4  -4 >:  -0.0002693908213668494
ctilde_basis_func: rank=2 ndens=1 mu0=0 mu=( 0  0 )
n=( 6  14 )
l=( 0  0 )
num_ms=1
< 0  0 >:  -1.5091577770541686e-5
ctilde_basis_func: rank=2 ndens=1 mu0=0 mu=( 0  0 )
n=( 7  7 )
l=( 1  1 )
num_ms=2
< -1  1 >:  -0.00015846003736015796
< 0  0 >:  7.923001868007898e-5
ctilde_basis_func: rank=2 ndens=1 mu0=0 mu=( 0  0 )
n=( 2  3 )
l=( 1  1 )
num_ms=3
< -1  1 >:  -0.00046140379064030625
< 0  0 >:  0.00046140379064030625
< 1  -1 >:  -0.00046140379064030625
ctilde_basis_func: rank=2 ndens=1 mu0=0 mu=( 0  0 )
n=( 1  13 )
l=( 2  2 )
num_ms=5
< -2  2 >:  -7.482267332753629e-5
< -1  1 >:  7.482267332753629e-5
< 0  0 >:  -7.482267332753629e-5
< 1  -1 >:  7.482267332753629e-5
< 2  -2 >:  -7.482267332753629e-5
ctilde_basis_func: rank=2 ndens=1 mu0=0 mu=( 0  0 )
n=( 4  14 )
l=( 1  1 )
num_ms=3
< -1  1 >:  4.851337022824414e-5
< 0  0 >:  -4.851337022824414e-5
< 1  -1 >:  4.851337022824414e-5
ctilde_basis_func: rank=2 ndens=1 mu0=0 mu=( 0  0 )
n=( 1  15 )
l=( 1  1 )
num_ms=3
< -1  1 >:  2.0843219898176145e-5
< 0  0 >:  -2.0843219898176145e-5
< 1  -1 >:  2.0843219898176145e-5
ctilde_basis_func: rank=2 ndens=1 mu0=0 mu=( 0  0 )
n=( 2  2 )
l=( 5  5 )
num_ms=6
< -5  5 >:  0.0010732219314072413
< -4  4 >:  -0.0010732219314072416
< -3  3 >:  0.0010732219314072416
< -2  2 >:  -0.0010732219314072416
< -1  1 >:  0.0010732219314072416
< 0  0 >:  -0.0005366109657036208
ctilde_basis_func: rank=2 ndens=1 mu0=0 mu=( 0  0 )
n=( 1  18 )
l=( 0  0 )
num_ms=1
< 0  0 >:  -1.527536073820591e-5
ctilde_basis_func: rank=2 ndens=1 mu0=0 mu=( 0  0 )
n=( 5  8 )
l=( 2  2 )
num_ms=5
< -2  2 >:  -0.00010486584493075532
< -1  1 >:  0.00010486584493075532
< 0  0 >:  -0.00010486584493075532
< 1  -1 >:  0.00010486584493075532
< 2  -2 >:  -0.00010486584493075532
ctilde_basis_func: rank=2 ndens=1 mu0=0 mu=( 0  0 )
n=( 1  4 )
l=( 3  3 )
num_ms=7
< -3  3 >:  -0.00031393177607826674
< -2  2 >:  0.00031393177607826674
< -1  1 >:  -0.00031393177607826674
< 0  0 >:  0.00031393177607826674
< 1  -1 >:  -0.00031393177607826674
< 2  -2 >:  0.00031393177607826674
< 3  -3 >:  -0.00031393177607826674
ctilde_basis_func: rank=2 ndens=1 mu0=0 mu=( 0  0 )
n=( 3  6 )
l=( 2  2 )
num_ms=5
< -2  2 >:  -3.663609803562491e-5
< -1  1 >:  3.663609803562491e-5
< 0  0 >:  -3.663609803562491e-5
< 1  -1 >:  3.663609803562491e-5
< 2  -2 >:  -3.663609803562491e-5
ctilde_basis_func: rank=2 ndens=1 mu0=0 mu=( 0  0 )
n=( 2  14 )
l=( 1  1 )
num_ms=3
< -1  1 >:  -5.426009960596904e-5
< 0  0 >:  5.426009960596904e-5
< 1  -1 >:  -5.426009960596904e-5
ctilde_basis_func: rank=2 ndens=1 mu0=0 mu=( 0  0 )
n=( 3  6 )
l=( 4  4 )
num_ms=9
< -4  4 >:  -0.00012244148911315413
< -3  3 >:  0.0001224414891131541
< -2  2 >:  -0.0001224414891131541
< -1  1 >:  0.0001224414891131541
< 0  0 >:  -0.0001224414891131541
< 1  -1 >:  0.0001224414891131541
< 2  -2 >:  -0.0001224414891131541
< 3  -3 >:  0.0001224414891131541
< 4  -4 >:  -0.0001224414891131541
ctilde_basis_func: rank=2 ndens=1 mu0=0 mu=( 0  0 )
n=( 1  10 )
l=( 3  3 )
num_ms=7
< -3  3 >:  9.476512473662106e-5
< -2  2 >:  -9.476512473662106e-5
< -1  1 >:  9.476512473662106e-5
< 0  0 >:  -9.476512473662106e-5
< 1  -1 >:  9.476512473662106e-5
< 2  -2 >:  -9.476512473662106e-5
< 3  -3 >:  9.476512473662106e-5
ctilde_basis_func: rank=2 ndens=1 mu0=0 mu=( 0  0 )
n=( 1  5 )
l=( 5  5 )
num_ms=11
< -5  5 >:  -0.000285632510786681
< -4  4 >:  0.00028563251078668115
< -3  3 >:  -0.00028563251078668115
< -2  2 >:  0.00028563251078668115
< -1  1 >:  -0.00028563251078668115
< 0  0 >:  0.00028563251078668115
< 1  -1 >:  -0.00028563251078668115
< 2  -2 >:  0.00028563251078668115
< 3  -3 >:  -0.00028563251078668115
< 4  -4 >:  0.00028563251078668115
< 5  -5 >:  -0.00028563251078668115
ctilde_basis_func: rank=2 ndens=1 mu0=0 mu=( 0  0 )
n=( 4  7 )
l=( 2  2 )
num_ms=5
< -2  2 >:  9.623666799854345e-5
< -1  1 >:  -9.623666799854345e-5
< 0  0 >:  9.623666799854345e-5
< 1  -1 >:  -9.623666799854345e-5
< 2  -2 >:  9.623666799854345e-5
ctilde_basis_func: rank=2 ndens=1 mu0=0 mu=( 0  0 )
n=( 8  8 )
l=( 1  1 )
num_ms=2
< -1  1 >:  -8.785925602153715e-5
< 0  0 >:  4.392962801076858e-5
ctilde_basis_func: rank=2 ndens=1 mu0=0 mu=( 0  0 )
n=( 3  3 )
l=( 4  4 )
num_ms=5
< -4  4 >:  -0.0005759777507003292
< -3  3 >:  0.0005759777507003291
< -2  2 >:  -0.0005759777507003291
< -1  1 >:  0.0005759777507003291
< 0  0 >:  -0.00028798887535016457
ctilde_basis_func: rank=2 ndens=1 mu0=0 mu=( 0  0 )
n=( 1  4 )
l=( 0  0 )
num_ms=1
< 0  0 >:  -0.0003050058841107753
ctilde_basis_func: rank=2 ndens=1 mu0=0 mu=( 0  0 )
n=( 2  5 )
l=( 4  4 )
num_ms=9
< -4  4 >:  -0.0002223840556813453
< -3  3 >:  0.00022238405568134528
< -2  2 >:  -0.00022238405568134528
< -1  1 >:  0.00022238405568134528
< 0  0 >:  -0.00022238405568134528
< 1  -1 >:  0.00022238405568134528
< 2  -2 >:  -0.00022238405568134528
< 3  -3 >:  0.00022238405568134528
< 4  -4 >:  -0.00022238405568134528
ctilde_basis_func: rank=2 ndens=1 mu0=0 mu=( 0  0 )
n=( 4  6 )
l=( 3  3 )
num_ms=7
< -3  3 >:  0.00015464116086602838
< -2  2 >:  -0.00015464116086602838
< -1  1 >:  0.00015464116086602838
< 0  0 >:  -0.00015464116086602838
< 1  -1 >:  0.00015464116086602838
< 2  -2 >:  -0.00015464116086602838
< 3  -3 >:  0.00015464116086602838
ctilde_basis_func: rank=2 ndens=1 mu0=0 mu=( 0  0 )
n=( 2  3 )
l=( 5  5 )
num_ms=11
< -5  5 >:  0.00018151514323190828
< -4  4 >:  -0.0001815151432319084
< -3  3 >:  0.0001815151432319084
< -2  2 >:  -0.0001815151432319084
< -1  1 >:  0.0001815151432319084
< 0  0 >:  -0.0001815151432319084
< 1  -1 >:  0.0001815151432319084
< 2  -2 >:  -0.0001815151432319084
< 3  -3 >:  0.0001815151432319084
< 4  -4 >:  -0.0001815151432319084
< 5  -5 >:  0.0001815151432319084
ctilde_basis_func: rank=2 ndens=1 mu0=0 mu=( 0  0 )
n=( 4  5 )
l=( 1  1 )
num_ms=3
< -1  1 >:  4.78746606256532e-5
< 0  0 >:  -4.78746606256532e-5
< 1  -1 >:  4.78746606256532e-5
ctilde_basis_func: rank=2 ndens=1 mu0=0 mu=( 0  0 )
n=( 1  4 )
l=( 2  2 )
num_ms=5
< -2  2 >:  0.0017427010509096417
< -1  1 >:  -0.0017427010509096417
< 0  0 >:  0.0017427010509096417
< 1  -1 >:  -0.0017427010509096417
< 2  -2 >:  0.0017427010509096417
ctilde_basis_func: rank=2 ndens=1 mu0=0 mu=( 0  0 )
n=( 4  8 )
l=( 2  2 )
num_ms=5
< -2  2 >:  0.00030939675961775344
< -1  1 >:  -0.00030939675961775344
< 0  0 >:  0.00030939675961775344
< 1  -1 >:  -0.00030939675961775344
< 2  -2 >:  0.00030939675961775344
ctilde_basis_func: rank=2 ndens=1 mu0=0 mu=( 0  0 )
n=( 4  13 )
l=( 1  1 )
num_ms=3
< -1  1 >:  -5.9662485719275035e-5
< 0  0 >:  5.9662485719275035e-5
< 1  -1 >:  -5.9662485719275035e-5
ctilde_basis_func: rank=2 ndens=1 mu0=0 mu=( 0  0 )
n=( 3  9 )
l=( 1  1 )
num_ms=3
< -1  1 >:  0.00011050434145334791
< 0  0 >:  -0.00011050434145334791
< 1  -1 >:  0.00011050434145334791
ctilde_basis_func: rank=2 ndens=1 mu0=0 mu=( 0  0 )
n=( 5  10 )
l=( 0  0 )
num_ms=1
< 0  0 >:  -1.2167824060058645e-5
ctilde_basis_func: rank=2 ndens=1 mu0=0 mu=( 0  0 )
n=( 8  9 )
l=( 1  1 )
num_ms=3
< -1  1 >:  5.876947646094074e-5
< 0  0 >:  -5.876947646094074e-5
< 1  -1 >:  5.876947646094074e-5
ctilde_basis_func: rank=2 ndens=1 mu0=0 mu=( 0  0 )
n=( 1  3 )
l=( 2  2 )
num_ms=5
< -2  2 >:  -0.0022894415211565633
< -1  1 >:  0.0022894415211565633
< 0  0 >:  -0.0022894415211565633
< 1  -1 >:  0.0022894415211565633
< 2  -2 >:  -0.0022894415211565633
ctilde_basis_func: rank=2 ndens=1 mu0=0 mu=( 0  0 )
n=( 1  5 )
l=( 2  2 )
num_ms=5
< -2  2 >:  -0.0005820360352657942
< -1  1 >:  0.0005820360352657942
< 0  0 >:  -0.0005820360352657942
< 1  -1 >:  0.0005820360352657942
< 2  -2 >:  -0.0005820360352657942
ctilde_basis_func: rank=2 ndens=1 mu0=0 mu=( 0  0 )
n=( 3  12 )
l=( 1  1 )
num_ms=3
< -1  1 >:  -8.253131537904879e-5
< 0  0 >:  8.253131537904879e-5
< 1  -1 >:  -8.253131537904879e-5
ctilde_basis_func: rank=2 ndens=1 mu0=0 mu=( 0  0 )
n=( 7  8 )
l=( 1  1 )
num_ms=3
< -1  1 >:  4.1760103145482356e-5
< 0  0 >:  -4.1760103145482356e-5
< 1  -1 >:  4.1760103145482356e-5
ctilde_basis_func: rank=2 ndens=1 mu0=0 mu=( 0  0 )
n=( 2  12 )
l=( 1  1 )
num_ms=3
< -1  1 >:  -3.786390060529031e-5
< 0  0 >:  3.786390060529031e-5
< 1  -1 >:  -3.786390060529031e-5
ctilde_basis_func: rank=2 ndens=1 mu0=0 mu=( 0  0 )
n=( 1  2 )
l=( 5  5 )
num_ms=11
< -5  5 >:  -8.495801624044263e-5
< -4  4 >:  8.495801624044269e-5
< -3  3 >:  -8.495801624044269e-5
< -2  2 >:  8.495801624044269e-5
< -1  1 >:  -8.495801624044269e-5
< 0  0 >:  8.495801624044269e-5
< 1  -1 >:  -8.495801624044269e-5
< 2  -2 >:  8.495801624044269e-5
< 3  -3 >:  -8.495801624044269e-5
< 4  -4 >:  8.495801624044269e-5
< 5  -5 >:  -8.495801624044269e-5
ctilde_basis_func: rank=2 ndens=1 mu0=0 mu=( 0  0 )
n=( 5  6 )
l=( 3  3 )
num_ms=7
< -3  3 >:  1.7342636409808486e-5
< -2  2 >:  -1.7342636409808486e-5
< -1  1 >:  1.7342636409808486e-5
< 0  0 >:  -1.7342636409808486e-5
< 1  -1 >:  1.7342636409808486e-5
< 2  -2 >:  -1.7342636409808486e-5
< 3  -3 >:  1.7342636409808486e-5
ctilde_basis_func: rank=2 ndens=1 mu0=0 mu=( 0  0 )
n=( 1  13 )
l=( 1  1 )
num_ms=3
< -1  1 >:  -7.130020477347662e-5
< 0  0 >:  7.130020477347662e-5
< 1  -1 >:  -7.130020477347662e-5
ctilde_basis_func: rank=2 ndens=1 mu0=0 mu=( 0  0 )
n=( 3  10 )
l=( 2  2 )
num_ms=5
< -2  2 >:  3.674581688233363e-5
< -1  1 >:  -3.674581688233363e-5
< 0  0 >:  3.674581688233363e-5
< 1  -1 >:  -3.674581688233363e-5
< 2  -2 >:  3.674581688233363e-5
ctilde_basis_func: rank=2 ndens=1 mu0=0 mu=( 0  0 )
n=( 1  3 )
l=( 3  3 )
num_ms=7
< -3  3 >:  1.841086487686396e-5
< -2  2 >:  -1.841086487686396e-5
< -1  1 >:  1.841086487686396e-5
< 0  0 >:  -1.841086487686396e-5
< 1  -1 >:  1.841086487686396e-5
< 2  -2 >:  -1.841086487686396e-5
< 3  -3 >:  1.841086487686396e-5
ctilde_basis_func: rank=2 ndens=1 mu0=0 mu=( 0  0 )
n=( 1  3 )
l=( 1  1 )
num_ms=3
< -1  1 >:  0.0016966213086563673
< 0  0 >:  -0.0016966213086563673
< 1  -1 >:  0.0016966213086563673
ctilde_basis_func: rank=2 ndens=1 mu0=0 mu=( 0  0 )
n=( 1  1 )
l=( 5  5 )
num_ms=6
< -5  5 >:  0.0003031538994600548
< -4  4 >:  -0.00030315389946005485
< -3  3 >:  0.00030315389946005485
< -2  2 >:  -0.00030315389946005485
< -1  1 >:  0.00030315389946005485
< 0  0 >:  -0.00015157694973002742
ctilde_basis_func: rank=2 ndens=1 mu0=0 mu=( 0  0 )
n=( 2  16 )
l=( 0  0 )
num_ms=1
< 0  0 >:  3.5709246221070855e-5
ctilde_basis_func: rank=2 ndens=1 mu0=0 mu=( 0  0 )
n=( 1  7 )
l=( 2  2 )
num_ms=5
< -2  2 >:  0.00010867103647152016
< -1  1 >:  -0.00010867103647152016
< 0  0 >:  0.00010867103647152016
< 1  -1 >:  -0.00010867103647152016
< 2  -2 >:  0.00010867103647152016
ctilde_basis_func: rank=2 ndens=1 mu0=0 mu=( 0  0 )
n=( 3  7 )
l=( 3  3 )
num_ms=7
< -3  3 >:  -0.00012905386552941413
< -2  2 >:  0.00012905386552941413
< -1  1 >:  -0.00012905386552941413
< 0  0 >:  0.00012905386552941413
< 1  -1 >:  -0.00012905386552941413
< 2  -2 >:  0.00012905386552941413
< 3  -3 >:  -0.00012905386552941413
ctilde_basis_func: rank=2 ndens=1 mu0=0 mu=( 0  0 )
n=( 4  11 )
l=( 0  0 )
num_ms=1
< 0  0 >:  -9.423899040442317e-6
ctilde_basis_func: rank=2 ndens=1 mu0=0 mu=( 0  0 )
n=( 2  7 )
l=( 2  2 )
num_ms=5
< -2  2 >:  -0.00012670740451890087
< -1  1 >:  0.00012670740451890087
< 0  0 >:  -0.00012670740451890087
< 1  -1 >:  0.00012670740451890087
< 2  -2 >:  -0.00012670740451890087
ctilde_basis_func: rank=2 ndens=1 mu0=0 mu=( 0  0 )
n=( 3  8 )
l=( 3  3 )
num_ms=7
< -3  3 >:  0.00023232335647053754
< -2  2 >:  -0.00023232335647053754
< -1  1 >:  0.00023232335647053754
< 0  0 >:  -0.00023232335647053754
< 1  -1 >:  0.00023232335647053754
< 2  -2 >:  -0.00023232335647053754
< 3  -3 >:  0.00023232335647053754
ctilde_basis_func: rank=2 ndens=1 mu0=0 mu=( 0  0 )
n=( 3  15 )
l=( 1  1 )
num_ms=3
< -1  1 >:  8.986996736074355e-6
< 0  0 >:  -8.986996736074355e-6
< 1  -1 >:  8.986996736074355e-6
ctilde_basis_func: rank=2 ndens=1 mu0=0 mu=( 0  0 )
n=( 1  11 )
l=( 2  2 )
num_ms=5
< -2  2 >:  -6.492428151087997e-5
< -1  1 >:  6.492428151087997e-5
< 0  0 >:  -6.492428151087997e-5
< 1  -1 >:  6.492428151087997e-5
< 2  -2 >:  -6.492428151087997e-5
ctilde_basis_func: rank=2 ndens=1 mu0=0 mu=( 0  0 )
n=( 4  4 )
l=( 1  1 )
num_ms=2
< -1  1 >:  -0.00031439661100301786
< 0  0 >:  0.00015719830550150893
ctilde_basis_func: rank=2 ndens=1 mu0=0 mu=( 0  0 )
n=( 2  12 )
l=( 0  0 )
num_ms=1
< 0  0 >:  -3.133477671923413e-6
ctilde_basis_func: rank=2 ndens=1 mu0=0 mu=( 0  0 )
n=( 8  8 )
l=( 0  0 )
num_ms=1
< 0  0 >:  -2.1852186839487614e-5
ctilde_basis_func: rank=2 ndens=1 mu0=0 mu=( 0  0 )
n=( 2  4 )
l=( 5  5 )
num_ms=11
< -5  5 >:  0.00023478444638863063
< -4  4 >:  -0.00023478444638863076
< -3  3 >:  0.00023478444638863076
< -2  2 >:  -0.00023478444638863076
< -1  1 >:  0.00023478444638863076
< 0  0 >:  -0.00023478444638863076
< 1  -1 >:  0.00023478444638863076
< 2  -2 >:  -0.00023478444638863076
< 3  -3 >:  0.00023478444638863076
< 4  -4 >:  -0.00023478444638863076
< 5  -5 >:  0.00023478444638863076
ctilde_basis_func: rank=2 ndens=1 mu0=0 mu=( 0  0 )
n=( 3  12 )
l=( 0  0 )
num_ms=1
< 0  0 >:  -1.7153735860119678e-5
ctilde_basis_func: rank=2 ndens=1 mu0=0 mu=( 0  0 )
n=( 3  6 )
l=( 3  3 )
num_ms=7
< -3  3 >:  0.0005344382153731051
< -2  2 >:  -0.0005344382153731051
< -1  1 >:  0.0005344382153731051
< 0  0 >:  -0.0005344382153731051
< 1  -1 >:  0.0005344382153731051
< 2  -2 >:  -0.0005344382153731051
< 3  -3 >:  0.0005344382153731051
ctilde_basis_func: rank=2 ndens=1 mu0=0 mu=( 0  0 )
n=( 3  9 )
l=( 0  0 )
num_ms=1
< 0  0 >:  1.289292771342825e-5
ctilde_basis_func: rank=2 ndens=1 mu0=0 mu=( 0  0 )
n=( 2  7 )
l=( 4  4 )
num_ms=9
< -4  4 >:  -0.00019842210021027307
< -3  3 >:  0.00019842210021027301
< -2  2 >:  -0.00019842210021027301
< -1  1 >:  0.00019842210021027301
< 0  0 >:  -0.00019842210021027301
< 1  -1 >:  0.00019842210021027301
< 2  -2 >:  -0.00019842210021027301
< 3  -3 >:  0.00019842210021027301
< 4  -4 >:  -0.00019842210021027301
ctilde_basis_func: rank=2 ndens=1 mu0=0 mu=( 0  0 )
n=( 2  2 )
l=( 2  2 )
num_ms=3
< -2  2 >:  -0.0026180247956382875
< -1  1 >:  0.0026180247956382875
< 0  0 >:  -0.0013090123978191438
ctilde_basis_func: rank=2 ndens=1 mu0=0 mu=( 0  0 )
n=( 7  10 )
l=( 0  0 )
num_ms=1
< 0  0 >:  7.714672276811815e-5
ctilde_basis_func: rank=2 ndens=1 mu0=0 mu=( 0  0 )
n=( 1  1 )
l=( 6  6 )
num_ms=7
< -6  6 >:  -0.0007746757232411977
< -5  5 >:  0.0007746757232411975
< -4  4 >:  -0.0007746757232411975
< -3  3 >:  0.0007746757232411975
< -2  2 >:  -0.0007746757232411975
< -1  1 >:  0.0007746757232411975
< 0  0 >:  -0.00038733786162059873
ctilde_basis_func: rank=2 ndens=1 mu0=0 mu=( 0  0 )
n=( 2  6 )
l=( 2  2 )
num_ms=5
< -2  2 >:  7.59908569850328e-5
< -1  1 >:  -7.59908569850328e-5
< 0  0 >:  7.59908569850328e-5
< 1  -1 >:  -7.59908569850328e-5
< 2  -2 >:  7.59908569850328e-5
ctilde_basis_func: rank=2 ndens=1 mu0=0 mu=( 0  0 )
n=( 9  10 )
l=( 0  0 )
num_ms=1
< 0  0 >:  1.2698034358392443e-5
ctilde_basis_func: rank=2 ndens=1 mu0=0 mu=( 0  0 )
n=( 6  11 )
l=( 1  1 )
num_ms=3
< -1  1 >:  -1.2827859916164916e-5
< 0  0 >:  1.2827859916164916e-5
< 1  -1 >:  -1.2827859916164916e-5
ctilde_basis_func: rank=2 ndens=1 mu0=0 mu=( 0  0 )
n=( 4  7 )
l=( 3  3 )
num_ms=7
< -3  3 >:  -0.00014108303178804403
< -2  2 >:  0.00014108303178804403
< -1  1 >:  -0.00014108303178804403
< 0  0 >:  0.00014108303178804403
< 1  -1 >:  -0.00014108303178804403
< 2  -2 >:  0.00014108303178804403
< 3  -3 >:  -0.00014108303178804403
ctilde_basis_func: rank=2 ndens=1 mu0=0 mu=( 0  0 )
n=( 1  7 )
l=( 4  4 )
num_ms=9
< -4  4 >:  0.00033454632981342805
< -3  3 >:  -0.000334546329813428
< -2  2 >:  0.000334546329813428
< -1  1 >:  -0.000334546329813428
< 0  0 >:  0.000334546329813428
< 1  -1 >:  -0.000334546329813428
< 2  -2 >:  0.000334546329813428
< 3  -3 >:  -0.000334546329813428
< 4  -4 >:  0.000334546329813428
ctilde_basis_func: rank=2 ndens=1 mu0=0 mu=( 0  0 )
n=( 2  4 )
l=( 1  1 )
num_ms=3
< -1  1 >:  0.0006695357305030871
< 0  0 >:  -0.0006695357305030871
< 1  -1 >:  0.0006695357305030871
ctilde_basis_func: rank=2 ndens=1 mu0=0 mu=( 0  0 )
n=( 5  8 )
l=( 1  1 )
num_ms=3
< -1  1 >:  -0.00026519298031739847
< 0  0 >:  0.00026519298031739847
< 1  -1 >:  -0.00026519298031739847
ctilde_basis_func: rank=2 ndens=1 mu0=0 mu=( 0  0 )
n=( 2  10 )
l=( 3  3 )
num_ms=7
< -3  3 >:  3.996719151988502e-5
< -2  2 >:  -3.996719151988502e-5
< -1  1 >:  3.996719151988502e-5
< 0  0 >:  -3.996719151988502e-5
< 1  -1 >:  3.996719151988502e-5
< 2  -2 >:  -3.996719151988502e-5
< 3  -3 >:  3.996719151988502e-5
ctilde_basis_func: rank=2 ndens=1 mu0=0 mu=( 0  0 )
n=( 5  9 )
l=( 2  2 )
num_ms=5
< -2  2 >:  0.0001299628928328138
< -1  1 >:  -0.0001299628928328138
< 0  0 >:  0.0001299628928328138
< 1  -1 >:  -0.0001299628928328138
< 2  -2 >:  0.0001299628928328138
ctilde_basis_func: rank=2 ndens=1 mu0=0 mu=( 0  0 )
n=( 2  5 )
l=( 2  2 )
num_ms=5
< -2  2 >:  0.0002661654601224698
< -1  1 >:  -0.0002661654601224698
< 0  0 >:  0.0002661654601224698
< 1  -1 >:  -0.0002661654601224698
< 2  -2 >:  0.0002661654601224698
ctilde_basis_func: rank=2 ndens=1 mu0=0 mu=( 0  0 )
n=( 3  4 )
l=( 4  4 )
num_ms=9
< -4  4 >:  0.00019545337664016052
< -3  3 >:  -0.00019545337664016047
< -2  2 >:  0.00019545337664016047
< -1  1 >:  -0.00019545337664016047
< 0  0 >:  0.00019545337664016047
< 1  -1 >:  -0.00019545337664016047
< 2  -2 >:  0.00019545337664016047
< 3  -3 >:  -0.00019545337664016047
< 4  -4 >:  0.00019545337664016047
ctilde_basis_func: rank=2 ndens=1 mu0=0 mu=( 0  0 )
n=( 1  1 )
l=( 3  3 )
num_ms=4
< -3  3 >:  0.0014907824920432989
< -2  2 >:  -0.0014907824920432989
< -1  1 >:  0.0014907824920432989
< 0  0 >:  -0.0007453912460216494
ctilde_basis_func: rank=2 ndens=1 mu0=0 mu=( 0  0 )
n=( 2  10 )
l=( 2  2 )
num_ms=5
< -2  2 >:  1.948560953984619e-5
< -1  1 >:  -1.948560953984619e-5
< 0  0 >:  1.948560953984619e-5
< 1  -1 >:  -1.948560953984619e-5
< 2  -2 >:  1.948560953984619e-5
ctilde_basis_func: rank=2 ndens=1 mu0=0 mu=( 0  0 )
n=( 3  9 )
l=( 3  3 )
num_ms=7
< -3  3 >:  4.311668725080382e-5
< -2  2 >:  -4.311668725080382e-5
< -1  1 >:  4.311668725080382e-5
< 0  0 >:  -4.311668725080382e-5
< 1  -1 >:  4.311668725080382e-5
< 2  -2 >:  -4.311668725080382e-5
< 3  -3 >:  4.311668725080382e-5
ctilde_basis_func: rank=2 ndens=1 mu0=0 mu=( 0  0 )
n=( 6  7 )
l=( 1  1 )
num_ms=3
< -1  1 >:  6.191874758690922e-5
< 0  0 >:  -6.191874758690922e-5
< 1  -1 >:  6.191874758690922e-5
ctilde_basis_func: rank=2 ndens=1 mu0=0 mu=( 0  0 )
n=( 4  5 )
l=( 3  3 )
num_ms=7
< -3  3 >:  0.00010949060704611467
< -2  2 >:  -0.00010949060704611467
< -1  1 >:  0.00010949060704611467
< 0  0 >:  -0.00010949060704611467
< 1  -1 >:  0.00010949060704611467
< 2  -2 >:  -0.00010949060704611467
< 3  -3 >:  0.00010949060704611467
ctilde_basis_func: rank=2 ndens=1 mu0=0 mu=( 0  0 )
n=( 5  12 )
l=( 1  1 )
num_ms=3
< -1  1 >:  -9.973305274646086e-6
< 0  0 >:  9.973305274646086e-6
< 1  -1 >:  -9.973305274646086e-6
ctilde_basis_func: rank=2 ndens=1 mu0=0 mu=( 0  0 )
n=( 2  13 )
l=( 2  2 )
num_ms=5
< -2  2 >:  1.3812471822087987e-5
< -1  1 >:  -1.3812471822087987e-5
< 0  0 >:  1.3812471822087987e-5
< 1  -1 >:  -1.3812471822087987e-5
< 2  -2 >:  1.3812471822087987e-5
ctilde_basis_func: rank=2 ndens=1 mu0=0 mu=( 0  0 )
n=( 5  7 )
l=( 3  3 )
num_ms=7
< -3  3 >:  -7.717630618202913e-5
< -2  2 >:  7.717630618202913e-5
< -1  1 >:  -7.717630618202913e-5
< 0  0 >:  7.717630618202913e-5
< 1  -1 >:  -7.717630618202913e-5
< 2  -2 >:  7.717630618202913e-5
< 3  -3 >:  -7.717630618202913e-5
ctilde_basis_func: rank=2 ndens=1 mu0=0 mu=( 0  0 )
n=( 4  11 )
l=( 1  1 )
num_ms=3
< -1  1 >:  2.3122304278162496e-7
< 0  0 >:  -2.3122304278162496e-7
< 1  -1 >:  2.3122304278162496e-7
ctilde_basis_func: rank=2 ndens=1 mu0=0 mu=( 0  0 )
n=( 7  14 )
l=( 0  0 )
num_ms=1
< 0  0 >:  -9.126988262863856e-6
ctilde_basis_func: rank=2 ndens=1 mu0=0 mu=( 0  0 )
n=( 2  2 )
l=( 0  0 )
num_ms=1
< 0  0 >:  0.0022174855785224144
ctilde_basis_func: rank=2 ndens=1 mu0=0 mu=( 0  0 )
n=( 3  5 )
l=( 2  2 )
num_ms=5
< -2  2 >:  -0.0005787227966213233
< -1  1 >:  0.0005787227966213233
< 0  0 >:  -0.0005787227966213233
< 1  -1 >:  0.0005787227966213233
< 2  -2 >:  -0.0005787227966213233
ctilde_basis_func: rank=2 ndens=1 mu0=0 mu=( 0  0 )
n=( 2  7 )
l=( 3  3 )
num_ms=7
< -3  3 >:  0.00020639756848865587
< -2  2 >:  -0.00020639756848865587
< -1  1 >:  0.00020639756848865587
< 0  0 >:  -0.00020639756848865587
< 1  -1 >:  0.00020639756848865587
< 2  -2 >:  -0.00020639756848865587
< 3  -3 >:  0.00020639756848865587
ctilde_basis_func: rank=2 ndens=1 mu0=0 mu=( 0  0 )
n=( 3  3 )
l=( 3  3 )
num_ms=4
< -3  3 >:  0.0025002998476521135
< -2  2 >:  -0.0025002998476521135
< -1  1 >:  0.0025002998476521135
< 0  0 >:  -0.0012501499238260568
ctilde_basis_func: rank=2 ndens=1 mu0=0 mu=( 0  0 )
n=( 6  12 )
l=( 0  0 )
num_ms=1
< 0  0 >:  1.2642099595876814e-5
ctilde_basis_func: rank=2 ndens=1 mu0=0 mu=( 0  0 )
n=( 2  13 )
l=( 1  1 )
num_ms=3
< -1  1 >:  -4.275152441306386e-5
< 0  0 >:  4.275152441306386e-5
< 1  -1 >:  -4.275152441306386e-5
ctilde_basis_func: rank=2 ndens=1 mu0=0 mu=( 0  0 )
n=( 5  10 )
l=( 1  1 )
num_ms=3
< -1  1 >:  -5.0290491869402665e-5
< 0  0 >:  5.0290491869402665e-5
< 1  -1 >:  -5.0290491869402665e-5
ctilde_basis_func: rank=2 ndens=1 mu0=0 mu=( 0  0 )
n=( 4  10 )
l=( 2  2 )
num_ms=5
< -2  2 >:  4.611279630223189e-5
< -1  1 >:  -4.611279630223189e-5
< 0  0 >:  4.611279630223189e-5
< 1  -1 >:  -4.611279630223189e-5
< 2  -2 >:  4.611279630223189e-5
ctilde_basis_func: rank=2 ndens=1 mu0=0 mu=( 0  0 )
n=( 6  12 )
l=( 1  1 )
num_ms=3
< -1  1 >:  8.567542262290893e-6
< 0  0 >:  -8.567542262290893e-6
< 1  -1 >:  8.567542262290893e-6
ctilde_basis_func: rank=2 ndens=1 mu0=0 mu=( 0  0 )
n=( 1  3 )
l=( 4  4 )
num_ms=9
< -4  4 >:  0.000254813501102796
< -3  3 >:  -0.0002548135011027959
< -2  2 >:  0.0002548135011027959
< -1  1 >:  -0.0002548135011027959
< 0  0 >:  0.0002548135011027959
< 1  -1 >:  -0.0002548135011027959
< 2  -2 >:  0.0002548135011027959
< 3  -3 >:  -0.0002548135011027959
< 4  -4 >:  0.0002548135011027959
ctilde_basis_func: rank=2 ndens=1 mu0=0 mu=( 0  0 )
n=( 3  13 )
l=( 0  0 )
num_ms=1
< 0  0 >:  -3.127756723690914e-5
ctilde_basis_func: rank=2 ndens=1 mu0=0 mu=( 0  0 )
n=( 7  7 )
l=( 2  2 )
num_ms=3
< -2  2 >:  2.0137089433869033e-5
< -1  1 >:  -2.0137089433869033e-5
< 0  0 >:  1.0068544716934516e-5
ctilde_basis_func: rank=2 ndens=1 mu0=0 mu=( 0  0 )
n=( 1  10 )
l=( 2  2 )
num_ms=5
< -2  2 >:  -1.6565711879480618e-5
< -1  1 >:  1.6565711879480618e-5
< 0  0 >:  -1.6565711879480618e-5
< 1  -1 >:  1.6565711879480618e-5
< 2  -2 >:  -1.6565711879480618e-5
ctilde_basis_func: rank=2 ndens=1 mu0=0 mu=( 0  0 )
n=( 3  7 )
l=( 1  1 )
num_ms=3
< -1  1 >:  -0.00013549633716173956
< 0  0 >:  0.00013549633716173956
< 1  -1 >:  -0.00013549633716173956
ctilde_basis_func: rank=2 ndens=1 mu0=0 mu=( 0  0 )
n=( 1  8 )
l=( 2  2 )
num_ms=5
< -2  2 >:  -0.00011243667687353244
< -1  1 >:  0.00011243667687353244
< 0  0 >:  -0.00011243667687353244
< 1  -1 >:  0.00011243667687353244
< 2  -2 >:  -0.00011243667687353244
ctilde_basis_func: rank=2 ndens=1 mu0=0 mu=( 0  0 )
n=( 2  8 )
l=( 1  1 )
num_ms=3
< -1  1 >:  3.535331357082205e-5
< 0  0 >:  -3.535331357082205e-5
< 1  -1 >:  3.535331357082205e-5
ctilde_basis_func: rank=2 ndens=1 mu0=0 mu=( 0  0 )
n=( 2  6 )
l=( 1  1 )
num_ms=3
< -1  1 >:  7.341585924018854e-5
< 0  0 >:  -7.341585924018854e-5
< 1  -1 >:  7.341585924018854e-5
ctilde_basis_func: rank=2 ndens=1 mu0=0 mu=( 0  0 )
n=( 1  6 )
l=( 4  4 )
num_ms=9
< -4  4 >:  5.322337980904359e-5
< -3  3 >:  -5.322337980904358e-5
< -2  2 >:  5.322337980904358e-5
< -1  1 >:  -5.322337980904358e-5
< 0  0 >:  5.322337980904358e-5
< 1  -1 >:  -5.322337980904358e-5
< 2  -2 >:  5.322337980904358e-5
< 3  -3 >:  -5.322337980904358e-5
< 4  -4 >:  5.322337980904358e-5
ctilde_basis_func: rank=2 ndens=1 mu0=0 mu=( 0  0 )
n=( 1  9 )
l=( 1  1 )
num_ms=3
< -1  1 >:  7.572479910139972e-5
< 0  0 >:  -7.572479910139972e-5
< 1  -1 >:  7.572479910139972e-5
ctilde_basis_func: rank=2 ndens=1 mu0=0 mu=( 0  0 )
n=( 10  10 )
l=( 0  0 )
num_ms=1
< 0  0 >:  5.455222053650686e-5
ctilde_basis_func: rank=2 ndens=1 mu0=0 mu=( 0  0 )
n=( 1  6 )
l=( 1  1 )
num_ms=3
< -1  1 >:  -0.000797348820929892
< 0  0 >:  0.000797348820929892
< 1  -1 >:  -0.000797348820929892
ctilde_basis_func: rank=2 ndens=1 mu0=0 mu=( 0  0 )
n=( 2  5 )
l=( 1  1 )
num_ms=3
< -1  1 >:  -0.0005001132264053298
< 0  0 >:  0.0005001132264053298
< 1  -1 >:  -0.0005001132264053298
ctilde_basis_func: rank=2 ndens=1 mu0=0 mu=( 0  0 )
n=( 5  14 )
l=( 0  0 )
num_ms=1
< 0  0 >:  -4.795844492777212e-6
ctilde_basis_func: rank=2 ndens=1 mu0=0 mu=( 0  0 )
n=( 1  11 )
l=( 1  1 )
num_ms=3
< -1  1 >:  -6.20133968257656e-5
< 0  0 >:  6.20133968257656e-5
< 1  -1 >:  -6.20133968257656e-5
ctilde_basis_func: rank=2 ndens=1 mu0=0 mu=( 0  0 )
n=( 1  5 )
l=( 1  1 )
num_ms=3
< -1  1 >:  0.0010606035232030987
< 0  0 >:  -0.0010606035232030987
< 1  -1 >:  0.0010606035232030987
ctilde_basis_func: rank=2 ndens=1 mu0=0 mu=( 0  0 )
n=( 1  14 )
l=( 1  1 )
num_ms=3
< -1  1 >:  1.0108253105434271e-5
< 0  0 >:  -1.0108253105434271e-5
< 1  -1 >:  1.0108253105434271e-5
ctilde_basis_func: rank=2 ndens=1 mu0=0 mu=( 0  0 )
n=( 3  14 )
l=( 1  1 )
num_ms=3
< -1  1 >:  -2.104670537207243e-5
< 0  0 >:  2.104670537207243e-5
< 1  -1 >:  -2.104670537207243e-5
ctilde_basis_func: rank=2 ndens=1 mu0=0 mu=( 0  0 )
n=( 1  2 )
l=( 4  4 )
num_ms=9
< -4  4 >:  0.00019099989496164344
< -3  3 >:  -0.00019099989496164341
< -2  2 >:  0.00019099989496164341
< -1  1 >:  -0.00019099989496164341
< 0  0 >:  0.00019099989496164341
< 1  -1 >:  -0.00019099989496164341
< 2  -2 >:  0.00019099989496164341
< 3  -3 >:  -0.00019099989496164341
< 4  -4 >:  0.00019099989496164341
ctilde_basis_func: rank=2 ndens=1 mu0=0 mu=( 0  0 )
n=( 5  9 )
l=( 0  0 )
num_ms=1
< 0  0 >:  5.444352297321417e-5
ctilde_basis_func: rank=2 ndens=1 mu0=0 mu=( 0  0 )
n=( 1  12 )
l=( 2  2 )
num_ms=5
< -2  2 >:  -2.696694064644777e-6
< -1  1 >:  2.696694064644777e-6
< 0  0 >:  -2.696694064644777e-6
< 1  -1 >:  2.696694064644777e-6
< 2  -2 >:  -2.696694064644777e-6
ctilde_basis_func: rank=2 ndens=1 mu0=0 mu=( 0  0 )
n=( 1  5 )
l=( 3  3 )
num_ms=7
< -3  3 >:  0.000284230734783965
< -2  2 >:  -0.000284230734783965
< -1  1 >:  0.000284230734783965
< 0  0 >:  -0.000284230734783965
< 1  -1 >:  0.000284230734783965
< 2  -2 >:  -0.000284230734783965
< 3  -3 >:  0.000284230734783965
ctilde_basis_func: rank=2 ndens=1 mu0=0 mu=( 0  0 )
n=( 5  7 )
l=( 0  0 )
num_ms=1
< 0  0 >:  -0.00012758089317393878
ctilde_basis_func: rank=2 ndens=1 mu0=0 mu=( 0  0 )
n=( 2  10 )
l=( 1  1 )
num_ms=3
< -1  1 >:  3.391830198271129e-5
< 0  0 >:  -3.391830198271129e-5
< 1  -1 >:  3.391830198271129e-5
ctilde_basis_func: rank=2 ndens=1 mu0=0 mu=( 0  0 )
n=( 6  6 )
l=( 0  0 )
num_ms=1
< 0  0 >:  -0.0002199259557827156
ctilde_basis_func: rank=2 ndens=1 mu0=0 mu=( 0  0 )
n=( 5  6 )
l=( 2  2 )
num_ms=5
< -2  2 >:  -0.00016418800582201882
< -1  1 >:  0.00016418800582201882
< 0  0 >:  -0.00016418800582201882
< 1  -1 >:  0.00016418800582201882
< 2  -2 >:  -0.00016418800582201882
ctilde_basis_func: rank=2 ndens=1 mu0=0 mu=( 0  0 )
n=( 1  9 )
l=( 2  2 )
num_ms=5
< -2  2 >:  2.156332686579101e-5
< -1  1 >:  -2.156332686579101e-5
< 0  0 >:  2.156332686579101e-5
< 1  -1 >:  -2.156332686579101e-5
< 2  -2 >:  2.156332686579101e-5
ctilde_basis_func: rank=2 ndens=1 mu0=0 mu=( 0  0 )
n=( 7  8 )
l=( 0  0 )
num_ms=1
< 0  0 >:  4.378353074906592e-5
ctilde_basis_func: rank=2 ndens=1 mu0=0 mu=( 0  0 )
n=( 5  11 )
l=( 0  0 )
num_ms=1
< 0  0 >:  1.4509344311207639e-5
ctilde_basis_func: rank=2 ndens=1 mu0=0 mu=( 0  0 )
n=( 2  8 )
l=( 2  2 )
num_ms=5
< -2  2 >:  0.00015587091668604666
< -1  1 >:  -0.00015587091668604666
< 0  0 >:  0.00015587091668604666
< 1  -1 >:  -0.00015587091668604666
< 2  -2 >:  0.00015587091668604666
ctilde_basis_func: rank=2 ndens=1 mu0=0 mu=( 0  0 )
n=( 4  8 )
l=( 3  3 )
num_ms=7
< -3  3 >:  4.160303872495097e-5
< -2  2 >:  -4.160303872495097e-5
< -1  1 >:  4.160303872495097e-5
< 0  0 >:  -4.160303872495097e-5
< 1  -1 >:  4.160303872495097e-5
< 2  -2 >:  -4.160303872495097e-5
< 3  -3 >:  4.160303872495097e-5
ctilde_basis_func: rank=2 ndens=1 mu0=0 mu=( 0  0 )
n=( 3  8 )
l=( 1  1 )
num_ms=3
< -1  1 >:  -4.486230470436107e-5
< 0  0 >:  4.486230470436107e-5
< 1  -1 >:  -4.486230470436107e-5
ctilde_basis_func: rank=2 ndens=1 mu0=0 mu=( 0  0 )
n=( 7  10 )
l=( 1  1 )
num_ms=3
< -1  1 >:  5.423150181003837e-5
< 0  0 >:  -5.423150181003837e-5
< 1  -1 >:  5.423150181003837e-5
ctilde_basis_func: rank=2 ndens=1 mu0=0 mu=( 0  0 )
n=( 9  9 )
l=( 1  1 )
num_ms=2
< -1  1 >:  3.668861336008247e-5
< 0  0 >:  -1.8344306680041235e-5
ctilde_basis_func: rank=2 ndens=1 mu0=0 mu=( 0  0 )
n=( 1  7 )
l=( 3  3 )
num_ms=7
< -3  3 >:  0.00019893438173194732
< -2  2 >:  -0.00019893438173194732
< -1  1 >:  0.00019893438173194732
< 0  0 >:  -0.00019893438173194732
< 1  -1 >:  0.00019893438173194732
< 2  -2 >:  -0.00019893438173194732
< 3  -3 >:  0.00019893438173194732
ctilde_basis_func: rank=2 ndens=1 mu0=0 mu=( 0  0 )
n=( 4  6 )
l=( 1  1 )
num_ms=3
< -1  1 >:  0.0002552527249569235
< 0  0 >:  -0.0002552527249569235
< 1  -1 >:  0.0002552527249569235
ctilde_basis_func: rank=2 ndens=1 mu0=0 mu=( 0  0 )
n=( 2  5 )
l=( 3  3 )
num_ms=7
< -3  3 >:  0.0003914376554263476
< -2  2 >:  -0.0003914376554263476
< -1  1 >:  0.0003914376554263476
< 0  0 >:  -0.0003914376554263476
< 1  -1 >:  0.0003914376554263476
< 2  -2 >:  -0.0003914376554263476
< 3  -3 >:  0.0003914376554263476
ctilde_basis_func: rank=2 ndens=1 mu0=0 mu=( 0  0 )
n=( 5  11 )
l=( 1  1 )
num_ms=3
< -1  1 >:  -6.626676608782913e-6
< 0  0 >:  6.626676608782913e-6
< 1  -1 >:  -6.626676608782913e-6
ctilde_basis_func: rank=2 ndens=1 mu0=0 mu=( 0  0 )
n=( 2  2 )
l=( 1  1 )
num_ms=2
< -1  1 >:  0.004378934259858893
< 0  0 >:  -0.0021894671299294466
ctilde_basis_func: rank=2 ndens=1 mu0=0 mu=( 0  0 )
n=( 8  10 )
l=( 1  1 )
num_ms=3
< -1  1 >:  1.267821755337495e-5
< 0  0 >:  -1.267821755337495e-5
< 1  -1 >:  1.267821755337495e-5
ctilde_basis_func: rank=2 ndens=1 mu0=0 mu=( 0  0 )
n=( 1  6 )
l=( 2  2 )
num_ms=5
< -2  2 >:  0.00015858138226037107
< -1  1 >:  -0.00015858138226037107
< 0  0 >:  0.00015858138226037107
< 1  -1 >:  -0.00015858138226037107
< 2  -2 >:  0.00015858138226037107
ctilde_basis_func: rank=2 ndens=1 mu0=0 mu=( 0  0 )
n=( 2  3 )
l=( 3  3 )
num_ms=7
< -3  3 >:  0.00010925028460355612
< -2  2 >:  -0.00010925028460355612
< -1  1 >:  0.00010925028460355612
< 0  0 >:  -0.00010925028460355612
< 1  -1 >:  0.00010925028460355612
< 2  -2 >:  -0.00010925028460355612
< 3  -3 >:  0.00010925028460355612
ctilde_basis_func: rank=2 ndens=1 mu0=0 mu=( 0  0 )
n=( 3  3 )
l=( 5  5 )
num_ms=6
< -5  5 >:  9.016379125016388e-5
< -4  4 >:  -9.01637912501639e-5
< -3  3 >:  9.01637912501639e-5
< -2  2 >:  -9.01637912501639e-5
< -1  1 >:  9.01637912501639e-5
< 0  0 >:  -4.508189562508195e-5
ctilde_basis_func: rank=2 ndens=1 mu0=0 mu=( 0  0 )
n=( 6  8 )
l=( 2  2 )
num_ms=5
< -2  2 >:  -0.0001657072490555129
< -1  1 >:  0.0001657072490555129
< 0  0 >:  -0.0001657072490555129
< 1  -1 >:  0.0001657072490555129
< 2  -2 >:  -0.0001657072490555129
ctilde_basis_func: rank=2 ndens=1 mu0=0 mu=( 0  0 )
n=( 1  1 )
l=( 4  4 )
num_ms=5
< -4  4 >:  -5.8295247049799485e-5
< -3  3 >:  5.829524704979948e-5
< -2  2 >:  -5.829524704979948e-5
< -1  1 >:  5.829524704979948e-5
< 0  0 >:  -2.914762352489974e-5
ctilde_basis_func: rank=2 ndens=1 mu0=0 mu=( 0  0 )
n=( 3  9 )
l=( 2  2 )
num_ms=5
< -2  2 >:  2.1171190784369535e-5
< -1  1 >:  -2.1171190784369535e-5
< 0  0 >:  2.1171190784369535e-5
< 1  -1 >:  -2.1171190784369535e-5
< 2  -2 >:  2.1171190784369535e-5
ctilde_basis_func: rank=2 ndens=1 mu0=0 mu=( 0  0 )
n=( 1  1 )
l=( 2  2 )
num_ms=3
< -2  2 >:  -0.0006577194170085248
< -1  1 >:  0.0006577194170085248
< 0  0 >:  -0.0003288597085042624
ctilde_basis_func: rank=2 ndens=1 mu0=0 mu=( 0  0 )
n=( 7  13 )
l=( 0  0 )
num_ms=1
< 0  0 >:  8.03834397323536e-6
ctilde_basis_func: rank=2 ndens=1 mu0=0 mu=( 0  0 )
n=( 3  10 )
l=( 1  1 )
num_ms=3
< -1  1 >:  -9.81572403437071e-5
< 0  0 >:  9.81572403437071e-5
< 1  -1 >:  -9.81572403437071e-5
ctilde_basis_func: rank=2 ndens=1 mu0=0 mu=( 0  0 )
n=( 2  9 )
l=( 2  2 )
num_ms=5
< -2  2 >:  4.184390998372509e-5
< -1  1 >:  -4.184390998372509e-5
< 0  0 >:  4.184390998372509e-5
< 1  -1 >:  -4.184390998372509e-5
< 2  -2 >:  4.184390998372509e-5
ctilde_basis_func: rank=2 ndens=1 mu0=0 mu=( 0  0 )
n=( 2  3 )
l=( 2  2 )
num_ms=5
< -2  2 >:  3.701654866727919e-5
< -1  1 >:  -3.701654866727919e-5
< 0  0 >:  3.701654866727919e-5
< 1  -1 >:  -3.701654866727919e-5
< 2  -2 >:  3.701654866727919e-5
ctilde_basis_func: rank=2 ndens=1 mu0=0 mu=( 0  0 )
n=( 5  15 )
l=( 0  0 )
num_ms=1
< 0  0 >:  -5.8969222618124256e-5
ctilde_basis_func: rank=2 ndens=1 mu0=0 mu=( 0  0 )
n=( 4  4 )
l=( 2  2 )
num_ms=3
< -2  2 >:  8.144806616970178e-5
< -1  1 >:  -8.144806616970178e-5
< 0  0 >:  4.072403308485089e-5
ctilde_basis_func: rank=2 ndens=1 mu0=0 mu=( 0  0 )
n=( 1  4 )
l=( 1  1 )
num_ms=3
< -1  1 >:  -0.0010965097192852757
< 0  0 >:  0.0010965097192852757
< 1  -1 >:  -0.0010965097192852757
ctilde_basis_func: rank=2 ndens=1 mu0=0 mu=( 0  0 )
n=( 6  10 )
l=( 0  0 )
num_ms=1
< 0  0 >:  -3.698123170984605e-5
ctilde_basis_func: rank=2 ndens=1 mu0=0 mu=( 0  0 )
n=( 5  10 )
l=( 2  2 )
num_ms=5
< -2  2 >:  9.840037425341649e-5
< -1  1 >:  -9.840037425341649e-5
< 0  0 >:  9.840037425341649e-5
< 1  -1 >:  -9.840037425341649e-5
< 2  -2 >:  9.840037425341649e-5
ctilde_basis_func: rank=2 ndens=1 mu0=0 mu=( 0  0 )
n=( 3  7 )
l=( 0  0 )
num_ms=1
< 0  0 >:  -0.00021631181774959984
ctilde_basis_func: rank=2 ndens=1 mu0=0 mu=( 0  0 )
n=( 3  8 )
l=( 2  2 )
num_ms=5
< -2  2 >:  -0.00022926459846822264
< -1  1 >:  0.00022926459846822264
< 0  0 >:  -0.00022926459846822264
< 1  -1 >:  0.00022926459846822264
< 2  -2 >:  -0.00022926459846822264
ctilde_basis_func: rank=2 ndens=1 mu0=0 mu=( 0  0 )
n=( 2  18 )
l=( 0  0 )
num_ms=1
< 0  0 >:  4.443882529703619e-5
ctilde_basis_func: rank=2 ndens=1 mu0=0 mu=( 0  0 )
n=( 5  5 )
l=( 0  0 )
num_ms=1
< 0  0 >:  -0.00015918067886704337
ctilde_basis_func: rank=2 ndens=1 mu0=0 mu=( 0  0 )
n=( 6  15 )
l=( 0  0 )
num_ms=1
< 0  0 >:  1.2352641692641765e-5
ctilde_basis_func: rank=2 ndens=1 mu0=0 mu=( 0  0 )
n=( 6  8 )
l=( 1  1 )
num_ms=3
< -1  1 >:  -7.927456526986222e-7
< 0  0 >:  7.927456526986222e-7
< 1  -1 >:  -7.927456526986222e-7
ctilde_basis_func: rank=2 ndens=1 mu0=0 mu=( 0  0 )
n=( 5  7 )
l=( 2  2 )
num_ms=5
< -2  2 >:  0.00021857200393289594
< -1  1 >:  -0.00021857200393289594
< 0  0 >:  0.00021857200393289594
< 1  -1 >:  -0.00021857200393289594
< 2  -2 >:  0.00021857200393289594
ctilde_basis_func: rank=2 ndens=1 mu0=0 mu=( 0  0 )
n=( 4  6 )
l=( 2  2 )
num_ms=5
< -2  2 >:  0.00012197024613496153
< -1  1 >:  -0.00012197024613496153
< 0  0 >:  0.00012197024613496153
< 1  -1 >:  -0.00012197024613496153
< 2  -2 >:  0.00012197024613496153
ctilde_basis_func: rank=2 ndens=1 mu0=0 mu=( 0  0 )
n=( 3  7 )
l=( 2  2 )
num_ms=5
< -2  2 >:  0.00014459553994448002
< -1  1 >:  -0.00014459553994448002
< 0  0 >:  0.00014459553994448002
< 1  -1 >:  -0.00014459553994448002
< 2  -2 >:  0.00014459553994448002
ctilde_basis_func: rank=2 ndens=1 mu0=0 mu=( 0  0 )
n=( 8  13 )
l=( 0  0 )
num_ms=1
< 0  0 >:  1.0564073065775533e-5
ctilde_basis_func: rank=2 ndens=1 mu0=0 mu=( 0  0 )
n=( 1  7 )
l=( 0  0 )
num_ms=1
< 0  0 >:  -2.005404580306025e-5
ctilde_basis_func: rank=2 ndens=1 mu0=0 mu=( 0  0 )
n=( 1  8 )
l=( 1  1 )
num_ms=3
< -1  1 >:  -0.00020104882807998428
< 0  0 >:  0.00020104882807998428
< 1  -1 >:  -0.00020104882807998428
ctilde_basis_func: rank=2 ndens=1 mu0=0 mu=( 0  0 )
n=( 2  15 )
l=( 0  0 )
num_ms=1
< 0  0 >:  1.396508629216529e-6
ctilde_basis_func: rank=2 ndens=1 mu0=0 mu=( 0  0 )
n=( 4  4 )
l=( 0  0 )
num_ms=1
< 0  0 >:  1.4558000169804316e-5
ctilde_basis_func: rank=2 ndens=1 mu0=0 mu=( 0  0 )
n=( 1  15 )
l=( 0  0 )
num_ms=1
< 0  0 >:  -8.145863504852116e-6
ctilde_basis_func: rank=2 ndens=1 mu0=0 mu=( 0  0 )
n=( 1  16 )
l=( 1  1 )
num_ms=3
< -1  1 >:  -3.0248427645284624e-5
< 0  0 >:  3.0248427645284624e-5
< 1  -1 >:  -3.0248427645284624e-5
ctilde_basis_func: rank=2 ndens=1 mu0=0 mu=( 0  0 )
n=( 5  7 )
l=( 1  1 )
num_ms=3
< -1  1 >:  0.0001462237126971768
< 0  0 >:  -0.0001462237126971768
< 1  -1 >:  0.0001462237126971768
ctilde_basis_func: rank=2 ndens=1 mu0=0 mu=( 0  0 )
n=( 4  9 )
l=( 0  0 )
num_ms=1
< 0  0 >:  -9.428980710973743e-5
ctilde_basis_func: rank=2 ndens=1 mu0=0 mu=( 0  0 )
n=( 1  13 )
l=( 0  0 )
num_ms=1
< 0  0 >:  -1.1026837009776722e-5
ctilde_basis_func: rank=2 ndens=1 mu0=0 mu=( 0  0 )
n=( 5  6 )
l=( 0  0 )
num_ms=1
< 0  0 >:  -2.0099284499086726e-5
ctilde_basis_func: rank=2 ndens=1 mu0=0 mu=( 0  0 )
n=( 7  9 )
l=( 0  0 )
num_ms=1
< 0  0 >:  7.282980701008546e-6
ctilde_basis_func: rank=2 ndens=1 mu0=0 mu=( 0  0 )
n=( 4  5 )
l=( 2  2 )
num_ms=5
< -2  2 >:  0.00037795805551131615
< -1  1 >:  -0.00037795805551131615
< 0  0 >:  0.00037795805551131615
< 1  -1 >:  -0.00037795805551131615
< 2  -2 >:  0.00037795805551131615
ctilde_basis_func: rank=2 ndens=1 mu0=0 mu=( 0  0 )
n=( 5  5 )
l=( 1  1 )
num_ms=2
< -1  1 >:  0.0003008004488522922
< 0  0 >:  -0.0001504002244261461
ctilde_basis_func: rank=2 ndens=1 mu0=0 mu=( 0  0 )
n=( 3  11 )
l=( 0  0 )
num_ms=1
< 0  0 >:  -1.3660102924744241e-5
ctilde_basis_func: rank=2 ndens=1 mu0=0 mu=( 0  0 )
n=( 1  17 )
l=( 1  1 )
num_ms=3
< -1  1 >:  4.000056518756246e-5
< 0  0 >:  -4.000056518756246e-5
< 1  -1 >:  4.000056518756246e-5
ctilde_basis_func: rank=2 ndens=1 mu0=0 mu=( 0  0 )
n=( 3  3 )
l=( 0  0 )
num_ms=1
< 0  0 >:  0.0006073182595706283
ctilde_basis_func: rank=2 ndens=1 mu0=0 mu=( 0  0 )
n=( 8  9 )
l=( 0  0 )
num_ms=1
< 0  0 >:  9.700562586511286e-6
ctilde_basis_func: rank=2 ndens=1 mu0=0 mu=( 0  0 )
n=( 3  11 )
l=( 2  2 )
num_ms=5
< -2  2 >:  -1.2003091350893692e-5
< -1  1 >:  1.2003091350893692e-5
< 0  0 >:  -1.2003091350893692e-5
< 1  -1 >:  1.2003091350893692e-5
< 2  -2 >:  -1.2003091350893692e-5
ctilde_basis_func: rank=2 ndens=1 mu0=0 mu=( 0  0 )
n=( 3  18 )
l=( 0  0 )
num_ms=1
< 0  0 >:  -1.477164399478372e-5
ctilde_basis_func: rank=2 ndens=1 mu0=0 mu=( 0  0 )
n=( 1  2 )
l=( 1  1 )
num_ms=3
< -1  1 >:  0.0004747873883167256
< 0  0 >:  -0.0004747873883167256
< 1  -1 >:  0.0004747873883167256
ctilde_basis_func: rank=2 ndens=1 mu0=0 mu=( 0  0 )
n=( 5  5 )
l=( 3  3 )
num_ms=4
< -3  3 >:  0.0009896973104272136
< -2  2 >:  -0.0009896973104272136
< -1  1 >:  0.0009896973104272136
< 0  0 >:  -0.0004948486552136068
ctilde_basis_func: rank=2 ndens=1 mu0=0 mu=( 0  0 )
n=( 4  13 )
l=( 0  0 )
num_ms=1
< 0  0 >:  -1.2947763243027475e-5
ctilde_basis_func: rank=2 ndens=1 mu0=0 mu=( 0  0 )
n=( 2  16 )
l=( 1  1 )
num_ms=3
< -1  1 >:  -6.748494107241636e-5
< 0  0 >:  6.748494107241636e-5
< 1  -1 >:  -6.748494107241636e-5
ctilde_basis_func: rank=2 ndens=1 mu0=0 mu=( 0  0 )
n=( 6  10 )
l=( 1  1 )
num_ms=3
< -1  1 >:  -3.6493491798729146e-5
< 0  0 >:  3.6493491798729146e-5
< 1  -1 >:  -3.6493491798729146e-5
ctilde_basis_func: rank=2 ndens=1 mu0=0 mu=( 0  0 )
n=( 3  3 )
l=( 2  2 )
num_ms=3
< -2  2 >:  -0.002142039736955787
< -1  1 >:  0.002142039736955787
< 0  0 >:  -0.0010710198684778934
ctilde_basis_func: rank=2 ndens=1 mu0=0 mu=( 0  0 )
n=( 2  4 )
l=( 0  0 )
num_ms=1
< 0  0 >:  0.0006299635506217992
ctilde_basis_func: rank=2 ndens=1 mu0=0 mu=( 0  0 )
n=( 3  13 )
l=( 1  1 )
num_ms=3
< -1  1 >:  1.1755045365024942e-5
< 0  0 >:  -1.1755045365024942e-5
< 1  -1 >:  1.1755045365024942e-5
ctilde_basis_func: rank=2 ndens=1 mu0=0 mu=( 0  0 )
n=( 2  7 )
l=( 1  1 )
num_ms=3
< -1  1 >:  -0.0001228814940174829
< 0  0 >:  0.0001228814940174829
< 1  -1 >:  -0.0001228814940174829
ctilde_basis_func: rank=2 ndens=1 mu0=0 mu=( 0  0 )
n=( 1  2 )
l=( 2  2 )
num_ms=5
< -2  2 >:  1.6784839976883978e-5
< -1  1 >:  -1.6784839976883978e-5
< 0  0 >:  1.6784839976883978e-5
< 1  -1 >:  -1.6784839976883978e-5
< 2  -2 >:  1.6784839976883978e-5
ctilde_basis_func: rank=2 ndens=1 mu0=0 mu=( 0  0 )
n=( 5  5 )
l=( 2  2 )
num_ms=3
< -2  2 >:  -0.00011358529988459307
< -1  1 >:  0.00011358529988459307
< 0  0 >:  -5.679264994229654e-5
ctilde_basis_func: rank=2 ndens=1 mu0=0 mu=( 0  0 )
n=( 1  5 )
l=( 0  0 )
num_ms=1
< 0  0 >:  0.00022718290740938532
ctilde_basis_func: rank=2 ndens=1 mu0=0 mu=( 0  0 )
n=( 1  9 )
l=( 0  0 )
num_ms=1
< 0  0 >:  4.323236869994916e-5
ctilde_basis_func: rank=2 ndens=1 mu0=0 mu=( 0  0 )
n=( 4  4 )
l=( 3  3 )
num_ms=4
< -3  3 >:  -0.0006358675981930978
< -2  2 >:  0.0006358675981930978
< -1  1 >:  -0.0006358675981930978
< 0  0 >:  0.0003179337990965489
ctilde_basis_func: rank=2 ndens=1 mu0=0 mu=( 0  0 )
n=( 7  12 )
l=( 0  0 )
num_ms=1
< 0  0 >:  6.108458365616085e-5
ctilde_basis_func: rank=2 ndens=1 mu0=0 mu=( 0  0 )
n=( 2  9 )
l=( 1  1 )
num_ms=3
< -1  1 >:  -8.141481977160698e-5
< 0  0 >:  8.141481977160698e-5
< 1  -1 >:  -8.141481977160698e-5
ctilde_basis_func: rank=2 ndens=1 mu0=0 mu=( 0  0 )
n=( 8  12 )
l=( 0  0 )
num_ms=1
< 0  0 >:  5.823603741743933e-5
ctilde_basis_func: rank=2 ndens=1 mu0=0 mu=( 0  0 )
n=( 4  8 )
l=( 0  0 )
num_ms=1
< 0  0 >:  -8.654544129104508e-7
ctilde_basis_func: rank=2 ndens=1 mu0=0 mu=( 0  0 )
n=( 4  7 )
l=( 0  0 )
num_ms=1
< 0  0 >:  5.150987088124759e-5
ctilde_basis_func: rank=2 ndens=1 mu0=0 mu=( 0  0 )
n=( 1  19 )
l=( 0  0 )
num_ms=1
< 0  0 >:  -2.181389588277736e-5
ctilde_basis_func: rank=2 ndens=1 mu0=0 mu=( 0  0 )
n=( 5  16 )
l=( 0  0 )
num_ms=1
< 0  0 >:  -9.733072944099166e-6
ctilde_basis_func: rank=2 ndens=1 mu0=0 mu=( 0  0 )
n=( 9  12 )
l=( 0  0 )
num_ms=1
< 0  0 >:  -9.896489522936492e-6
ctilde_basis_func: rank=2 ndens=1 mu0=0 mu=( 0  0 )
n=( 3  15 )
l=( 0  0 )
num_ms=1
< 0  0 >:  -4.482774225690118e-5
ctilde_basis_func: rank=2 ndens=1 mu0=0 mu=( 0  0 )
n=( 6  6 )
l=( 1  1 )
num_ms=2
< -1  1 >:  0.0006330161684761338
< 0  0 >:  -0.0003165080842380669
ctilde_basis_func: rank=2 ndens=1 mu0=0 mu=( 0  0 )
n=( 3  5 )
l=( 1  1 )
num_ms=3
< -1  1 >:  -0.0003083801228656374
< 0  0 >:  0.0003083801228656374
< 1  -1 >:  -0.0003083801228656374
ctilde_basis_func: rank=2 ndens=1 mu0=0 mu=( 0  0 )
n=( 2  6 )
l=( 0  0 )
num_ms=1
< 0  0 >:  -0.00011230229165682385
ctilde_basis_func: rank=2 ndens=1 mu0=0 mu=( 0  0 )
n=( 9  11 )
l=( 0  0 )
num_ms=1
< 0  0 >:  3.62972525172174e-5
ctilde_basis_func: rank=2 ndens=1 mu0=0 mu=( 0  0 )
n=( 3  5 )
l=( 0  0 )
num_ms=1
< 0  0 >:  0.00017180824735563678
ctilde_basis_func: rank=2 ndens=1 mu0=0 mu=( 0  0 )
n=( 1  10 )
l=( 0  0 )
num_ms=1
< 0  0 >:  -8.154780473979928e-5
ctilde_basis_func: rank=2 ndens=1 mu0=0 mu=( 0  0 )
n=( 7  11 )
l=( 0  0 )
num_ms=1
< 0  0 >:  -5.564745953002298e-5
ctilde_basis_func: rank=2 ndens=1 mu0=0 mu=( 0  0 )
n=( 1  16 )
l=( 0  0 )
num_ms=1
< 0  0 >:  -4.0532671339832376e-5
ctilde_basis_func: rank=2 ndens=1 mu0=0 mu=( 0  0 )
n=( 3  3 )
l=( 1  1 )
num_ms=2
< -1  1 >:  0.0008624155415101826
< 0  0 >:  -0.0004312077707550913
ctilde_basis_func: rank=2 ndens=1 mu0=0 mu=( 0  0 )
n=( 6  8 )
l=( 0  0 )
num_ms=1
< 0  0 >:  -7.241340112060713e-5
ctilde_basis_func: rank=2 ndens=1 mu0=0 mu=( 0  0 )
n=( 2  14 )
l=( 0  0 )
num_ms=1
< 0  0 >:  1.022069088359264e-5
ctilde_basis_func: rank=2 ndens=1 mu0=0 mu=( 0  0 )
n=( 6  7 )
l=( 0  0 )
num_ms=1
< 0  0 >:  0.00010219125123995785
ctilde_basis_func: rank=2 ndens=1 mu0=0 mu=( 0  0 )
n=( 1  2 )
l=( 0  0 )
num_ms=1
< 0  0 >:  -0.0012417617777097675
ctilde_basis_func: rank=2 ndens=1 mu0=0 mu=( 0  0 )
n=( 7  7 )
l=( 0  0 )
num_ms=1
< 0  0 >:  -0.00011894368425281537
ctilde_basis_func: rank=2 ndens=1 mu0=0 mu=( 0  0 )
n=( 2  5 )
l=( 0  0 )
num_ms=1
< 0  0 >:  7.535027795828878e-5
ctilde_basis_func: rank=2 ndens=1 mu0=0 mu=( 0  0 )
n=( 4  6 )
l=( 0  0 )
num_ms=1
< 0  0 >:  2.988811717379597e-5
ctilde_basis_func: rank=2 ndens=1 mu0=0 mu=( 0  0 )
n=( 6  9 )
l=( 0  0 )
num_ms=1
< 0  0 >:  3.81228698943072e-5
ctilde_basis_func: rank=2 ndens=1 mu0=0 mu=( 0  0 )
n=( 4  12 )
l=( 0  0 )
num_ms=1
< 0  0 >:  2.1189865284718446e-5
ctilde_basis_func: rank=2 ndens=1 mu0=0 mu=( 0  0 )
n=( 10  11 )
l=( 0  0 )
num_ms=1
< 0  0 >:  4.112222483692346e-5
ctilde_basis_func: rank=2 ndens=1 mu0=0 mu=( 0  0 )
n=( 5  13 )
l=( 0  0 )
num_ms=1
< 0  0 >:  -3.266070137540384e-5
ctilde_basis_func: rank=2 ndens=1 mu0=0 mu=( 0  0 )
n=( 3  14 )
l=( 0  0 )
num_ms=1
< 0  0 >:  -4.877518346543519e-5
ctilde_basis_func: rank=2 ndens=1 mu0=0 mu=( 0  0 )
n=( 5  12 )
l=( 0  0 )
num_ms=1
< 0  0 >:  -3.840395842462193e-5
ctilde_basis_func: rank=2 ndens=1 mu0=0 mu=( 0  0 )
n=( 4  5 )
l=( 0  0 )
num_ms=1
< 0  0 >:  0.00010972614656899663
ctilde_basis_func: rank=2 ndens=1 mu0=0 mu=( 0  0 )
n=( 1  11 )
l=( 0  0 )
num_ms=1
< 0  0 >:  2.162209062492301e-5
ctilde_basis_func: rank=2 ndens=1 mu0=0 mu=( 0  0 )
n=( 2  11 )
l=( 0  0 )
num_ms=1
< 0  0 >:  -9.293791598283522e-7
ctilde_basis_func: rank=2 ndens=1 mu0=0 mu=( 0  0 )
n=( 3  16 )
l=( 0  0 )
num_ms=1
< 0  0 >:  -6.11519896486179e-5
ctilde_basis_func: rank=2 ndens=1 mu0=0 mu=( 0  0 )
n=( 8  11 )
l=( 0  0 )
num_ms=1
< 0  0 >:  3.71181114852579e-5
ctilde_basis_func: rank=2 ndens=1 mu0=0 mu=( 0  0 )
n=( 2  15 )
l=( 1  1 )
num_ms=3
< -1  1 >:  -3.9227411753517535e-5
< 0  0 >:  3.9227411753517535e-5
< 1  -1 >:  -3.9227411753517535e-5
ctilde_basis_func: rank=2 ndens=1 mu0=0 mu=( 0  0 )
n=( 6  13 )
l=( 0  0 )
num_ms=1
< 0  0 >:  3.784144584737449e-5
ctilde_basis_func: rank=2 ndens=1 mu0=0 mu=( 0  0 )
n=( 6  11 )
l=( 0  0 )
num_ms=1
< 0  0 >:  2.6614609325205187e-5
ctilde_basis_func: rank=2 ndens=1 mu0=0 mu=( 0  0 )
n=( 1  1 )
l=( 0  0 )
num_ms=1
< 0  0 >:  0.022828859406904167
ctilde_basis_func: rank=2 ndens=1 mu0=0 mu=( 0  0 )
n=( 4  17 )
l=( 0  0 )
num_ms=1
< 0  0 >:  -2.853993050150377e-5
ctilde_basis_func: rank=2 ndens=1 mu0=0 mu=( 0  0 )
n=( 1  12 )
l=( 0  0 )
num_ms=1
< 0  0 >:  -5.6227379111092266e-5
ctilde_basis_func: rank=2 ndens=1 mu0=0 mu=( 0  0 )
n=( 2  3 )
l=( 0  0 )
num_ms=1
< 0  0 >:  -0.0021321313495763572
ctilde_basis_func: rank=2 ndens=1 mu0=0 mu=( 0  0 )
n=( 2  9 )
l=( 0  0 )
num_ms=1
< 0  0 >:  3.000513962292809e-5
ctilde_basis_func: rank=2 ndens=1 mu0=0 mu=( 0  0 )
n=( 2  17 )
l=( 0  0 )
num_ms=1
< 0  0 >:  1.793264365172855e-5
ctilde_basis_func: rank=2 ndens=1 mu0=0 mu=( 0  0 )
n=( 1  3 )
l=( 0  0 )
num_ms=1
< 0  0 >:  0.000978910750476064
ctilde_basis_func: rank=2 ndens=1 mu0=0 mu=( 0  0 )
n=( 2  13 )
l=( 0  0 )
num_ms=1
< 0  0 >:  1.8343983354668422e-5
ctilde_basis_func: rank=2 ndens=1 mu0=0 mu=( 0  0 )
n=( 1  1 )
l=( 1  1 )
num_ms=2
< -1  1 >:  0.004506466199600902
< 0  0 >:  -0.002253233099800451
ctilde_basis_func: rank=2 ndens=1 mu0=0 mu=( 0  0 )
n=( 2  10 )
l=( 0  0 )
num_ms=1
< 0  0 >:  6.978610564633991e-6
ctilde_basis_func: rank=2 ndens=1 mu0=0 mu=( 0  0 )
n=( 3  6 )
l=( 0  0 )
num_ms=1
< 0  0 >:  -0.0001814520486387687
ctilde_basis_func: rank=2 ndens=1 mu0=0 mu=( 0  0 )
n=( 3  17 )
l=( 0  0 )
num_ms=1
< 0  0 >:  -5.3600042443431184e-5
ctilde_basis_func: rank=2 ndens=1 mu0=0 mu=( 0  0 )
n=( 1  8 )
l=( 0  0 )
num_ms=1
< 0  0 >:  -5.135364127207035e-5
ctilde_basis_func: rank=2 ndens=1 mu0=0 mu=( 0  0 )
n=( 2  19 )
l=( 0  0 )
num_ms=1
< 0  0 >:  2.1570220535517066e-5
ctilde_basis_func: rank=2 ndens=1 mu0=0 mu=( 0  0 )
n=( 1  17 )
l=( 0  0 )
num_ms=1
< 0  0 >:  -2.5576414599139648e-5
ctilde_basis_func: rank=2 ndens=1 mu0=0 mu=( 0  0 )
n=( 9  9 )
l=( 0  0 )
num_ms=1
< 0  0 >:  -1.0639006313498331e-5
ctilde_basis_func: rank=2 ndens=1 mu0=0 mu=( 0  0 )
n=( 8  10 )
l=( 0  0 )
num_ms=1
< 0  0 >:  -6.485881248346464e-5
ctilde_basis_func: rank=2 ndens=1 mu0=0 mu=( 0  0 )
n=( 1  20 )
l=( 0  0 )
num_ms=1
< 0  0 >:  -4.0193914541982325e-6
ctilde_basis_func: rank=2 ndens=1 mu0=0 mu=( 0  0 )
n=( 2  7 )
l=( 0  0 )
num_ms=1
< 0  0 >:  0.0003068999259572321
ctilde_basis_func: rank=2 ndens=1 mu0=0 mu=( 0  0 )
n=( 1  14 )
l=( 0  0 )
num_ms=1
< 0  0 >:  -2.0089816336724788e-5
ctilde_basis_func: rank=2 ndens=1 mu0=0 mu=( 0  0 )
n=( 4  10 )
l=( 0  0 )
num_ms=1
< 0  0 >:  3.0858675187649526e-5
ctilde_basis_func: rank=2 ndens=1 mu0=0 mu=( 0  0 )
n=( 3  8 )
l=( 0  0 )
num_ms=1
< 0  0 >:  2.7026942874837317e-5
ctilde_basis_func: rank=2 ndens=1 mu0=0 mu=( 0  0 )
n=( 3  10 )
l=( 0  0 )
num_ms=1
< 0  0 >:  -6.002753230137336e-5
ctilde_basis_func: rank=2 ndens=1 mu0=0 mu=( 0  0 )
n=( 3  4 )
l=( 0  0 )
num_ms=1
< 0  0 >:  -0.0007474730830413795
ctilde_basis_func: rank=3 ndens=1 mu0=0 mu=( 0  0  0 )
n=( 2  5  7 )
l=( 2  2  0 )
num_ms=5
< -2  2  0 >:  -7.998741714102945e-6
< -1  1  0 >:  7.998741714102945e-6
< 0  0  0 >:  -7.998741714102945e-6
< 1  -1  0 >:  7.998741714102945e-6
< 2  -2  0 >:  -7.998741714102945e-6
ctilde_basis_func: rank=3 ndens=1 mu0=0 mu=( 0  0  0 )
n=( 1  2  8 )
l=( 0  2  2 )
num_ms=5
< 0  -2  2 >:  2.2212026741635602e-5
< 0  -1  1 >:  -2.2212026741635595e-5
< 0  0  0 >:  2.2212026741635595e-5
< 0  1  -1 >:  -2.2212026741635595e-5
< 0  2  -2 >:  2.2212026741635595e-5
ctilde_basis_func: rank=3 ndens=1 mu0=0 mu=( 0  0  0 )
n=( 3  6  8 )
l=( 1  0  1 )
num_ms=3
< -1  0  1 >:  1.8893254300322015e-5
< 0  0  0 >:  -1.8893254300322015e-5
< 1  0  -1 >:  1.8893254300322015e-5
ctilde_basis_func: rank=3 ndens=1 mu0=0 mu=( 0  0  0 )
n=( 1  2  3 )
l=( 1  4  3 )
num_ms=21
< -1  -2  3 >:  -1.6767998491813544e-6
< -1  -1  2 >:  2.904302532905936e-6
< -1  0  1 >:  -4.107304031270107e-6
< -1  1  0 >:  5.302506703639904e-6
< -1  2  -1 >:  -6.494217890802493e-6
< -1  3  -2 >:  7.684062234164094e-6
< -1  4  -3 >:  -8.872790798728952e-6
< 0  -3  3 >:  4.436395399364476e-6
< 0  -2  2 >:  -5.808605065811872e-6
< 0  -1  1 >:  6.494217890802493e-6
< 0  0  0 >:  -6.7071993967254175e-6
< 0  1  -1 >:  6.494217890802493e-6
< 0  2  -2 >:  -5.808605065811872e-6
< 0  3  -3 >:  4.436395399364476e-6
< 1  -4  3 >:  -8.872790798728956e-6
< 1  -3  2 >:  7.684062234164094e-6
< 1  -2  1 >:  -6.494217890802493e-6
< 1  -1  0 >:  5.302506703639904e-6
< 1  0  -1 >:  -4.107304031270107e-6
< 1  1  -2 >:  2.904302532905936e-6
< 1  2  -3 >:  -1.6767998491813544e-6
ctilde_basis_func: rank=3 ndens=1 mu0=0 mu=( 0  0  0 )
n=( 1  3  6 )
l=( 0  3  3 )
num_ms=7
< 0  -3  3 >:  -7.634888520921876e-5
< 0  -2  2 >:  7.634888520921876e-5
< 0  -1  1 >:  -7.634888520921876e-5
< 0  0  0 >:  7.634888520921876e-5
< 0  1  -1 >:  -7.634888520921876e-5
< 0  2  -2 >:  7.634888520921876e-5
< 0  3  -3 >:  -7.634888520921876e-5
ctilde_basis_func: rank=3 ndens=1 mu0=0 mu=( 0  0  0 )
n=( 1  3  3 )
l=( 1  3  4 )
num_ms=21
< -1  -3  4 >:  7.882291435045022e-5
< -1  -2  3 >:  -6.826264622781486e-5
< -1  -1  2 >:  5.769246589846526e-5
< -1  0  1 >:  -4.71057011513863e-5
< -1  1  0 >:  3.648791921414854e-5
< -1  2  -1 >:  -2.5800855107711355e-5
< -1  3  -2 >:  1.4896130641759686e-5
< 0  -3  3 >:  -3.94114571752251e-5
< 0  -2  2 >:  5.160171021542271e-5
< 0  -1  1 >:  -5.769246589846526e-5
< 0  0  0 >:  5.9584522567038745e-5
< 0  1  -1 >:  -5.769246589846526e-5
< 0  2  -2 >:  5.160171021542271e-5
< 0  3  -3 >:  -3.94114571752251e-5
< 1  -3  2 >:  1.4896130641759686e-5
< 1  -2  1 >:  -2.5800855107711355e-5
< 1  -1  0 >:  3.648791921414854e-5
< 1  0  -1 >:  -4.71057011513863e-5
< 1  1  -2 >:  5.769246589846526e-5
< 1  2  -3 >:  -6.826264622781486e-5
< 1  3  -4 >:  7.88229143504502e-5
ctilde_basis_func: rank=3 ndens=1 mu0=0 mu=( 0  0  0 )
n=( 2  6  6 )
l=( 2  0  2 )
num_ms=5
< -2  0  2 >:  9.924317870455156e-6
< -1  0  1 >:  -9.924317870455156e-6
< 0  0  0 >:  9.924317870455156e-6
< 1  0  -1 >:  -9.924317870455156e-6
< 2  0  -2 >:  9.924317870455156e-6
ctilde_basis_func: rank=3 ndens=1 mu0=0 mu=( 0  0  0 )
n=( 1  2  3 )
l=( 3  3  4 )
num_ms=43
< -3  -1  4 >:  1.4585779522834113e-5
< -3  0  3 >:  -1.7863858665839534e-5
< -3  1  2 >:  1.653871941233032e-5
< -3  2  1 >:  -1.232723362225532e-5
< -3  3  0 >:  6.751903926545359e-6
< -2  -2  4 >:  -1.883016039446323e-5
< -2  -1  3 >:  8.421103733848808e-6
< -2  0  2 >:  3.898213549533455e-6
< -2  1  1 >:  -1.2731512139680801e-5
< -2  2  0 >:  1.57544424952725e-5
< -2  3  -1 >:  -1.232723362225532e-5
< -1  -3  4 >:  1.4585779522834095e-5
< -1  -2  3 >:  8.421103733848808e-6
< -1  -1  2 >:  -1.4234263300345033e-5
< -1  0  1 >:  8.716670487567547e-6
< -1  1  0 >:  2.2506346421817857e-6
< -1  2  -1 >:  -1.2731512139680801e-5
< -1  3  -2 >:  1.653871941233032e-5
< 0  -3  3 >:  -1.7863858665839534e-5
< 0  -2  2 >:  3.898213549533455e-6
< 0  -1  1 >:  8.716670487567547e-6
< 0  0  0 >:  -1.3503807853090719e-5
< 0  1  -1 >:  8.716670487567547e-6
< 0  2  -2 >:  3.898213549533455e-6
< 0  3  -3 >:  -1.7863858665839534e-5
< 1  -3  2 >:  1.653871941233032e-5
< 1  -2  1 >:  -1.2731512139680801e-5
< 1  -1  0 >:  2.2506346421817857e-6
< 1  0  -1 >:  8.716670487567547e-6
< 1  1  -2 >:  -1.4234263300345033e-5
< 1  2  -3 >:  8.421103733848808e-6
< 1  3  -4 >:  1.4585779522834113e-5
< 2  -3  1 >:  -1.232723362225532e-5
< 2  -2  0 >:  1.57544424952725e-5
< 2  -1  -1 >:  -1.2731512139680801e-5
< 2  0  -2 >:  3.898213549533455e-6
< 2  1  -3 >:  8.421103733848808e-6
< 2  2  -4 >:  -1.883016039446323e-5
< 3  -3  0 >:  6.751903926545359e-6
< 3  -2  -1 >:  -1.232723362225532e-5
< 3  -1  -2 >:  1.653871941233032e-5
< 3  0  -3 >:  -1.7863858665839534e-5
< 3  1  -4 >:  1.4585779522834113e-5
ctilde_basis_func: rank=3 ndens=1 mu0=0 mu=( 0  0  0 )
n=( 1  4  8 )
l=( 1  1  2 )
num_ms=9
< -1  -1  2 >:  3.1959695488185235e-5
< -1  0  1 >:  -2.259891740435289e-5
< -1  1  0 >:  1.3047491046797258e-5
< 0  -1  1 >:  -2.259891740435289e-5
< 0  0  0 >:  2.6094982093594516e-5
< 0  1  -1 >:  -2.259891740435289e-5
< 1  -1  0 >:  1.3047491046797258e-5
< 1  0  -1 >:  -2.259891740435289e-5
< 1  1  -2 >:  3.1959695488185235e-5
ctilde_basis_func: rank=3 ndens=1 mu0=0 mu=( 0  0  0 )
n=( 2  2  5 )
l=( 1  1  2 )
num_ms=6
< -1  -1  2 >:  -6.799004001685173e-5
< -1  0  1 >:  9.615243669812118e-5
< -1  1  0 >:  -5.5513635210898714e-5
< 0  0  0 >:  -5.5513635210898714e-5
< 0  1  -1 >:  9.615243669812118e-5
< 1  1  -2 >:  -6.799004001685173e-5
ctilde_basis_func: rank=3 ndens=1 mu0=0 mu=( 0  0  0 )
n=( 1  6  6 )
l=( 2  0  2 )
num_ms=5
< -2  0  2 >:  -4.1413623906019945e-5
< -1  0  1 >:  4.1413623906019945e-5
< 0  0  0 >:  -4.1413623906019945e-5
< 1  0  -1 >:  4.1413623906019945e-5
< 2  0  -2 >:  -4.1413623906019945e-5
ctilde_basis_func: rank=3 ndens=1 mu0=0 mu=( 0  0  0 )
n=( 2  2  3 )
l=( 1  3  2 )
num_ms=15
< -1  -1  2 >:  6.719444734200187e-5
< -1  0  1 >:  -0.00011638419678285875
< -1  1  0 >:  0.00016459210953621796
< -1  2  -1 >:  -0.00021248749971697307
< -1  3  -2 >:  0.0002602429755131845
< 0  -2  2 >:  -0.0001502513519672463
< 0  -1  1 >:  0.00019005459749444766
< 0  0  0 >:  -0.00020158334202600566
< 0  1  -1 >:  0.00019005459749444766
< 0  2  -2 >:  -0.0001502513519672463
< 1  -3  2 >:  0.00026024297551318455
< 1  -2  1 >:  -0.00021248749971697307
< 1  -1  0 >:  0.00016459210953621796
< 1  0  -1 >:  -0.00011638419678285875
< 1  1  -2 >:  6.719444734200187e-5
ctilde_basis_func: rank=3 ndens=1 mu0=0 mu=( 0  0  0 )
n=( 2  2  7 )
l=( 1  2  3 )
num_ms=15
< -1  -2  3 >:  -2.7471549849830416e-5
< -1  -1  2 >:  2.2430426525172115e-5
< -1  0  1 >:  -1.737453367606414e-5
< -1  1  0 >:  1.228565058229899e-5
< -1  2  -1 >:  -7.093123670860003e-6
< 0  -2  2 >:  1.5860706700855815e-5
< 0  -1  1 >:  -2.00623833898397e-5
< 0  0  0 >:  2.127937101258001e-5
< 0  1  -1 >:  -2.00623833898397e-5
< 0  2  -2 >:  1.5860706700855815e-5
< 1  -2  1 >:  -7.093123670860003e-6
< 1  -1  0 >:  1.228565058229899e-5
< 1  0  -1 >:  -1.737453367606414e-5
< 1  1  -2 >:  2.2430426525172115e-5
< 1  2  -3 >:  -2.7471549849830416e-5
ctilde_basis_func: rank=3 ndens=1 mu0=0 mu=( 0  0  0 )
n=( 1  2  3 )
l=( 2  3  5 )
num_ms=35
< -2  -3  5 >:  4.8740690917230456e-5
< -2  -2  4 >:  -3.775437684101533e-5
< -2  -1  3 >:  2.8140451021551353e-5
< -2  0  2 >:  -1.989830374298687e-5
< -2  1  1 >:  1.3026497586208634e-5
< -2  2  0 >:  -7.520851887995564e-6
< -2  3  -1 >:  3.363427214053144e-6
< -1  -3  4 >:  -3.0826319605745934e-5
< -1  -2  3 >:  3.559516784500571e-5
< -1  -1  2 >:  -3.446487306729122e-5
< -1  0  1 >:  3.0083407551982257e-5
< -1  1  0 >:  -2.3783021910843554e-5
< -1  2  -1 >:  1.6477360922841952e-5
< -1  3  -2 >:  -8.898791961251428e-6
< 0  -3  3 >:  1.7797583922502855e-5
< 0  -2  2 >:  -2.6696375883754284e-5
< 0  -1  1 >:  3.1908272221807874e-5
< 0  0  0 >:  -3.3634272140531434e-5
< 0  1  -1 >:  3.1908272221807874e-5
< 0  2  -2 >:  -2.6696375883754284e-5
< 0  3  -3 >:  1.7797583922502855e-5
< 1  -3  2 >:  -8.898791961251428e-6
< 1  -2  1 >:  1.6477360922841952e-5
< 1  -1  0 >:  -2.3783021910843554e-5
< 1  0  -1 >:  3.0083407551982257e-5
< 1  1  -2 >:  -3.446487306729122e-5
< 1  2  -3 >:  3.559516784500571e-5
< 1  3  -4 >:  -3.0826319605745934e-5
< 2  -3  1 >:  3.363427214053144e-6
< 2  -2  0 >:  -7.520851887995564e-6
< 2  -1  -1 >:  1.3026497586208634e-5
< 2  0  -2 >:  -1.989830374298687e-5
< 2  1  -3 >:  2.8140451021551353e-5
< 2  2  -4 >:  -3.775437684101533e-5
< 2  3  -5 >:  4.874069091723044e-5
ctilde_basis_func: rank=3 ndens=1 mu0=0 mu=( 0  0  0 )
n=( 2  5  8 )
l=( 2  0  2 )
num_ms=5
< -2  0  2 >:  -9.041939998914639e-6
< -1  0  1 >:  9.041939998914639e-6
< 0  0  0 >:  -9.041939998914639e-6
< 1  0  -1 >:  9.041939998914639e-6
< 2  0  -2 >:  -9.041939998914639e-6
ctilde_basis_func: rank=3 ndens=1 mu0=0 mu=( 0  0  0 )
n=( 2  3  3 )
l=( 2  2  4 )
num_ms=25
< -2  -2  4 >:  -7.40136348914307e-6
< -2  -1  3 >:  5.233554313199589e-6
< -2  0  2 >:  -3.4261655419856767e-6
< -2  1  1 >:  1.9780975979536505e-6
< -2  2  0 >:  -8.846321390306824e-7
< -1  -2  3 >:  5.233554313199589e-6
< -1  -1  2 >:  -5.5949049014473896e-6
< -1  0  1 >:  4.845329776411509e-6
< -1  1  0 >:  -3.5385285561227295e-6
< -1  2  -1 >:  1.9780975979536505e-6
< 0  -2  2 >:  -3.4261655419856767e-6
< 0  -1  1 >:  4.845329776411509e-6
< 0  0  0 >:  -5.3077928341840944e-6
< 0  1  -1 >:  4.845329776411509e-6
< 0  2  -2 >:  -3.4261655419856767e-6
< 1  -2  1 >:  1.9780975979536505e-6
< 1  -1  0 >:  -3.5385285561227295e-6
< 1  0  -1 >:  4.845329776411509e-6
< 1  1  -2 >:  -5.5949049014473896e-6
< 1  2  -3 >:  5.233554313199589e-6
< 2  -2  0 >:  -8.846321390306824e-7
< 2  -1  -1 >:  1.9780975979536505e-6
< 2  0  -2 >:  -3.4261655419856767e-6
< 2  1  -3 >:  5.233554313199589e-6
< 2  2  -4 >:  -7.401363489143066e-6
ctilde_basis_func: rank=3 ndens=1 mu0=0 mu=( 0  0  0 )
n=( 4  4  4 )
l=( 1  1  2 )
num_ms=6
< -1  -1  2 >:  -1.6267372593057483e-5
< -1  0  1 >:  2.3005538945278275e-5
< -1  1  0 >:  -1.3282254102908832e-5
< 0  0  0 >:  -1.3282254102908832e-5
< 0  1  -1 >:  2.3005538945278275e-5
< 1  1  -2 >:  -1.6267372593057483e-5
ctilde_basis_func: rank=3 ndens=1 mu0=0 mu=( 0  0  0 )
n=( 2  3  5 )
l=( 3  1  2 )
num_ms=15
< -3  1  2 >:  4.359654142188518e-5
< -2  0  2 >:  -2.5170474925662075e-5
< -2  1  1 >:  -3.5596427011243235e-5
< -1  -1  2 >:  1.1256578591946862e-5
< -1  0  1 >:  3.183841222129981e-5
< -1  1  0 >:  2.7572873799806576e-5
< 0  -1  1 >:  -1.949696604064412e-5
< 0  0  0 >:  -3.3769735775840626e-5
< 0  1  -1 >:  -1.949696604064412e-5
< 1  -1  0 >:  2.7572873799806576e-5
< 1  0  -1 >:  3.183841222129981e-5
< 1  1  -2 >:  1.1256578591946876e-5
< 2  -1  -1 >:  -3.5596427011243235e-5
< 2  0  -2 >:  -2.5170474925662075e-5
< 3  -1  -2 >:  4.359654142188518e-5
ctilde_basis_func: rank=3 ndens=1 mu0=0 mu=( 0  0  0 )
n=( 2  2  4 )
l=( 1  4  3 )
num_ms=21
< -1  -2  3 >:  -1.089131419407679e-5
< -1  -1  2 >:  1.886430954533708e-5
< -1  0  1 >:  -2.6678162403819933e-5
< -1  1  0 >:  3.4441359565803806e-5
< -1  2  -1 >:  -4.2181878491971864e-5
< -1  3  -2 >:  4.991027171190386e-5
< -1  4  -3 >:  -5.76314176163901e-5
< 0  -3  3 >:  2.881570880819505e-5
< 0  -2  2 >:  -3.772861909067416e-5
< 0  -1  1 >:  4.2181878491971864e-5
< 0  0  0 >:  -4.356525677630716e-5
< 0  1  -1 >:  4.2181878491971864e-5
< 0  2  -2 >:  -3.772861909067416e-5
< 0  3  -3 >:  2.881570880819505e-5
< 1  -4  3 >:  -5.763141761639013e-5
< 1  -3  2 >:  4.991027171190386e-5
< 1  -2  1 >:  -4.2181878491971864e-5
< 1  -1  0 >:  3.4441359565803806e-5
< 1  0  -1 >:  -2.6678162403819933e-5
< 1  1  -2 >:  1.886430954533708e-5
< 1  2  -3 >:  -1.089131419407679e-5
ctilde_basis_func: rank=3 ndens=1 mu0=0 mu=( 0  0  0 )
n=( 1  3  7 )
l=( 2  3  1 )
num_ms=15
< -2  1  1 >:  4.001782659039234e-6
< -2  2  0 >:  -8.94825805679159e-6
< -2  3  -1 >:  1.5498837593600587e-5
< -1  0  1 >:  -6.931290886304034e-6
< -1  1  0 >:  1.1318750620165503e-5
< -1  2  -1 >:  -1.2654747903528984e-5
< 0  -1  1 >:  9.802325576164195e-6
< 0  0  0 >:  -1.20053479771177e-5
< 0  1  -1 >:  9.802325576164195e-6
< 1  -2  1 >:  -1.2654747903528984e-5
< 1  -1  0 >:  1.1318750620165503e-5
< 1  0  -1 >:  -6.931290886304034e-6
< 2  -3  1 >:  1.5498837593600587e-5
< 2  -2  0 >:  -8.94825805679159e-6
< 2  -1  -1 >:  4.001782659039234e-6
ctilde_basis_func: rank=3 ndens=1 mu0=0 mu=( 0  0  0 )
n=( 1  2  3 )
l=( 5  3  2 )
num_ms=35
< -5  3  2 >:  1.613748276808043e-5
< -4  2  2 >:  -1.2500040402096937e-5
< -4  3  1 >:  -1.0206240249770584e-5
< -3  1  2 >:  9.316980020194183e-6
< -3  2  1 >:  1.178515111123808e-5
< -3  3  0 >:  5.89257555561904e-6
< -2  0  2 >:  -6.588099752458883e-6
< -2  1  1 >:  -1.141092349659073e-5
< -2  2  0 >:  -8.838863333428561e-6
< -2  3  -1 >:  -2.94628777780952e-6
< -1  -1  2 >:  4.312923685937524e-6
< -1  0  1 >:  9.96027060428137e-6
< -1  1  0 >:  1.0564462330110582e-5
< -1  2  -1 >:  5.455464888820517e-6
< -1  3  -2 >:  1.1135921072733025e-6
< 0  -2  2 >:  -2.4900676510703424e-6
< 0  -1  1 >:  -7.874285305287695e-6
< 0  0  0 >:  -1.1135921072733024e-5
< 0  1  -1 >:  -7.874285305287695e-6
< 0  2  -2 >:  -2.4900676510703424e-6
< 1  -3  2 >:  1.113592107273307e-6
< 1  -2  1 >:  5.455464888820517e-6
< 1  -1  0 >:  1.0564462330110582e-5
< 1  0  -1 >:  9.96027060428137e-6
< 1  1  -2 >:  4.312923685937524e-6
< 2  -3  1 >:  -2.94628777780952e-6
< 2  -2  0 >:  -8.838863333428561e-6
< 2  -1  -1 >:  -1.141092349659073e-5
< 2  0  -2 >:  -6.588099752458883e-6
< 3  -3  0 >:  5.89257555561904e-6
< 3  -2  -1 >:  1.178515111123808e-5
< 3  -1  -2 >:  9.316980020194183e-6
< 4  -3  -1 >:  -1.0206240249770584e-5
< 4  -2  -2 >:  -1.2500040402096937e-5
< 5  -3  -2 >:  1.613748276808043e-5
ctilde_basis_func: rank=3 ndens=1 mu0=0 mu=( 0  0  0 )
n=( 2  4  5 )
l=( 1  2  3 )
num_ms=15
< -1  -2  3 >:  6.003399383587319e-5
< -1  -1  2 >:  -4.901755070642663e-5
< -1  0  1 >:  3.7968831511573585e-5
< -1  1  0 >:  -2.6848018235563156e-5
< -1  2  -1 >:  1.5500710555510366e-5
< 0  -2  2 >:  -3.4660642501669716e-5
< 0  -1  1 >:  4.384263018804511e-5
< 0  0  0 >:  -4.650213166653111e-5
< 0  1  -1 >:  4.384263018804511e-5
< 0  2  -2 >:  -3.4660642501669716e-5
< 1  -2  1 >:  1.5500710555510366e-5
< 1  -1  0 >:  -2.6848018235563156e-5
< 1  0  -1 >:  3.7968831511573585e-5
< 1  1  -2 >:  -4.901755070642663e-5
< 1  2  -3 >:  6.003399383587318e-5
ctilde_basis_func: rank=3 ndens=1 mu0=0 mu=( 0  0  0 )
n=( 1  4  4 )
l=( 4  2  2 )
num_ms=15
< -4  2  2 >:  -1.7963026435922354e-5
< -3  1  2 >:  2.5403555606947834e-5
< -2  0  2 >:  -1.6630530927122608e-5
< -2  1  1 >:  -1.3578771641008414e-5
< -1  -1  2 >:  9.601641507540636e-6
< -1  0  1 >:  2.3519122386602e-5
< 0  -2  2 >:  -4.29398462128888e-6
< 0  -1  1 >:  -1.7175938485155535e-5
< 0  0  0 >:  -1.288195386386665e-5
< 1  -2  1 >:  9.601641507540636e-6
< 1  -1  0 >:  2.3519122386602e-5
< 2  -2  0 >:  -1.6630530927122608e-5
< 2  -1  -1 >:  -1.3578771641008414e-5
< 3  -2  -1 >:  2.5403555606947834e-5
< 4  -2  -2 >:  -1.7963026435922354e-5
ctilde_basis_func: rank=3 ndens=1 mu0=0 mu=( 0  0  0 )
n=( 1  2  4 )
l=( 3  1  4 )
num_ms=21
< -3  -1  4 >:  3.8500551131960335e-5
< -3  0  3 >:  -1.9250275565980154e-5
< -3  1  2 >:  7.275920259578094e-6
< -2  -1  3 >:  -3.334245533997936e-5
< -2  0  2 >:  2.520452712281798e-5
< -2  1  1 >:  -1.260226356140899e-5
< -1  -1  2 >:  2.8179517993679097e-5
< -1  0  1 >:  -2.8179517993679097e-5
< -1  1  0 >:  1.782229204514486e-5
< 0  -1  1 >:  -2.3008480094030324e-5
< 0  0  0 >:  2.9103681038312376e-5
< 0  1  -1 >:  -2.3008480094030324e-5
< 1  -1  0 >:  1.782229204514486e-5
< 1  0  -1 >:  -2.8179517993679097e-5
< 1  1  -2 >:  2.8179517993679097e-5
< 2  -1  -1 >:  -1.260226356140899e-5
< 2  0  -2 >:  2.520452712281798e-5
< 2  1  -3 >:  -3.334245533997936e-5
< 3  -1  -2 >:  7.275920259578094e-6
< 3  0  -3 >:  -1.9250275565980154e-5
< 3  1  -4 >:  3.850055113196031e-5
ctilde_basis_func: rank=3 ndens=1 mu0=0 mu=( 0  0  0 )
n=( 1  1  1 )
l=( 3  3  4 )
num_ms=24
< -3  -1  4 >:  0.0005925386315619952
< -3  0  3 >:  -0.0007257086501069443
< -3  1  2 >:  0.0006718756548478148
< -3  2  1 >:  -0.0005007865455556334
< -3  3  0 >:  0.00027429208749590894
< -2  -2  4 >:  -0.0003824820420040236
< -2  -1  3 >:  0.0003421023384375706
< -2  0  2 >:  0.00015836261055234737
< -2  1  1 >:  -0.0005172101202511228
< -2  2  0 >:  0.0006400148708237873
< -2  3  -1 >:  -0.0005007865455556334
< -1  -1  2 >:  -0.00028912924688308776
< -1  0  1 >:  0.0003541095622893743
< -1  1  0 >:  9.143069583196961e-5
< -1  2  -1 >:  -0.0005172101202511228
< -1  3  -2 >:  0.0006718756548478148
< 0  0  0 >:  -0.00027429208749590894
< 0  1  -1 >:  0.0003541095622893743
< 0  2  -2 >:  0.00015836261055234737
< 0  3  -3 >:  -0.0007257086501069443
< 1  1  -2 >:  -0.00028912924688308776
< 1  2  -3 >:  0.0003421023384375706
< 1  3  -4 >:  0.0005925386315619955
< 2  2  -4 >:  -0.0003824820420040236
ctilde_basis_func: rank=3 ndens=1 mu0=0 mu=( 0  0  0 )
n=( 1  3  4 )
l=( 4  4  0 )
num_ms=9
< -4  4  0 >:  1.951726947494473e-5
< -3  3  0 >:  -1.951726947494473e-5
< -2  2  0 >:  1.951726947494473e-5
< -1  1  0 >:  -1.951726947494473e-5
< 0  0  0 >:  1.951726947494473e-5
< 1  -1  0 >:  -1.951726947494473e-5
< 2  -2  0 >:  1.951726947494473e-5
< 3  -3  0 >:  -1.951726947494473e-5
< 4  -4  0 >:  1.9517269474944735e-5
ctilde_basis_func: rank=3 ndens=1 mu0=0 mu=( 0  0  0 )
n=( 2  2  6 )
l=( 1  2  3 )
num_ms=15
< -1  -2  3 >:  3.857460841581517e-5
< -1  -1  2 >:  -3.149603588213897e-5
< -1  0  1 >:  2.4396724488615084e-5
< -1  1  0 >:  -1.7251089324639636e-5
< -1  2  -1 >:  9.959921065394972e-6
< 0  -2  2 >:  -2.2271060552755292e-5
< 0  -1  1 >:  2.8170910901694113e-5
< 0  0  0 >:  -2.9879763196184923e-5
< 0  1  -1 >:  2.8170910901694113e-5
< 0  2  -2 >:  -2.2271060552755292e-5
< 1  -2  1 >:  9.959921065394972e-6
< 1  -1  0 >:  -1.7251089324639636e-5
< 1  0  -1 >:  2.4396724488615084e-5
< 1  1  -2 >:  -3.149603588213897e-5
< 1  2  -3 >:  3.8574608415815166e-5
ctilde_basis_func: rank=3 ndens=1 mu0=0 mu=( 0  0  0 )
n=( 1  2  6 )
l=( 4  3  1 )
num_ms=21
< -4  3  1 >:  1.567638420202946e-5
< -3  2  1 >:  -1.3576146958442558e-5
< -3  3  0 >:  -7.83819210101473e-6
< -2  1  1 >:  1.147393836474734e-5
< -2  2  0 >:  1.026260246128713e-5
< -2  3  -1 >:  2.9625581468051203e-6
< -1  0  1 >:  -9.368431444591664e-6
< -1  1  0 >:  -1.147393836474734e-5
< -1  2  -1 >:  -5.131301230643565e-6
< 0  -1  1 >:  7.256755792997881e-6
< 0  0  0 >:  1.1850232587220481e-5
< 0  1  -1 >:  7.256755792997881e-6
< 1  -2  1 >:  -5.131301230643565e-6
< 1  -1  0 >:  -1.147393836474734e-5
< 1  0  -1 >:  -9.368431444591664e-6
< 2  -3  1 >:  2.9625581468051245e-6
< 2  -2  0 >:  1.026260246128713e-5
< 2  -1  -1 >:  1.147393836474734e-5
< 3  -3  0 >:  -7.83819210101473e-6
< 3  -2  -1 >:  -1.3576146958442558e-5
< 4  -3  -1 >:  1.567638420202946e-5
ctilde_basis_func: rank=3 ndens=1 mu0=0 mu=( 0  0  0 )
n=( 1  2  5 )
l=( 2  3  1 )
num_ms=15
< -2  1  1 >:  -2.502293328789317e-7
< -2  2  0 >:  5.595297982817145e-7
< -2  3  -1 >:  -9.691340389726943e-7
< -1  0  1 >:  4.3340991809037496e-7
< -1  1  0 >:  -7.07755432521914e-7
< -1  2  -1 >:  7.912946292818826e-7
< 0  -1  1 >:  -6.129341842304205e-7
< 0  0  0 >:  7.506879986367949e-7
< 0  1  -1 >:  -6.129341842304205e-7
< 1  -2  1 >:  7.912946292818826e-7
< 1  -1  0 >:  -7.07755432521914e-7
< 1  0  -1 >:  4.3340991809037496e-7
< 2  -3  1 >:  -9.691340389726947e-7
< 2  -2  0 >:  5.595297982817145e-7
< 2  -1  -1 >:  -2.502293328789317e-7
ctilde_basis_func: rank=3 ndens=1 mu0=0 mu=( 0  0  0 )
n=( 1  1  7 )
l=( 3  3  2 )
num_ms=15
< -3  1  2 >:  1.0475261032523976e-5
< -3  2  1 >:  -1.6562841973791464e-5
< -3  3  0 >:  1.6562841973791464e-5
< -2  0  2 >:  -1.4814256221593802e-5
< -2  1  1 >:  1.2829522226071903e-5
< -2  3  -1 >:  -1.6562841973791464e-5
< -1  -1  2 >:  8.114102305228175e-6
< -1  0  1 >:  -4.684679150155649e-6
< -1  1  0 >:  -9.937705184274877e-6
< -1  2  -1 >:  1.2829522226071903e-5
< -1  3  -2 >:  1.0475261032523978e-5
< 0  0  0 >:  6.625136789516586e-6
< 0  1  -1 >:  -4.684679150155649e-6
< 0  2  -2 >:  -1.4814256221593802e-5
< 1  1  -2 >:  8.114102305228175e-6
ctilde_basis_func: rank=3 ndens=1 mu0=0 mu=( 0  0  0 )
n=( 1  2  3 )
l=( 2  2  4 )
num_ms=25
< -2  -2  4 >:  -0.0002226472547352533
< -2  -1  3 >:  0.00015743538363586617
< -2  0  2 >:  -0.0001030656517965384
< -2  1  1 >:  5.950498180893568e-5
< -2  2  0 >:  -2.6611436864933714e-5
< -1  -2  3 >:  0.00015743538363586617
< -1  -1  2 >:  -0.00016830550460592228
< -1  0  1 >:  0.00014575684258548752
< -1  1  0 >:  -0.00010644574745973486
< -1  2  -1 >:  5.950498180893568e-5
< 0  -2  2 >:  -0.0001030656517965384
< 0  -1  1 >:  0.00014575684258548752
< 0  0  0 >:  -0.00015966862118960227
< 0  1  -1 >:  0.00014575684258548752
< 0  2  -2 >:  -0.0001030656517965384
< 1  -2  1 >:  5.950498180893568e-5
< 1  -1  0 >:  -0.00010644574745973486
< 1  0  -1 >:  0.00014575684258548752
< 1  1  -2 >:  -0.00016830550460592228
< 1  2  -3 >:  0.00015743538363586617
< 2  -2  0 >:  -2.6611436864933714e-5
< 2  -1  -1 >:  5.950498180893568e-5
< 2  0  -2 >:  -0.0001030656517965384
< 2  1  -3 >:  0.00015743538363586617
< 2  2  -4 >:  -0.00022264725473525318
ctilde_basis_func: rank=3 ndens=1 mu0=0 mu=( 0  0  0 )
n=( 1  2  2 )
l=( 5  2  3 )
num_ms=35
< -5  2  3 >:  6.548788093316538e-5
< -4  1  3 >:  -4.1418172577343125e-5
< -4  2  2 >:  -5.0726694446512754e-5
< -3  0  3 >:  2.3912793086871425e-5
< -3  1  2 >:  4.782558617374285e-5
< -3  2  1 >:  3.780944568542118e-5
< -2  -1  3 >:  -1.1956396543435712e-5
< -2  0  2 >:  -3.586918963030714e-5
< -2  1  1 >:  -4.630692469337844e-5
< -2  2  0 >:  -2.6735315437065778e-5
< -1  -2  3 >:  4.519093118629043e-6
< -1  -1  2 >:  2.2138944481527683e-5
< -1  0  1 >:  4.287188163978366e-5
< -1  1  0 >:  4.041999763962409e-5
< -1  2  -1 >:  1.7502372388410756e-5
< 0  -2  2 >:  -1.0104999409906023e-5
< 0  -1  1 >:  -3.195481388996047e-5
< 0  0  0 >:  -4.519093118629025e-5
< 0  1  -1 >:  -3.195481388996047e-5
< 0  2  -2 >:  -1.0104999409906023e-5
< 1  -2  1 >:  1.7502372388410756e-5
< 1  -1  0 >:  4.041999763962409e-5
< 1  0  -1 >:  4.287188163978366e-5
< 1  1  -2 >:  2.2138944481527683e-5
< 1  2  -3 >:  4.519093118629026e-6
< 2  -2  0 >:  -2.6735315437065778e-5
< 2  -1  -1 >:  -4.630692469337844e-5
< 2  0  -2 >:  -3.586918963030714e-5
< 2  1  -3 >:  -1.1956396543435712e-5
< 3  -2  -1 >:  3.780944568542118e-5
< 3  -1  -2 >:  4.782558617374285e-5
< 3  0  -3 >:  2.3912793086871425e-5
< 4  -2  -2 >:  -5.0726694446512754e-5
< 4  -1  -3 >:  -4.1418172577343125e-5
< 5  -2  -3 >:  6.548788093316538e-5
ctilde_basis_func: rank=3 ndens=1 mu0=0 mu=( 0  0  0 )
n=( 2  2  5 )
l=( 0  1  1 )
num_ms=3
< 0  -1  1 >:  -5.270258520921064e-5
< 0  0  0 >:  5.270258520921062e-5
< 0  1  -1 >:  -5.270258520921062e-5
ctilde_basis_func: rank=3 ndens=1 mu0=0 mu=( 0  0  0 )
n=( 2  2  10 )
l=( 0  2  2 )
num_ms=5
< 0  -2  2 >:  -1.225486849036939e-6
< 0  -1  1 >:  1.2254868490369385e-6
< 0  0  0 >:  -1.2254868490369385e-6
< 0  1  -1 >:  1.2254868490369385e-6
< 0  2  -2 >:  -1.2254868490369385e-6
ctilde_basis_func: rank=3 ndens=1 mu0=0 mu=( 0  0  0 )
n=( 1  2  2 )
l=( 1  4  5 )
num_ms=27
< -1  -4  5 >:  0.00011461269872091153
< -1  -3  4 >:  -0.00010251271416986463
< -1  -2  3 >:  9.040771597190301e-5
< -1  -1  2 >:  -7.829537872979615e-5
< -1  0  1 >:  6.61716724590678e-5
< -1  1  0 >:  -5.402894431709825e-5
< -1  2  -1 >:  4.1850640310657876e-5
< -1  3  -2 >:  -2.959287156066526e-5
< -1  4  -3 >:  1.7085452361644108e-5
< 0  -4  4 >:  -5.1256357084932314e-5
< 0  -3  3 >:  6.834180944657643e-5
< 0  -2  2 >:  -7.829537872979615e-5
< 0  -1  1 >:  8.370128062131575e-5
< 0  0  0 >:  -8.542726180822055e-5
< 0  1  -1 >:  8.370128062131575e-5
< 0  2  -2 >:  -7.829537872979615e-5
< 0  3  -3 >:  6.834180944657643e-5
< 0  4  -4 >:  -5.1256357084932314e-5
< 1  -4  3 >:  1.7085452361644108e-5
< 1  -3  2 >:  -2.959287156066526e-5
< 1  -2  1 >:  4.1850640310657876e-5
< 1  -1  0 >:  -5.402894431709825e-5
< 1  0  -1 >:  6.61716724590678e-5
< 1  1  -2 >:  -7.829537872979615e-5
< 1  2  -3 >:  9.040771597190301e-5
< 1  3  -4 >:  -0.00010251271416986463
< 1  4  -5 >:  0.00011461269872091162
ctilde_basis_func: rank=3 ndens=1 mu0=0 mu=( 0  0  0 )
n=( 1  4  4 )
l=( 3  1  4 )
num_ms=21
< -3  -1  4 >:  -6.338689760645229e-6
< -3  0  3 >:  3.169344880322612e-6
< -3  1  2 >:  -1.1978997674756288e-6
< -2  -1  3 >:  5.489466359427068e-6
< -2  0  2 >:  -4.149646519285465e-6
< -2  1  1 >:  2.0748232596427326e-6
< -1  -1  2 >:  -4.639445849858847e-6
< -1  0  1 >:  4.639445849858847e-6
< -1  1  0 >:  -2.934243193313907e-6
< 0  -1  1 >:  3.7880916738090765e-6
< 0  0  0 >:  -4.791599069902515e-6
< 0  1  -1 >:  3.7880916738090765e-6
< 1  -1  0 >:  -2.934243193313907e-6
< 1  0  -1 >:  4.639445849858847e-6
< 1  1  -2 >:  -4.639445849858847e-6
< 2  -1  -1 >:  2.0748232596427326e-6
< 2  0  -2 >:  -4.149646519285465e-6
< 2  1  -3 >:  5.489466359427068e-6
< 3  -1  -2 >:  -1.1978997674756288e-6
< 3  0  -3 >:  3.169344880322612e-6
< 3  1  -4 >:  -6.338689760645224e-6
ctilde_basis_func: rank=3 ndens=1 mu0=0 mu=( 0  0  0 )
n=( 4  5  6 )
l=( 1  2  1 )
num_ms=9
< -1  0  1 >:  4.019710618526059e-6
< -1  1  0 >:  -6.9623430230112504e-6
< -1  2  -1 >:  9.846239929036207e-6
< 0  -1  1 >:  -6.9623430230112504e-6
< 0  0  0 >:  8.039421237052118e-6
< 0  1  -1 >:  -6.9623430230112504e-6
< 1  -2  1 >:  9.846239929036203e-6
< 1  -1  0 >:  -6.9623430230112504e-6
< 1  0  -1 >:  4.019710618526059e-6
ctilde_basis_func: rank=3 ndens=1 mu0=0 mu=( 0  0  0 )
n=( 4  4  9 )
l=( 0  1  1 )
num_ms=3
< 0  -1  1 >:  -7.030517579856169e-6
< 0  0  0 >:  7.030517579856167e-6
< 0  1  -1 >:  -7.030517579856167e-6
ctilde_basis_func: rank=3 ndens=1 mu0=0 mu=( 0  0  0 )
n=( 3  3  12 )
l=( 0  1  1 )
num_ms=3
< 0  -1  1 >:  -3.0023071881326956e-6
< 0  0  0 >:  3.0023071881326943e-6
< 0  1  -1 >:  -3.0023071881326943e-6
ctilde_basis_func: rank=3 ndens=1 mu0=0 mu=( 0  0  0 )
n=( 1  1  3 )
l=( 1  4  5 )
num_ms=27
< -1  -4  5 >:  -9.871738551097293e-5
< -1  -3  4 >:  8.82955138254354e-5
< -1  -2  3 >:  -7.786932382158913e-5
< -1  -1  2 >:  6.743681260501294e-5
< -1  0  1 >:  -5.6994509098456334e-5
< -1  1  0 >:  4.653582181054378e-5
< -1  2  -1 >:  -3.604649257486238e-5
< -1  3  -2 >:  2.5488719337675726e-5
< -1  4  -3 >:  -1.4715918970905898e-5
< 0  -4  4 >:  4.41477569127177e-5
< 0  -3  3 >:  -5.886367588362359e-5
< 0  -2  2 >:  6.743681260501294e-5
< 0  -1  1 >:  -7.209298514972476e-5
< 0  0  0 >:  7.35795948545295e-5
< 0  1  -1 >:  -7.209298514972476e-5
< 0  2  -2 >:  6.743681260501294e-5
< 0  3  -3 >:  -5.886367588362359e-5
< 0  4  -4 >:  4.41477569127177e-5
< 1  -4  3 >:  -1.4715918970905898e-5
< 1  -3  2 >:  2.5488719337675726e-5
< 1  -2  1 >:  -3.604649257486238e-5
< 1  -1  0 >:  4.653582181054378e-5
< 1  0  -1 >:  -5.6994509098456334e-5
< 1  1  -2 >:  6.743681260501294e-5
< 1  2  -3 >:  -7.786932382158913e-5
< 1  3  -4 >:  8.82955138254354e-5
< 1  4  -5 >:  -9.871738551097301e-5
ctilde_basis_func: rank=3 ndens=1 mu0=0 mu=( 0  0  0 )
n=( 1  1  3 )
l=( 2  2  4 )
num_ms=15
< -2  -2  4 >:  0.00013688051879963748
< -2  -1  3 >:  -0.00019357828611111266
< -2  0  2 >:  0.00012672673557199892
< -2  1  1 >:  -7.31657148960161e-5
< -2  2  0 >:  3.272070242597219e-5
< -1  -1  2 >:  0.00010347194630666916
< -1  0  1 >:  -0.00017921866816118982
< -1  1  0 >:  0.00013088280970388876
< -1  2  -1 >:  -7.31657148960161e-5
< 0  0  0 >:  9.816210727791657e-5
< 0  1  -1 >:  -0.00017921866816118982
< 0  2  -2 >:  0.00012672673557199892
< 1  1  -2 >:  0.00010347194630666916
< 1  2  -3 >:  -0.00019357828611111266
< 2  2  -4 >:  0.00013688051879963742
ctilde_basis_func: rank=3 ndens=1 mu0=0 mu=( 0  0  0 )
n=( 2  2  7 )
l=( 0  2  2 )
num_ms=5
< 0  -2  2 >:  -6.400254001948544e-5
< 0  -1  1 >:  6.400254001948543e-5
< 0  0  0 >:  -6.400254001948543e-5
< 0  1  -1 >:  6.400254001948543e-5
< 0  2  -2 >:  -6.400254001948543e-5
ctilde_basis_func: rank=3 ndens=1 mu0=0 mu=( 0  0  0 )
n=( 1  2  3 )
l=( 4  1  5 )
num_ms=27
< -4  -1  5 >:  2.2910883222578555e-5
< -4  0  4 >:  -1.024605846204902e-5
< -4  1  3 >:  3.415352820683008e-6
< -3  -1  4 >:  -2.049211692409804e-5
< -3  0  3 >:  1.3661411282732032e-5
< -3  1  2 >:  -5.915564611196647e-6
< -2  -1  3 >:  1.807234840614043e-5
< -2  0  2 >:  -1.565111282576082e-5
< -2  1  1 >:  8.365871702248623e-6
< -1  -1  2 >:  -1.565111282576082e-5
< -1  0  1 >:  1.6731743404497245e-5
< -1  1  0 >:  -1.0800293926438937e-5
< 0  -1  1 >:  1.3227604595927814e-5
< 0  0  0 >:  -1.7076764103415036e-5
< 0  1  -1 >:  1.3227604595927814e-5
< 1  -1  0 >:  -1.0800293926438937e-5
< 1  0  -1 >:  1.6731743404497245e-5
< 1  1  -2 >:  -1.565111282576082e-5
< 2  -1  -1 >:  8.365871702248623e-6
< 2  0  -2 >:  -1.565111282576082e-5
< 2  1  -3 >:  1.807234840614043e-5
< 3  -1  -2 >:  -5.915564611196647e-6
< 3  0  -3 >:  1.3661411282732032e-5
< 3  1  -4 >:  -2.049211692409804e-5
< 4  -1  -3 >:  3.415352820683008e-6
< 4  0  -4 >:  -1.024605846204902e-5
< 4  1  -5 >:  2.2910883222578566e-5
ctilde_basis_func: rank=3 ndens=1 mu0=0 mu=( 0  0  0 )
n=( 1  3  3 )
l=( 4  2  2 )
num_ms=15
< -4  2  2 >:  -3.364443309776952e-5
< -3  1  2 >:  4.758041358521989e-5
< -2  0  2 >:  -3.11486924073679e-5
< -2  1  1 >:  -2.543280085098531e-5
< -1  -1  2 >:  1.7983705946298713e-5
< -1  0  1 >:  4.405090325268754e-5
< 0  -2  2 >:  -8.042557796658211e-6
< 0  -1  1 >:  -3.217023118663288e-5
< 0  0  0 >:  -2.4127673389974656e-5
< 1  -2  1 >:  1.7983705946298713e-5
< 1  -1  0 >:  4.405090325268754e-5
< 2  -2  0 >:  -3.11486924073679e-5
< 2  -1  -1 >:  -2.543280085098531e-5
< 3  -2  -1 >:  4.758041358521989e-5
< 4  -2  -2 >:  -3.364443309776952e-5
ctilde_basis_func: rank=3 ndens=1 mu0=0 mu=( 0  0  0 )
n=( 2  2  4 )
l=( 2  3  1 )
num_ms=15
< -2  1  1 >:  3.113804169103772e-5
< -2  2  0 >:  -6.962677790738285e-5
< -2  3  -1 >:  0.00012059711690290131
< -1  0  1 >:  -5.393267025707525e-5
< -1  1  0 >:  8.807168173040882e-5
< -1  2  -1 >:  -9.846713362096021e-5
< 0  -1  1 >:  7.627231373255186e-5
< 0  0  0 >:  -9.341412507311316e-5
< 0  1  -1 >:  7.627231373255186e-5
< 1  -2  1 >:  -9.846713362096021e-5
< 1  -1  0 >:  8.807168173040882e-5
< 1  0  -1 >:  -5.393267025707525e-5
< 2  -3  1 >:  0.00012059711690290135
< 2  -2  0 >:  -6.962677790738285e-5
< 2  -1  -1 >:  3.113804169103772e-5
ctilde_basis_func: rank=3 ndens=1 mu0=0 mu=( 0  0  0 )
n=( 1  1  2 )
l=( 2  4  4 )
num_ms=39
< -2  -2  4 >:  -0.0001017966092990916
< -2  -1  3 >:  0.0001526949139486374
< -2  0  2 >:  -0.0001825053296512648
< -2  1  1 >:  0.00019237750893928677
< -2  2  0 >:  -0.0001825053296512648
< -2  3  -1 >:  0.0001526949139486374
< -2  4  -2 >:  -0.0001017966092990916
< -1  -3  4 >:  0.0001904440175662435
< -1  -2  3 >:  -0.00017995268184296307
< -1  -1  2 >:  0.00012242829700687079
< -1  0  1 >:  -4.301691873303187e-5
< -1  1  0 >:  -4.301691873303187e-5
< -1  2  -1 >:  0.00012242829700687079
< -1  3  -2 >:  -0.00017995268184296307
< -1  4  -3 >:  0.0001904440175662435
< 0  -4  4 >:  -0.00021990580961484877
< 0  -3  3 >:  5.497645240371225e-5
< 0  -2  2 >:  6.283023131852828e-5
< 0  -1  1 >:  -0.00013351424155187255
< 0  0  0 >:  0.00015707557829632067
< 0  1  -1 >:  -0.00013351424155187255
< 0  2  -2 >:  6.283023131852828e-5
< 0  3  -3 >:  5.497645240371225e-5
< 0  4  -4 >:  -0.000219905809614849
< 1  -4  3 >:  0.0001904440175662435
< 1  -3  2 >:  -0.00017995268184296307
< 1  -2  1 >:  0.00012242829700687079
< 1  -1  0 >:  -4.301691873303187e-5
< 1  0  -1 >:  -4.301691873303187e-5
